1683 128
</s> 0.003127 0.003453 -0.002992 -0.002561 0.001068 0.002360 0.000735 0.000165 -0.002815 0.001733 -0.003403 0.000976 -0.000587 -0.000748 -0.002590 -0.001470 0.002015 0.002364 0.002320 0.001248 0.001207 -0.002971 -0.003200 0.003883 0.002970 0.002414 -0.000472 0.003137 -0.000387 0.000574 -0.000117 -0.002331 0.001025 -0.001045 -0.002989 0.003714 0.003421 -0.000856 -0.000177 0.000398 -0.002842 -0.003131 0.003558 0.000049 -0.002017 -0.002377 -0.002403 0.001326 0.000157 0.001040 -0.003292 -0.002975 -0.000102 0.000893 0.001992 -0.002477 0.003187 0.000724 0.000875 -0.000475 0.002333 -0.001787 -0.001639 0.001686 -0.000588 0.000805 0.001410 -0.003194 -0.001549 0.002276 0.003306 0.003072 -0.002380 -0.001647 -0.000710 0.001564 -0.002960 0.002342 0.002178 -0.001249 -0.001212 -0.001749 0.003304 0.003056 -0.000922 0.003293 0.003766 0.001418 0.003893 -0.002431 -0.001197 -0.001646 -0.002271 0.002199 0.001234 0.000332 -0.001714 0.001191 0.002390 0.000151 0.001781 -0.003869 0.003371 0.000375 -0.001431 -0.001628 -0.000584 -0.002293 -0.003414 -0.002216 0.003341 -0.001383 -0.002093 0.001810 -0.001331 0.003716 -0.001254 -0.003585 0.002122 -0.000058 -0.002726 0.000762 0.001127 -0.000376 0.001425 -0.003092 0.000688 0.001419 
a3048 -0.641131 -0.587787 0.364938 -0.825876 -0.315391 -0.538632 -0.136784 -0.309965 0.525040 -0.637890 -0.903109 -0.686775 0.459397 -0.389497 -0.146782 0.284427 -0.266782 0.885216 -0.183370 -0.870473 -0.730690 0.688396 0.335464 -0.218612 -0.189501 -1.016891 -0.274391 0.655580 0.053734 -0.721032 -0.193180 -1.649932 0.191034 -0.266087 0.444269 -0.077729 -0.309962 0.073716 0.754622 0.684008 -0.304988 -0.122831 -0.022910 -0.171572 -0.410734 0.031781 0.287213 -0.070959 -0.317176 -0.573523 0.292418 -0.282649 -0.120620 -0.352996 -0.135590 -0.277127 0.129908 0.096150 -0.231618 0.319606 0.018869 -0.107228 -0.372426 -0.428039 -0.654474 -0.021049 -0.585702 -0.499682 0.519175 -0.283455 0.218269 0.018900 -0.170209 -0.110409 0.440139 -0.396649 -0.439443 0.170734 0.221969 -0.135917 0.432180 0.225482 -0.657906 -0.333435 0.408907 -1.006965 -0.022159 0.613897 -0.163661 0.055548 0.169817 0.128908 -0.078939 0.113115 -0.637643 0.050630 -0.070676 0.031695 -0.031570 -0.287217 0.125062 -0.270505 0.060406 -0.052609 -0.001350 -0.080992 0.023647 -0.102471 0.215039 0.087708 -0.308294 0.318552 -0.003536 -0.217493 0.596258 -0.128547 -0.246822 0.102211 0.573658 0.308899 -0.542001 -0.312270 -0.373729 -0.315317 0.003462 -0.042831 0.562160 -0.342499 
a1083 -0.055197 -0.454149 0.272747 -0.232486 0.387009 -0.168753 0.222029 -0.295312 0.036797 0.003627 -0.208988 -0.307432 0.402033 -0.164103 -0.158561 0.370846 0.209070 0.329663 0.362316 -0.573999 -0.773852 0.386863 0.093476 0.044701 -0.082869 0.077674 -0.198673 -0.418824 0.338923 -0.095429 0.558641 -1.029267 0.732632 -0.521587 0.023255 0.054144 -0.856513 -0.320758 1.222357 0.374140 -0.676888 -0.058908 0.116582 0.336587 -0.767207 0.249472 0.686543 0.405446 0.099245 -0.527913 -0.091356 0.007993 -0.180853 0.123819 -0.145504 -0.434863 0.496473 0.413372 -0.667002 0.496965 0.307115 -0.371979 0.019433 -1.242955 -0.819712 0.392272 -0.566592 -0.772753 0.374549 -0.260601 0.212499 -0.146204 0.453360 -0.054617 0.529926 -0.364861 -0.435089 0.334520 -0.009331 0.514930 0.501608 0.001767 -0.381598 -0.053398 0.479135 -0.686368 -0.227679 0.520551 0.093441 0.251973 0.248784 -0.455033 0.084910 -0.235661 -0.702488 0.203500 0.056442 0.084318 0.220494 -0.581447 0.024850 -0.174691 -0.276348 -0.090303 -0.215824 0.233716 -0.616967 -0.247242 -0.099287 0.125705 -0.522598 0.667716 0.169371 -0.645639 0.342727 -0.251885 -0.187183 0.171795 0.170940 0.128451 -0.951324 -0.260063 -0.424282 -0.234683 0.377493 -0.043548 0.041159 -0.848234 
a544 0.179025 -0.166445 0.418293 -0.585933 0.098252 -0.262022 0.192715 -0.328317 0.391597 -0.019166 -0.359815 -0.199930 0.701056 -0.546424 0.040560 0.435559 -0.077759 0.386811 0.133487 -0.143503 -0.660328 0.491426 0.100609 -0.033628 -0.493874 0.136898 -0.156093 0.068220 0.315994 -0.352904 0.259801 -0.846956 0.235988 -0.436605 0.608681 0.262027 -0.773676 0.125078 0.808587 0.447123 -0.112123 -0.186435 -0.005145 -0.287395 -0.025736 -0.454844 0.075636 0.097827 -0.176717 -0.351972 -0.000249 -0.348807 -0.201364 0.238776 0.248609 -0.153635 0.208501 0.118250 -0.142178 -0.164083 0.285127 -0.574461 -0.197950 -0.734181 -1.223835 0.835777 -1.300368 -0.795277 0.998422 0.100591 -0.168484 -0.311261 0.457437 0.969895 1.208654 -1.023177 -0.591133 0.393756 0.254553 0.487136 0.200430 -0.078744 -0.512080 -0.167652 1.261576 -0.472184 0.088512 -0.094176 0.330538 0.670762 -0.010408 0.137536 -0.488497 -0.196386 -0.626713 0.602537 -0.070731 0.474460 0.112369 -1.166912 0.052322 -0.165119 -0.055428 0.306233 -0.220145 0.288727 -1.074666 -0.272809 -0.173244 -0.211921 -0.658643 0.655866 -0.026776 -0.402322 0.135673 -0.466123 -0.157929 0.531919 0.258828 0.528859 -0.868918 0.092125 -0.690502 -0.234387 -0.382544 -0.608327 0.565734 -0.583201 
a5542 -0.488444 -0.515304 0.701771 -0.281058 0.546141 0.054881 0.489102 -0.262374 0.632928 -0.265479 -0.149097 -0.843243 1.228891 0.056455 -0.714676 0.700362 0.386155 0.407062 0.600590 -0.623795 -0.990094 0.307470 -0.137693 -0.019838 0.187182 0.071334 -0.297728 -0.721025 0.234759 -0.599765 0.951146 -1.186777 0.524494 -0.299170 -0.072173 -0.267908 -1.145669 -0.494254 0.071666 0.835908 -0.663224 -0.022354 0.597125 -0.537465 -0.230336 -0.482300 0.017829 0.927724 -0.489754 -0.543078 -0.481995 0.546309 -0.319491 -0.480141 0.616623 -0.295409 0.791247 0.649590 -0.278819 0.443737 0.450386 -0.083780 -0.137427 -0.743141 -0.500113 0.789595 -1.002930 -0.865101 0.420781 0.270127 0.279290 0.263774 0.785991 0.522207 0.230425 -0.294876 -0.360033 0.882819 0.138875 0.323477 0.106711 -0.302219 0.194464 0.371503 0.325598 -0.821921 0.005072 0.152797 0.277823 0.289284 0.330599 -0.122760 -0.784924 0.298544 -0.772671 0.624106 0.198296 0.871077 0.285602 -0.585434 -0.457821 -0.279401 -0.546161 0.478147 -0.304745 0.614256 -1.224845 -0.082011 0.043406 -0.377747 -0.637420 0.489099 0.353012 -0.616189 0.017682 -0.103731 -0.115117 0.255410 0.486725 0.361041 -0.556819 0.127935 -0.034068 -0.032621 0.538997 -0.255439 0.251536 -0.694194 
a8981 -0.473895 -0.063559 0.068654 -0.571140 -0.019954 -0.037921 -0.101066 -0.264685 0.966636 -0.283470 -0.460238 -0.258280 0.900226 -0.269451 -0.246300 0.685798 0.822755 1.025465 -0.190313 -0.883435 -1.131068 -0.269561 0.427237 -0.674678 -0.520953 -0.402402 0.202664 -0.952683 0.048541 -0.438065 0.328325 -1.051679 0.400408 -0.306186 0.161196 -0.085302 -1.007204 -0.103029 0.685458 0.862435 -0.728417 -0.249625 0.171597 0.115603 -0.204425 0.119252 0.281121 0.091953 0.139952 -0.408931 0.350774 0.330141 -0.153307 -0.876149 -0.047319 -0.055026 0.712922 0.706353 -0.735582 0.365104 -0.056192 0.026535 -0.205809 -0.625390 -0.610049 0.226141 -0.866123 -1.091482 0.546300 0.076233 0.549258 -0.285945 0.131003 0.359064 0.605628 -0.574633 -0.431409 0.288837 0.077419 0.269743 0.808008 0.235751 -0.390165 0.157179 0.533922 -0.639471 0.348622 0.369505 -0.252054 0.385790 0.016480 -0.052551 -0.305520 -0.041410 -0.703094 0.239417 -0.022600 0.047044 0.480602 -0.581399 0.217862 -0.575372 -0.519419 -0.083712 -0.058815 0.603191 -0.790830 -0.275511 -0.415133 -0.364141 -1.324272 0.574368 0.324433 -0.030823 0.064829 -0.206678 -0.128082 0.242354 0.165773 -0.068955 -0.346968 0.031110 -0.463479 -0.341074 0.168546 0.112957 0.335955 -0.341800 
a2262 -0.012416 0.011344 -0.186579 -0.243294 -0.179162 -0.782526 -0.078989 0.028260 0.037397 -0.290835 -0.162041 -0.314355 -0.043746 0.293051 0.113309 -0.260518 0.167210 0.813481 0.069067 -0.289183 -0.332517 0.116553 0.101651 0.053176 -0.142637 0.542344 0.059829 -0.559498 -0.050072 -0.121291 -0.307454 -0.884757 0.586564 -0.568602 0.114347 -0.613224 -0.240665 -0.470649 0.735538 0.166268 -0.484719 0.246594 -0.135647 0.220192 -0.712897 0.515262 0.698361 -0.376594 0.275072 -0.685528 0.450537 0.847221 -0.594502 -0.765445 -0.373696 -0.402261 0.064011 0.035370 -0.602847 -0.048805 0.891800 0.017574 -0.132255 -0.521907 -1.124912 -0.745065 0.127619 -0.401784 0.440328 -0.585236 0.089279 0.375820 -0.243770 -0.426184 0.101424 -0.743320 -0.039260 -0.381674 0.093461 0.174410 0.879055 0.185859 0.663269 -0.648810 0.607513 -1.266291 -0.129222 0.752987 0.657330 0.196086 0.258333 -0.367271 0.065891 0.239290 -0.814860 -0.257985 0.044141 0.404853 0.215109 -0.700421 -0.075252 0.242403 0.109705 -0.349186 0.188654 0.100926 -0.849040 -0.676091 -0.198634 0.245388 -1.167814 0.859305 0.020393 -0.843979 1.104750 -0.195650 -0.693305 0.410055 0.670739 0.010700 -1.200851 -0.714877 -1.050998 -1.239938 0.634242 -0.371108 0.309689 -0.992039 
a161 0.188483 0.004736 0.747369 -0.846431 -0.089853 -0.693407 0.300505 -0.287023 0.378638 -0.261748 -0.601561 -0.492196 0.960253 -0.243888 -0.044803 -0.244618 0.094989 0.669554 0.317690 0.095151 -0.293545 -0.127976 0.623166 -0.062066 -0.389937 -0.449328 -0.254150 -0.466316 0.336955 -1.263970 0.291058 -1.424335 0.605822 -0.658317 0.888447 -0.193273 -0.982103 -0.372124 1.196163 0.866342 -0.689266 -0.156339 0.103429 -0.702442 -0.580871 -0.680874 -0.164441 -0.237769 -0.456325 -0.363113 -0.372920 -0.043534 -0.071763 -0.176830 0.611665 0.115849 -0.137718 -0.497320 -0.183600 -0.553883 -0.140813 -0.176291 -0.006770 -0.551421 -0.783836 -0.455012 -0.391617 -0.289569 0.380230 0.160418 -0.297280 -0.150321 0.063766 0.179962 0.634029 -0.712114 -0.640610 0.142171 -0.250539 0.509942 0.517887 -0.483083 -0.857689 -0.581893 1.031075 -1.033986 0.142967 0.522663 -0.247758 0.303986 0.071042 -0.056381 -0.487608 0.116527 -0.648333 0.175422 -0.214827 0.778487 0.007903 -0.250263 -0.177475 -0.790946 -0.087023 0.980577 -0.409449 0.166613 -1.430242 -0.592231 0.222558 -0.401704 -0.883343 0.454340 0.320551 -0.285851 0.177974 -0.448417 -0.099555 0.311740 0.261827 -0.179237 -0.462313 0.070557 -0.864792 -0.186165 0.005757 -0.502226 0.114051 -0.327701 
a1084 -0.043300 -0.421304 0.248624 -0.219350 0.376539 -0.143121 0.192239 -0.285331 0.066856 0.005575 -0.183945 -0.290137 0.433179 -0.137725 -0.162466 0.367034 0.216970 0.385335 0.379508 -0.547772 -0.786744 0.324376 0.087582 0.038647 -0.086172 0.066970 -0.156953 -0.490131 0.305902 -0.121577 0.561076 -1.011368 0.680504 -0.498888 -0.028987 0.070174 -0.832273 -0.315004 1.210407 0.374459 -0.702479 -0.068034 0.153505 0.364193 -0.756207 0.260461 0.681445 0.391507 0.074779 -0.568469 -0.012793 0.091604 -0.217610 -0.023333 -0.099181 -0.477844 0.541551 0.412609 -0.698848 0.392536 0.322851 -0.342894 -0.071068 -1.233435 -0.840032 0.368019 -0.582735 -0.844475 0.402114 -0.301947 0.245192 -0.127901 0.467200 -0.066470 0.531622 -0.364176 -0.460976 0.351928 0.002145 0.566362 0.508129 0.052465 -0.351256 0.028633 0.398418 -0.584931 -0.196012 0.563490 0.056591 0.240089 0.223302 -0.491484 0.086591 -0.319148 -0.615897 0.225819 0.048437 0.023761 0.230470 -0.565081 0.052374 -0.186223 -0.292017 -0.095214 -0.232357 0.251406 -0.504539 -0.201374 -0.121877 0.097960 -0.480349 0.604618 0.165013 -0.618135 0.351893 -0.241173 -0.148802 0.149523 0.177170 0.082336 -0.948430 -0.278551 -0.441095 -0.276837 0.341913 -0.039405 0.021486 -0.854053 
a1082 -0.051934 -0.413465 0.243158 -0.199163 0.355676 -0.147687 0.206735 -0.260859 0.060502 0.006239 -0.173719 -0.285790 0.407520 -0.129355 -0.149179 0.350152 0.200553 0.337283 0.351280 -0.552192 -0.762368 0.365645 0.075252 0.044620 -0.077396 0.071595 -0.189265 -0.403399 0.313167 -0.102774 0.529094 -0.985521 0.717411 -0.546501 0.020044 0.030666 -0.870472 -0.329988 1.242238 0.403797 -0.707437 -0.046090 0.130562 0.325694 -0.784086 0.248383 0.698693 0.391929 0.075873 -0.543420 -0.032688 0.044586 -0.213306 0.034376 -0.114801 -0.456086 0.514511 0.395443 -0.666819 0.433394 0.321775 -0.361955 -0.043222 -1.203206 -0.803677 0.370089 -0.555210 -0.762390 0.371326 -0.269552 0.204787 -0.112583 0.434846 -0.057836 0.501127 -0.343358 -0.435414 0.328708 0.014641 0.496035 0.488153 0.065701 -0.348651 -0.003475 0.414286 -0.614657 -0.207110 0.598059 0.077726 0.262232 0.247213 -0.495824 0.088519 -0.309318 -0.623245 0.252181 0.065917 0.053401 0.247977 -0.632025 0.039157 -0.182634 -0.310588 -0.103590 -0.261311 0.250124 -0.563163 -0.227731 -0.108454 0.102177 -0.511942 0.660120 0.182233 -0.640125 0.363136 -0.252616 -0.147035 0.157705 0.174690 0.093797 -0.978676 -0.287677 -0.447002 -0.279225 0.375018 -0.037867 0.009644 -0.881144 
a127 0.324596 0.063280 0.893769 -0.974681 -0.093360 -0.796854 0.401213 -0.310651 0.407385 -0.220754 -0.692002 -0.467620 1.147142 -0.203911 -0.014892 -0.338332 0.044192 0.530512 0.253490 0.075330 -0.220438 -0.100423 0.590597 -0.046477 -0.347672 -0.489556 -0.253358 -0.344256 0.380041 -1.204697 0.252407 -1.304883 0.557623 -0.638977 0.902587 -0.199671 -0.883403 -0.348114 1.126821 0.859748 -0.655235 -0.176063 0.128267 -0.770435 -0.564359 -0.730100 -0.193986 -0.261974 -0.513878 -0.372620 -0.388055 -0.054904 -0.081414 -0.148383 0.633528 0.103706 -0.198657 -0.514805 -0.134483 -0.622160 -0.133815 -0.190324 -0.005105 -0.512024 -0.850975 -0.475247 -0.404449 -0.292739 0.419213 0.104003 -0.295845 -0.132950 0.055388 0.211105 0.624826 -0.771188 -0.600621 0.112822 -0.218027 0.486645 0.477080 -0.503140 -0.828166 -0.571120 1.001819 -1.026138 0.140432 0.478451 -0.238162 0.257649 0.062322 -0.049391 -0.502976 0.134202 -0.613100 0.165377 -0.185260 0.799459 0.033088 -0.309297 -0.174591 -0.767052 -0.060651 0.875622 -0.384213 0.143966 -1.397920 -0.603132 0.199580 -0.364632 -0.883892 0.484128 0.291849 -0.319894 0.223024 -0.437046 -0.129943 0.331880 0.306970 -0.143038 -0.507113 0.031817 -0.876082 -0.226236 0.011290 -0.493465 0.183738 -0.367676 
a1975 -0.196051 -0.807116 0.025616 -0.676622 -0.114295 -0.254111 -0.333530 -0.323935 0.382030 0.234300 -0.354868 -0.846250 0.715361 -0.547965 -0.033794 0.371002 0.061784 1.332599 0.377543 -0.343829 -0.248661 0.126155 0.362422 0.192992 -0.370355 -0.227577 -0.363524 -0.468606 0.418399 -0.212077 -0.236409 -1.086418 0.699678 -0.214859 -0.257694 0.176620 -0.984086 -0.189281 0.059395 -0.023939 0.418210 -0.429410 0.042419 0.411406 0.076542 -0.044610 -0.024413 0.465116 -0.083524 -0.237814 -0.449786 0.020796 0.547327 -0.186912 0.445142 -0.189960 0.409304 0.352580 -0.590177 0.069381 -0.095209 -0.006178 -0.064512 -0.974171 -0.757362 0.288827 -0.799091 -0.410834 0.569571 0.079179 -0.115318 -0.151718 0.206887 0.330491 -0.064378 -0.801183 0.011527 0.329762 -0.284478 -0.402080 0.174973 0.263846 -0.502680 -0.488924 0.843492 -0.574222 0.234102 0.354195 -0.185872 0.461271 0.053012 -0.366464 -0.398218 0.064654 -0.739137 -0.439680 -0.092860 -0.039181 -0.019212 -0.279112 -0.010196 -0.371937 -0.305786 -0.029423 0.054773 0.328391 -1.168827 -0.015288 -0.329471 0.383651 -0.656857 0.437843 -0.387051 -0.498431 -0.202179 -0.517153 -0.583392 0.659967 0.399386 0.668829 -0.508372 0.220214 -0.013488 0.442353 0.176442 0.006885 0.503564 -0.497696 
a3482 -0.044213 -0.876126 1.333197 -0.892015 0.086403 -1.197684 0.530241 -0.491291 0.116861 -0.919838 -0.974261 -1.262967 0.697854 -0.168479 0.184168 0.632184 -0.192225 0.683819 0.922242 -0.472684 -1.277754 0.680129 0.192552 0.516014 0.029717 0.473745 -0.536303 -0.438004 0.418707 -0.758683 0.441466 -2.117229 0.397816 -0.817008 0.624282 -0.661782 -0.060272 -0.643982 1.089329 0.292125 -0.210360 0.482179 -0.711535 -0.456903 -0.902967 0.021241 0.721888 -0.171548 -0.070031 -1.186386 -0.473211 -0.448321 -0.196084 0.583367 0.039620 -0.365346 0.238980 -0.191770 -0.380888 0.034852 0.443693 -0.954166 0.074221 -1.013325 -1.115457 -0.537857 -0.155502 -0.346021 -0.021773 -0.081015 -0.128354 0.509288 0.357625 -0.115086 0.505694 0.005472 -0.344875 0.069890 0.055420 0.095742 0.122596 0.112633 0.263413 -0.617747 0.760198 -1.087692 -0.426834 0.696215 0.621225 -0.037174 0.269821 -0.717995 -0.167138 -0.336681 -0.203714 0.074598 0.240087 0.455784 0.354875 -1.102867 -0.081269 0.253957 0.148076 -0.156319 -0.655927 -0.012838 -0.817771 -0.883887 0.800906 0.176309 -0.186371 0.528712 0.337484 -0.808756 0.429042 -0.122158 -0.092327 0.209784 -0.065618 0.321669 -0.493061 -0.292787 -0.495571 -0.270342 0.574257 -0.067107 0.196298 -0.340416 
a2780 0.827611 -0.198401 0.023575 -0.898446 -0.661047 -0.541758 0.089689 -0.381655 0.673612 0.059621 -0.834026 -0.163580 0.836764 0.153543 0.358191 -0.050853 -0.608400 1.107577 0.199620 0.332861 -0.362246 0.195171 0.213632 -0.424604 -0.633979 0.462128 -0.451003 -0.539185 -0.017468 -0.930577 -0.345040 -1.738359 0.092089 -1.780211 0.545040 -0.322657 0.387195 0.578897 0.341198 0.718455 -0.327401 0.252953 -0.338439 -0.446734 -0.285585 0.158400 0.389604 -0.038416 -1.107813 -1.564082 1.251379 -0.123937 0.162558 0.462183 -0.111185 -1.049478 0.530288 0.985368 0.247279 -0.786184 -0.219046 -0.878976 -1.439687 -0.704390 -1.166436 0.091353 -0.974867 -0.167150 0.342481 -0.836875 -0.382193 -0.234303 -0.492792 0.495901 0.241709 -0.758221 0.159560 0.128532 -0.020910 -0.071594 0.081839 0.221725 0.004193 -0.784694 0.292335 -1.270122 0.550761 0.121115 0.582952 0.600552 0.862875 0.014600 0.238118 1.053155 -0.238619 -0.108319 -0.023062 1.231971 0.632893 -1.089903 -0.894505 0.213068 0.144151 -0.557145 0.218902 -0.527763 -1.391265 -1.130362 -0.394951 -0.483058 -0.861691 0.208658 -0.760129 -0.901784 0.882468 0.055184 -0.443374 0.920661 1.193051 0.445797 -1.277060 -0.452748 -0.862488 -0.876244 -0.728581 -0.845486 0.512453 -0.665288 
a1793 -0.897954 -0.580083 -0.095275 -0.042908 0.377257 -0.254284 -0.330565 -0.150262 0.202894 -0.503210 0.128898 -1.026814 0.210341 -0.346109 -0.255818 0.577899 0.007354 1.022307 0.530790 -0.564318 -0.822837 0.478927 -0.254232 0.307586 0.037176 0.575631 0.041885 -0.360645 -0.249923 -0.206206 0.527498 -0.523330 0.273125 -0.142876 -0.053745 -0.118492 -0.625172 -0.209778 -0.041666 0.149915 0.220092 0.235349 0.059034 0.137765 -0.137874 0.339929 0.489023 0.643699 -0.100260 -0.931385 0.205705 0.179812 0.021009 -0.275861 -0.029258 -0.732463 1.246341 0.879263 -0.443734 0.560943 0.460809 -0.325776 -0.672987 -1.186520 -0.559481 0.987939 -1.043074 -0.823595 0.744629 -0.012036 0.422366 0.432487 0.319788 0.373594 0.224681 -0.428995 0.125553 0.535199 0.056431 -0.212675 -0.149110 0.313408 0.411738 0.319742 -0.033183 -0.753283 -0.425163 0.151106 0.727504 0.206485 0.202348 -0.149104 -0.070093 -0.032358 -0.577497 0.126788 -0.252646 0.293653 0.185875 -0.638660 -0.032959 0.595579 -0.459219 -0.406709 0.307227 0.257530 -0.780834 -0.253652 -0.281941 -0.266286 -0.872647 0.131255 -0.113784 -0.087447 -0.016829 0.195023 -0.080980 0.296699 0.649839 1.004396 -0.597399 -0.293034 0.280487 -0.028944 0.247367 0.182895 0.554987 -0.574862 
a1476 0.155668 -0.684688 0.396148 -0.570313 -0.218627 -0.221239 -0.152178 -0.229935 0.738939 -0.204842 -0.551442 -0.444384 0.728756 -0.527943 -0.434141 0.512124 -0.311213 0.299628 0.316398 -0.270582 -0.720063 0.419020 0.216373 0.128738 -0.654451 0.229554 -0.087765 -0.340193 0.535075 -0.137987 0.034276 -1.145240 0.484244 -0.074364 0.514020 0.179776 -0.683820 0.026839 0.667355 0.600979 -0.133255 -0.180614 -0.221369 0.080097 0.109137 0.022602 -0.026254 -0.290096 0.203786 -0.427027 0.131494 -0.474345 0.047333 -0.602875 -0.019121 0.163595 0.457272 0.041709 -0.154438 0.041586 -0.163598 -0.216932 0.383236 -0.769960 0.035502 0.137372 -0.507449 0.200687 0.066587 0.131146 -0.038132 -0.044605 0.088664 0.139800 0.122696 -0.213236 0.029542 0.685001 -0.126744 0.061001 -0.494551 -0.387842 0.504993 -0.041183 0.518212 -0.303346 -0.130227 0.155500 0.271082 -0.001548 0.147784 -0.733392 -0.335331 -0.685303 -0.365514 -0.373151 -0.234209 -0.088940 0.296241 -0.881349 -0.001183 -0.079495 -0.447212 -0.278978 -0.271993 0.209923 -0.393572 0.119353 0.091234 0.049196 -0.023629 0.520785 0.219480 -0.076186 0.537350 -0.007368 -0.682357 0.163025 0.695366 0.246084 -1.086279 -0.013570 -0.594114 -0.523235 -0.113491 -0.061102 0.774173 -0.765916 
a1976 -0.070501 -0.809130 0.049525 -0.716611 -0.226563 -0.339745 -0.309246 -0.322986 0.284443 0.317581 -0.397936 -0.812322 0.717188 -0.537272 0.025850 0.269699 -0.132287 1.383419 0.370545 -0.174335 -0.144846 0.084956 0.426626 0.307970 -0.461874 -0.249877 -0.328386 -0.452905 0.444383 -0.249909 -0.313920 -1.049756 0.704152 -0.205046 -0.122764 0.158935 -0.960659 -0.179266 0.081796 0.021412 0.403175 -0.426945 0.010348 0.395204 0.100408 -0.114833 0.017601 0.359197 -0.143115 -0.252394 -0.423609 -0.104154 0.595280 -0.205257 0.497144 -0.181009 0.357780 0.355641 -0.521767 -0.052058 -0.207079 -0.090229 -0.122945 -0.924726 -0.628417 0.255909 -0.720786 -0.314937 0.548311 0.142433 -0.137031 -0.137270 0.196480 0.395136 -0.009373 -0.752552 0.010416 0.235268 -0.233348 -0.357477 0.130097 0.186621 -0.488077 -0.447382 0.852780 -0.515579 0.204652 0.203347 -0.194312 0.426884 -0.008906 -0.325670 -0.443352 0.082737 -0.727548 -0.473825 -0.052107 -0.030941 -0.070994 -0.311850 0.043841 -0.441257 -0.263477 0.039586 0.140243 0.335965 -1.127703 -0.045927 -0.343437 0.391574 -0.619339 0.430274 -0.396260 -0.454416 -0.194358 -0.514598 -0.550374 0.618889 0.362672 0.573129 -0.325076 0.312985 -0.079315 0.367343 0.138991 -0.049732 0.410345 -0.410677 
a2508 0.253195 -0.424451 0.375065 -0.179460 0.173731 0.099193 -0.432441 -0.345457 0.236755 -0.527246 -0.792769 -0.709318 0.548781 -0.503124 -0.495328 0.323243 0.157074 0.591422 0.508890 -0.103405 -0.689660 0.088826 0.280084 0.051711 -0.436107 0.035985 -0.170277 -0.642449 0.189882 -0.253090 0.482092 -1.708461 1.138812 -0.854882 0.578680 -0.059041 -0.808099 -0.281504 0.074740 0.573110 -0.076382 0.558318 -0.254455 -0.046973 -0.086589 0.011208 -0.032710 0.019160 0.194998 -0.712816 0.219727 0.125253 0.358812 -0.287288 0.375238 0.104281 0.614289 -0.245124 0.246734 -0.320452 -0.380694 0.323581 0.048755 -0.500579 -0.929811 0.830953 -0.517482 -0.598834 0.444015 -0.444752 0.352522 -0.159096 0.281957 0.166149 0.342427 -0.774698 0.194749 0.901321 -0.155728 -0.520673 -0.553445 -0.390309 -0.058562 -0.090970 0.478826 0.041315 -0.433680 -0.002955 0.130509 0.211882 0.481413 -0.522485 0.259639 0.066563 -0.535413 0.076952 -0.391454 -0.060830 0.477711 0.301025 -0.283874 -0.098875 -0.393209 -0.137379 -0.195671 0.034687 -0.777465 0.234698 -0.027380 0.113438 0.137235 -0.147454 -0.365338 -0.002237 0.210568 0.219722 -0.846444 0.092470 0.263202 0.801415 -0.837140 -0.089732 -0.052547 0.037452 -0.103053 -0.259773 0.435848 -0.585459 
a1623 -0.392302 -0.981720 0.304105 -0.171521 -0.633710 -0.327063 0.001100 -0.189855 0.424081 -0.788635 -0.050928 -0.716057 0.840834 -0.342530 0.271623 0.093634 -0.352762 0.841171 0.475613 -0.132727 -0.619000 0.134106 0.085059 0.223615 -0.390797 0.388565 0.073203 -0.470849 -0.143519 -0.232253 -0.397737 -0.855996 0.507043 -0.181271 0.756229 -0.385457 -0.112906 -0.333291 0.390794 0.240334 0.095984 -0.232703 -0.571907 0.136200 0.331562 0.208237 -0.240298 -0.686122 0.183756 -0.346817 0.242792 -0.158502 0.087088 -0.322160 0.088349 0.377859 0.117198 -0.337393 -0.278248 -0.205151 -0.268594 0.221585 0.057165 -0.077341 -0.341736 -0.201719 -0.153787 -0.025022 0.642652 0.194950 -0.044640 -0.033360 0.229032 -0.090623 -0.148172 -0.062654 0.164951 -0.206051 0.137621 0.378842 0.425649 0.564989 0.133508 -0.255079 0.257127 -0.268485 0.021864 0.669406 0.056033 0.064472 0.192922 -0.552940 -0.164315 -0.250223 0.154634 -0.349728 -0.017281 -0.297343 -0.062487 -0.551623 0.543455 -0.265752 0.146990 -0.055536 0.108252 -0.134349 -0.136586 -0.252823 -0.304228 0.207055 0.058147 0.108454 -0.211743 0.398401 0.126230 -0.085859 -0.090076 0.527636 -0.032731 -0.240211 -0.164364 -0.202234 -0.841470 -0.304569 0.190348 0.191793 0.290454 0.158394 
a1064 -0.716331 -0.450377 -0.330826 -0.022844 0.252000 -0.208904 -0.364561 -0.052848 0.160099 -0.496532 0.203341 -0.819980 0.234186 -0.161181 -0.307233 0.168089 -0.173301 0.918057 0.497459 -0.337753 -0.805164 0.304154 -0.222229 0.337257 -0.017547 0.811618 0.162964 -0.549270 -0.309731 -0.364239 0.504647 -0.283301 0.327465 -0.034236 -0.060222 -0.239250 -0.603083 -0.247047 0.067247 0.255990 0.127544 0.087605 0.105237 0.273925 -0.068634 0.403332 0.467083 0.442698 -0.087544 -0.905566 0.195024 0.226852 0.073471 -0.376619 0.060740 -0.496100 1.124170 0.873908 -0.476779 0.338205 0.428220 -0.248438 -0.511822 -1.082352 -0.404724 0.834367 -1.028725 -0.736722 0.694596 0.071757 0.526505 0.530033 0.343726 0.317712 0.144411 -0.365358 0.310416 0.356063 0.152825 -0.071208 -0.168637 0.144363 0.752694 0.441750 -0.086891 -0.627752 -0.435942 0.004533 0.844326 0.250275 -0.034806 -0.224438 -0.256508 0.128596 -0.520809 -0.002058 -0.215068 0.298919 -0.052252 -0.614962 0.005893 0.617173 -0.235872 -0.342494 0.505930 0.361309 -0.644645 -0.306299 -0.479103 -0.147626 -0.786073 0.147041 -0.051926 -0.162075 0.097375 0.312392 -0.182543 0.334933 0.819270 0.720920 -0.544049 -0.276873 -0.095807 -0.304677 0.370914 0.110241 0.363605 -0.593881 
a1496 -0.224980 -0.448937 0.153149 -0.261101 -0.462209 -0.085198 -0.157577 -0.076125 0.514438 -0.219237 -0.244606 -0.591242 0.378418 -0.441873 0.040343 0.263989 0.260151 0.914700 0.422070 -0.176680 0.032115 -0.050901 0.206564 -0.214414 -0.241536 -0.104043 -0.099108 -0.505408 0.065429 -0.015577 -0.453795 -0.691929 0.560988 -0.035487 -0.111169 0.130900 -1.069820 -0.165021 -0.346511 0.361660 -0.268759 -0.381843 0.073852 0.180845 0.060291 -0.252261 0.109341 0.230226 0.357732 0.125359 -0.428723 0.356727 0.231330 -0.443000 0.258005 0.297131 0.053788 0.018163 -0.152851 0.089043 0.039393 0.536931 0.203304 0.045323 -0.378192 -0.460738 -0.389497 -0.154026 0.522680 0.208870 0.178220 0.216188 -0.099614 0.192164 0.059555 -0.527168 0.151582 0.215402 -0.234970 -0.112335 0.431190 -0.040911 0.077671 -0.371023 0.541019 -0.348826 0.218117 0.200633 0.071367 0.067636 -0.155374 -0.219963 -0.098305 -0.120846 -0.495429 -0.423029 -0.104736 -0.236373 -0.193151 -0.018679 -0.244329 -0.206668 -0.330732 0.128100 -0.152650 0.123446 -0.442402 0.290272 0.204685 -0.056259 -0.208555 0.258785 -0.537615 -0.368449 0.287869 -0.600175 -0.666963 -0.102873 0.590029 0.365772 -0.463773 -0.027440 -0.057569 0.057007 0.076273 -0.642790 0.326807 -0.804068 
a1956 -0.573958 0.630318 0.558645 -0.188194 0.734877 0.615939 0.278098 -0.144438 0.720219 -0.439795 -0.039758 -0.581730 0.986064 -0.074963 -0.378417 0.787693 0.859020 0.516879 0.122986 -0.425626 -0.796392 -0.360937 -0.051108 -0.315432 0.239998 -0.643593 0.228875 -0.509466 -0.332748 -0.575397 1.185235 -0.675924 0.160930 -0.889209 -0.209445 -1.094868 0.092771 -0.310620 0.160783 0.701809 -0.801948 0.780770 0.441696 -0.895837 -0.187801 0.275266 0.332473 0.056211 -0.429407 -1.332700 0.838452 0.837441 -0.892316 -0.449622 0.016333 -1.036073 0.713479 0.187956 -0.400198 0.249223 0.058426 0.413863 -1.092225 -0.049872 -1.250952 0.136635 -0.794780 -1.191725 1.012976 -0.916647 0.706245 -0.194232 -0.278231 0.370235 0.310358 -0.243032 -0.444270 0.168007 0.060371 -0.125064 1.240224 0.115406 -0.186266 0.010216 0.324841 -1.296145 -0.320048 -0.082417 0.219275 0.301499 0.462282 0.252313 0.482166 0.453355 -1.319566 0.507680 -0.127626 0.962866 0.673909 -0.211198 -0.259517 -0.348031 -0.059465 0.046739 -0.066942 -0.474257 -0.088474 -0.340093 0.124800 -0.528515 -0.679678 0.229042 0.132455 -0.545631 0.815449 -0.000508 0.470286 -0.163534 0.496776 0.184176 -1.321046 -0.645403 0.422307 -0.440235 -0.139027 -0.605835 0.536623 -0.320598 
a1475 -0.412285 -0.700576 0.224211 -0.433726 -0.106072 -0.068071 -0.211132 -0.216450 0.630194 -0.636435 -0.120815 -0.562073 0.643929 -0.382749 -0.357939 0.566981 -0.224755 0.344788 0.153501 -0.386016 -0.483889 0.355030 0.114805 0.066375 -0.285077 -0.081526 0.049420 -0.156934 0.185289 -0.278883 -0.094099 -0.602322 0.492459 0.035100 0.497960 0.141248 -0.546064 -0.024081 0.455705 0.448284 -0.129211 -0.368079 -0.293576 0.080126 0.306012 0.080637 -0.056707 0.062629 0.253110 0.036374 -0.149700 -0.079918 -0.193188 -0.720055 0.124870 0.368011 0.332063 0.108946 -0.071116 0.073407 0.167482 0.120291 0.513547 -0.439796 0.182103 -0.045295 -0.478626 0.142254 0.192849 0.180842 0.136939 0.083467 0.098949 0.219198 -0.203720 -0.437905 0.172223 0.358894 -0.116460 0.144397 -0.200377 -0.214362 0.293247 -0.061979 0.549654 -0.329728 -0.039832 -0.020469 0.205744 0.067469 0.129513 -0.454955 -0.345598 -0.433174 -0.358452 -0.411192 -0.018952 -0.087478 0.275480 -0.724040 0.170392 -0.062663 -0.206740 -0.350490 -0.133308 0.376194 -0.537545 0.358071 -0.062224 0.125714 0.064421 0.593573 0.258938 -0.199846 0.320022 -0.003410 -0.708609 0.098737 0.584041 0.515649 -0.969081 -0.141002 -0.359300 -0.425435 0.033151 0.021410 0.769303 -0.714062 
a1193 0.016871 -0.910571 -0.042476 -0.784261 -0.235386 -0.608502 -0.363560 -0.399926 0.106789 0.318201 -0.401444 -0.933912 0.730686 -0.488992 0.085849 0.320949 -0.204289 1.480323 0.423548 -0.186021 -0.150830 0.026200 0.516331 0.541513 -0.552478 -0.087961 -0.358241 -0.587624 0.472368 0.011578 -0.499106 -1.222407 0.762158 -0.281672 -0.248710 0.139083 -1.033126 -0.275651 0.050674 -0.125292 0.401384 -0.248738 -0.088744 0.608013 0.029432 0.053359 0.109056 0.316176 0.004200 -0.295143 -0.389046 -0.019871 0.778267 -0.307102 0.462388 -0.197111 0.564813 0.433401 -0.749733 -0.169304 -0.326335 -0.204981 -0.120568 -0.933038 -0.582163 0.184687 -0.488163 -0.350960 0.409285 0.081064 -0.079344 -0.131503 0.142593 0.263304 -0.016402 -0.679454 0.084000 0.143861 -0.262967 -0.314797 0.298445 0.237091 -0.244478 -0.406713 0.830063 -0.530157 0.240129 0.252553 -0.154303 0.613202 -0.002709 -0.528322 -0.479235 0.131001 -0.740167 -0.517517 -0.092828 -0.146641 0.120218 -0.293868 0.024590 -0.402541 -0.357325 0.010431 0.145664 0.402440 -1.179940 -0.147633 -0.486533 0.382213 -0.786110 0.410664 -0.610133 -0.488477 -0.091182 -0.547915 -0.517301 0.611206 0.413302 0.412903 -0.311496 0.190050 -0.342843 0.117482 0.209756 -0.217394 0.327379 -0.563103 
a1046 -0.202906 -0.433480 -0.086584 -0.418898 -0.250414 -0.844411 -0.434913 -0.323563 0.120924 -0.127840 -0.495951 -0.916334 -0.075247 -0.192093 -0.107607 0.288528 -0.409216 0.318791 0.362331 -0.314402 0.128816 0.338885 -0.099973 0.751975 0.115034 -0.516925 0.319500 0.338771 0.325299 -0.147075 -0.233085 -0.731060 0.958634 -0.553742 0.661806 0.037192 -0.062650 -0.122046 0.801946 0.300199 0.242625 0.128364 -0.392964 0.211254 -0.372026 0.376142 0.742560 -0.685830 0.439138 -0.236788 0.116713 -0.441821 0.083239 -0.566738 -0.169541 -0.132234 0.330611 -0.160205 -0.266073 -0.321638 0.057774 -0.264775 0.197364 -0.367778 0.053432 0.070753 -0.283542 -0.192803 0.162870 -0.036922 -0.136766 -0.051065 0.191873 0.104213 0.535996 -0.520226 0.216653 0.200871 -0.067196 -0.156722 0.230426 -0.545871 0.213671 -0.009562 0.889419 -0.429571 0.124654 -0.138313 0.039951 -0.156773 -0.318064 -0.080698 -0.265492 0.016195 -0.012521 0.211158 -0.489021 -0.005583 0.659343 -0.581234 0.493079 -0.348201 -0.184775 -0.372626 -0.094019 0.192659 -0.238186 -0.110655 -0.407593 0.095808 -1.181470 0.045740 -0.232292 -0.010063 0.514773 -0.300752 -0.262070 0.226972 0.245085 0.267390 -0.250669 -0.242209 -0.581802 -0.547069 0.135672 -0.283364 0.833433 -0.716449 
a1331 -0.128597 -0.584328 0.052131 -0.381292 0.203899 -0.265326 -0.420970 -0.287282 0.065791 -0.392327 0.163991 -0.439721 0.832964 -0.142744 -0.336617 0.116237 -0.093694 0.302606 0.222744 -0.221105 -0.187373 0.081470 -0.264943 0.272858 -0.036173 0.046616 -0.032647 -0.133820 0.293379 -0.164378 0.095910 -0.182872 0.591165 0.103608 0.379059 -0.045242 -0.169037 -0.276826 0.353050 0.034250 0.220661 0.057118 0.080041 0.145878 0.489893 0.162218 -0.188387 0.011969 0.034099 -0.031458 -0.096985 0.219568 -0.229898 -0.630900 0.205052 0.388820 0.217208 -0.129604 0.054826 -0.236582 0.302890 0.218543 0.353019 -0.602335 0.113700 0.258886 -0.291347 0.026682 0.279509 -0.128503 -0.073238 0.001868 0.291912 0.295864 -0.099343 -0.454898 0.319688 0.313681 0.033189 0.334026 0.003313 -0.404444 0.641737 0.051935 0.162425 -0.141491 -0.420381 -0.120625 0.359254 -0.069246 -0.080920 -0.575830 -0.099760 -0.335160 -0.431371 -0.261490 -0.053363 0.213629 0.153464 -0.622609 0.346050 0.059082 0.224076 -0.405817 0.275628 0.292870 -0.487809 0.023503 -0.495999 0.442684 -0.150016 0.465868 0.513114 -0.235875 0.436425 0.082776 -0.595007 0.299086 0.587892 0.456617 -1.224662 -0.198516 -0.667845 -0.266216 0.375742 0.083903 0.700913 -0.592000 
a1417 0.177297 -0.333276 0.110029 -0.807716 0.044126 -0.572984 -0.196381 -0.266739 0.124221 0.146639 -0.535320 -0.539314 0.684467 0.269152 -0.241754 -0.042462 -0.105938 0.771110 -0.067059 -0.440661 -0.246768 0.050341 -0.271089 -0.178930 -0.065988 -0.338169 0.265159 -0.036464 0.218746 -0.792049 0.426862 -0.627344 1.049956 -0.066471 0.672543 0.268863 -0.425449 -0.079733 0.842792 0.157920 -0.389398 -0.495724 0.476914 -0.209562 0.538491 -0.057319 0.416907 -0.189753 -0.267358 0.041894 0.075964 0.082843 -0.423960 -0.464178 -0.268061 -0.024882 -0.121704 0.162853 0.012434 0.099708 0.419130 0.073622 0.306805 -0.495318 -0.161288 -0.044008 -0.221437 -0.012276 -0.148947 0.010207 0.139951 0.038654 -0.244997 0.075849 -0.255459 -0.276721 0.388871 -0.027769 0.269648 0.007838 0.055735 0.135629 0.233606 -0.013984 0.118534 -0.473628 -0.027649 0.096345 0.085495 -0.124928 -0.128959 0.223375 -0.000334 -0.050701 -0.216391 0.133288 0.190029 0.243500 -0.528636 -0.314648 0.252902 0.074218 0.469883 -0.265327 0.564963 0.326277 0.048882 -0.147760 -0.658083 0.285764 -0.086887 0.100458 0.720569 -0.656368 0.103420 -0.170190 -0.401213 0.530522 -0.012482 0.180792 -0.565931 -0.304640 -0.551383 -0.239562 0.272349 0.386334 0.341100 -0.482482 
a8629 0.372595 -0.902835 0.581221 -0.530575 0.576060 -0.200380 -0.289444 -0.763876 0.177766 -0.499849 0.531049 -0.344568 1.501865 -0.041188 -0.086730 0.058289 -0.364002 0.413165 0.706193 0.052639 -0.512679 0.242830 0.476587 0.529211 0.022513 -0.035253 0.194688 -0.755045 0.275804 -0.630227 0.935251 -0.626368 0.984802 -0.106569 0.807173 -0.022829 -0.767608 -0.400231 1.526967 0.038407 -0.116384 -0.104457 -0.192787 -0.361569 -0.087500 -0.295792 -0.201743 0.476454 -0.404545 -0.309065 -0.305056 -0.073217 -0.383031 -0.486009 0.655484 0.021971 0.390249 0.033471 -0.165730 -0.357895 0.108559 -0.380208 0.026120 -1.059956 0.171138 -0.018724 -0.322844 0.147765 0.211512 0.150730 -0.237460 -0.125420 0.045802 0.215526 -0.167153 -1.044247 0.107136 0.243305 -0.049707 0.480928 -0.182974 -0.986014 0.186636 0.091899 0.631261 -0.115517 -0.215607 0.060149 0.258402 0.064411 0.070248 -0.352132 -0.391829 -0.353148 -0.481505 -0.434091 0.044502 0.606517 -0.111232 -1.010940 0.374280 -0.403002 0.319753 0.240014 -0.058269 0.438577 -1.350842 -0.295253 0.269679 0.206027 -0.404394 1.151052 0.656337 -0.740419 0.058779 -0.054883 -0.458131 0.222581 0.815790 0.250632 -1.312994 -0.360564 -0.775460 -0.658661 0.194219 -0.220488 0.636214 -0.852388 
a1767 0.348373 -0.398475 0.267718 -0.148855 0.027035 -0.092934 -0.664467 -0.482071 0.129795 -0.427370 -0.513971 -0.708241 0.316875 -0.481207 -0.023266 0.347759 -0.059418 0.643628 0.586680 -0.094241 -0.460551 -0.037782 0.148986 0.448172 -0.232802 -0.255525 0.145381 -0.539746 0.140587 -0.056585 0.176052 -1.234220 1.197920 -0.717780 0.685022 -0.068153 -0.301857 -0.241832 0.312507 0.211449 0.087397 0.557701 -0.434662 0.132531 0.063163 0.394769 0.212472 -0.479020 0.565953 -0.448317 0.303257 -0.065175 0.099871 -0.430161 0.106424 -0.010936 0.289793 -0.428252 -0.110870 -0.392440 -0.211875 0.219114 0.102122 -0.419570 -0.430169 0.271120 -0.098631 -0.319197 0.544480 -0.467781 0.228724 -0.167142 0.169899 0.043641 0.225071 -0.677368 0.313046 0.310565 -0.101176 -0.462190 -0.038154 -0.306905 -0.079409 0.045109 0.488129 0.086796 -0.323107 -0.245925 -0.004349 -0.045844 0.186197 -0.379209 0.343783 0.018607 -0.333546 0.045951 -0.326586 -0.331347 0.505337 0.150218 0.404252 -0.183271 -0.263441 -0.411378 -0.106961 -0.310271 0.078684 0.099563 -0.131576 0.402370 -0.176980 -0.072075 -0.477017 0.164278 0.268824 0.319807 -0.588360 0.030746 -0.026037 0.543803 -0.198061 -0.210390 0.020830 -0.054081 -0.145936 -0.053909 0.352504 -0.156127 
a154 0.245128 0.349642 -0.177905 -0.205123 0.193731 -0.109861 0.077553 -0.196321 0.125321 0.145491 0.418823 -0.108931 0.640529 0.298516 0.205936 0.010583 0.230403 0.382032 0.374347 -0.087279 -0.474596 -0.255965 -0.160370 0.029578 -0.058725 0.622003 0.033068 -1.007889 -0.218680 -0.188394 0.601602 -0.334183 0.515754 -0.156578 0.018412 -0.021590 -0.779261 -0.329460 -0.104787 0.291798 -0.683615 -0.097853 0.529405 -0.050044 0.308035 -0.193430 0.213589 -0.048231 0.419772 0.187825 0.128444 1.025622 -0.327577 -0.624975 0.088306 -0.011775 0.039903 0.044132 -0.761175 -0.276993 0.374964 0.201313 0.033678 -0.326338 -0.594203 0.221278 -0.618234 -0.809101 0.795296 -0.086628 0.739192 -0.053377 0.007803 0.211270 0.184395 -0.846601 0.152837 -0.083026 -0.004588 0.388956 1.122500 0.234581 0.289256 0.228276 0.584031 -0.692158 0.187198 -0.073355 0.324547 0.748719 -0.348153 0.101340 -0.098489 0.323110 -1.081543 0.126372 0.007977 0.590916 0.023375 -0.788110 0.115079 -0.318296 -0.198761 0.207428 0.102696 0.309069 -0.924101 -0.430963 -0.579107 -0.432651 -1.426035 0.634168 -0.401281 -1.233095 0.838652 -0.755990 -0.183920 0.125238 0.763623 -0.286048 -1.373692 -0.584564 -1.125663 -1.079808 0.271693 -1.472519 -0.128414 -1.539931 
a1622 -0.213738 -0.689183 0.202365 -0.324687 -0.314801 -0.303179 -0.300647 -0.209851 0.390112 -0.433848 0.078737 -0.489838 0.588857 -0.166174 0.111484 -0.166282 -0.571245 0.818751 0.439012 -0.243942 -0.206160 0.109979 -0.178016 0.281054 0.071274 -0.200986 0.262242 -0.215607 0.122040 -0.418789 -0.098617 -0.535945 0.856883 -0.357543 1.121795 -0.378578 -0.122190 -0.230500 0.688691 0.371581 -0.027495 -0.162399 -0.248790 -0.016094 0.016383 0.440884 0.346041 -0.514608 0.178112 -0.454435 -0.003063 -0.092644 -0.296920 -0.343316 0.040166 -0.185643 0.195066 -0.283241 -0.400660 -0.198782 0.415482 0.066165 0.161107 -0.968088 -0.205036 -0.412527 -0.346357 -0.143567 0.855203 -0.041776 0.077853 0.306528 0.254402 0.220079 0.081457 -0.435764 0.103526 -0.095099 0.103442 0.392045 0.307485 -0.063676 -0.222794 -0.196183 0.620042 -0.670478 -0.014571 -0.106435 0.190200 -0.370336 -0.234563 -0.220636 -0.270162 -0.233466 -0.145776 -0.290627 -0.020996 -0.163881 0.006512 -0.775906 0.497836 -0.202187 0.136725 -0.108571 0.151141 -0.412547 -0.002682 -0.290629 -0.112799 0.216780 -0.304364 0.208892 0.002883 -0.030364 0.469277 0.108868 -0.519283 0.424483 0.172003 0.361369 -0.257048 -0.224609 -0.425657 -0.153625 0.142848 0.241592 0.536878 -0.208507 
a2426 0.432454 -0.413883 0.682573 0.300714 0.330484 -0.040547 -0.137223 -0.623161 -0.255676 0.093685 0.779421 -0.615061 0.987485 0.136382 0.609274 0.246116 0.111046 1.639131 1.018537 0.040146 -0.315834 -0.309168 -0.165179 0.459078 0.351863 -0.454237 0.275148 -1.205248 -0.033786 -0.207181 0.671245 -0.984737 1.316395 -0.307077 1.035564 -0.566227 -0.284307 -0.739111 1.210749 -0.434320 -0.151602 0.474462 -0.133415 -0.195383 -0.148860 -0.110727 0.372877 -0.227221 -0.443327 -0.779228 -0.068365 0.567650 -0.636287 -0.563362 0.618781 -0.726371 0.141967 -0.191336 -0.733229 -0.595097 0.239701 -0.066207 -0.770326 -0.304422 -1.555658 -0.086104 0.077881 -1.068836 1.325174 -0.228109 -0.105262 -0.101363 0.511402 0.725259 -0.005566 -1.399770 -0.317970 -0.246690 0.297136 0.006627 1.616609 0.114106 -0.742321 -0.669534 1.303523 -1.230310 -0.071671 0.088858 -0.139198 0.272483 0.662598 0.409407 -0.147954 1.004247 -1.331583 0.170715 0.058624 0.794503 0.613842 -0.299633 0.509397 -0.845387 0.146811 0.425832 0.130545 -0.224095 -1.118588 -0.601740 0.088278 0.163697 -1.583573 0.440452 -0.496591 -0.266109 0.087426 -0.559782 0.061010 0.509200 -0.318652 0.577452 0.202652 -0.321283 0.153095 -0.338072 0.183269 -0.852548 0.333574 0.171193 
a473 -0.087794 -1.018532 -0.117198 0.219933 -0.289770 -0.036723 -0.275113 -0.155262 0.096453 -0.320744 0.588738 -0.483673 0.900873 -0.190975 0.191762 -0.086627 -0.715266 0.597292 0.789208 0.509486 -0.177334 -0.153851 -0.141228 0.425975 0.144676 0.295014 0.138961 -0.848005 -0.077848 -0.047537 -0.318410 0.078147 0.436726 -0.200207 0.391771 -0.216517 -0.186106 -0.087478 0.543564 -0.354032 0.313877 0.240537 -0.571527 0.265745 0.107297 0.499847 -0.140039 -0.093245 -0.419050 -0.340229 -0.131243 -0.009391 -0.277863 -0.388591 0.380541 -0.177667 0.650127 0.035300 -0.532565 -0.437133 0.277424 -0.129332 -0.444969 -0.741629 -0.122194 0.311094 -0.183289 -0.152838 0.644672 -0.461680 -0.125852 0.258295 0.236233 0.595506 -0.197648 -0.245558 0.172096 -0.448827 0.418934 0.075402 0.456312 0.012400 -0.518357 -0.102070 0.189239 -0.475255 -0.266313 -0.376146 -0.155136 -0.073292 0.184562 -0.653635 -0.066812 -0.263120 -0.663770 -0.820395 0.181745 0.077841 0.021695 -0.070712 0.150304 -0.128348 0.336601 -0.607562 0.517077 0.084144 -0.315348 -0.142398 -0.079465 0.230636 0.307663 0.171360 -0.352223 0.150273 0.254349 0.097660 -0.345029 0.017294 0.555177 0.039251 -0.358701 -0.101406 -0.090254 -0.501572 0.040960 0.048200 0.533313 0.171606 
a1621 -0.179231 -0.628638 0.270990 -0.542360 -0.152059 -0.322460 -0.140410 -0.244121 0.269732 -0.296144 -0.211970 -0.263483 0.615371 -0.109523 -0.068451 0.144197 -0.474370 0.554005 0.112238 -0.300804 -0.204957 0.374725 0.010040 0.113113 0.056439 -0.283551 0.163684 -0.009133 0.371894 -0.280737 -0.242826 -0.701771 0.511157 0.064012 0.817753 -0.178655 -0.202308 -0.139171 0.868644 0.285379 -0.149976 -0.291681 -0.194155 0.275236 0.205676 0.260164 0.127358 -0.317018 0.026918 -0.246397 0.106786 -0.119815 -0.371736 -0.503979 0.047616 0.011531 0.012997 -0.107762 -0.027873 -0.204039 0.210909 -0.160735 0.117126 -0.442729 -0.021155 -0.134771 -0.300477 -0.162505 0.530889 0.006412 -0.132707 0.017759 0.248402 0.263273 0.110712 -0.344343 0.058014 0.051384 0.010656 0.600780 0.459317 -0.435025 0.063554 0.025814 0.335545 -0.536032 -0.041494 0.011251 0.184372 -0.343131 0.108504 -0.317344 -0.230482 -0.151458 -0.363804 -0.312783 0.282238 -0.110933 0.065188 -0.511701 0.488555 -0.219570 0.317538 -0.299044 0.435868 -0.019211 0.104306 0.153585 -0.211414 0.529033 -0.035661 0.376668 0.319246 -0.052301 0.304941 0.033487 -0.595521 0.273861 0.364149 0.192209 -0.388945 0.043561 -0.495830 -0.440280 0.090455 0.303322 0.506234 -0.213321 
a3494 -0.154113 -0.389470 -0.085081 -0.138075 -0.548641 -0.281299 0.111200 0.028807 0.531772 0.091560 0.223967 -0.446767 0.379583 -0.115404 0.097112 -0.077196 -0.478135 0.817456 0.407601 -0.387134 -0.193388 0.061994 -0.341478 0.128877 -0.104351 0.086776 0.141075 -0.086063 0.199756 -0.281916 -0.205840 -0.531831 0.377388 -0.014124 0.808176 -0.132235 -0.154577 -0.161333 0.528402 0.345761 -0.002509 -0.391794 -0.194910 0.165807 0.181976 0.246355 0.466471 -0.518523 0.352488 -0.210190 0.129955 -0.230241 -0.305545 -0.382855 -0.170882 -0.145929 0.272782 0.008007 -0.571615 -0.190106 0.456739 -0.257753 0.034995 -0.949118 -0.143203 -0.548408 -0.547089 -0.163369 0.782421 0.122813 0.034120 0.365163 0.452636 0.380346 0.128114 -0.289500 0.149990 0.025688 0.098709 0.377230 0.567100 0.309449 -0.042301 -0.155340 0.739937 -1.068521 0.267584 0.023994 0.283229 -0.045363 -0.176289 -0.118968 -0.490330 -0.094781 -0.187388 0.028653 -0.047944 -0.061038 0.221750 -1.113238 0.338349 -0.091900 -0.309943 -0.092562 -0.103869 -0.156860 -0.098784 -0.348961 -0.495883 -0.141690 -0.697511 -0.061420 -0.054597 0.307678 0.096307 -0.157921 -0.197544 0.577324 0.017575 0.216294 0.270830 -0.024875 -0.405630 0.027710 0.013051 -0.029251 0.469661 -0.045458 
a2718 -0.689198 -0.701353 0.503308 -0.035951 0.609009 -0.125313 0.185551 -0.173739 0.112355 -0.686832 -0.087709 -0.673352 0.618662 0.394456 -0.386031 0.078193 -0.199860 0.555681 0.614879 -0.294615 -0.543691 0.769302 -0.173906 0.398425 0.613346 -0.285664 -0.332180 -0.251963 0.056753 -0.405512 0.453374 -0.935291 0.932293 -0.966638 0.120005 -0.626476 0.428964 -0.815158 0.297809 0.147178 -0.321370 0.842041 -0.227902 -0.497883 -1.074832 0.303305 0.366315 0.250660 -0.875713 -1.351261 -0.130600 0.333700 0.135009 -0.368914 0.274625 -0.787963 0.881218 0.507680 -0.117236 0.139370 0.078416 -0.278523 -0.288238 -0.805590 -0.823384 0.032385 -0.568334 -0.570784 0.058830 -0.375164 -0.057641 0.269965 0.161131 -0.232484 0.192500 -0.227690 -0.382462 0.499816 0.347774 0.025053 0.131013 0.063380 0.077646 -0.577333 -0.039499 -1.634058 -0.232781 0.671113 0.211198 -0.411806 0.634351 -0.353538 0.044189 0.515299 -1.033767 -0.053860 -0.159468 1.173770 0.543533 0.028732 -0.749595 -0.257199 0.105728 -0.003124 -0.296729 -0.327336 -0.972787 -0.627364 0.569157 -0.154532 -0.434709 -0.096627 0.146610 -0.100752 0.353668 0.205354 -0.177243 0.085313 0.219069 0.353469 -0.325255 -0.237781 -0.137092 -0.195634 0.456821 0.366511 0.406650 -0.310769 
a329 0.438188 -0.396445 0.567987 0.652774 0.310750 -0.002660 0.402284 -0.043373 0.269433 -0.356693 0.124817 -0.559359 0.315580 0.061421 0.078832 0.144019 0.597039 0.273807 0.691665 -0.311901 -0.704367 0.393251 -0.364482 -0.355035 0.187334 0.294252 -0.119539 -0.548057 -0.288368 -0.008537 0.685723 -0.750422 0.195526 -0.461917 -0.133289 -0.359168 -0.164136 -0.176666 -0.070257 -0.132558 -0.468821 0.338105 -0.076007 -0.152234 -0.690669 0.208562 0.180126 0.254131 -0.036536 -0.382695 0.256123 0.652224 -0.542692 -0.124140 0.162619 -0.609356 0.195085 0.028715 -0.087215 0.117872 0.915676 0.318742 -0.248997 -0.534247 -1.188848 -0.111505 0.004287 -0.609421 0.392948 -0.809451 0.045682 0.434723 0.172446 -0.519424 -0.091211 -0.544767 -0.274764 0.221801 0.244554 -0.030256 0.425837 -0.046650 -0.183074 -0.249756 0.030422 -0.781803 -0.498910 0.708620 0.375821 0.031497 0.970593 -0.347028 0.634602 0.139638 -0.826284 0.058949 0.006735 0.148542 0.416306 -0.668541 -0.174306 -0.088209 -0.509645 -0.552197 -0.511401 -0.509525 -0.781131 -0.369661 0.197556 0.202352 -0.424665 0.855249 -0.090808 -0.232926 0.401794 0.329880 -0.394820 0.151191 0.282174 0.579442 -0.763426 -0.401320 0.623130 -0.438607 0.167359 -0.091271 -0.335415 -0.570112 
a1816 0.171229 -0.540694 0.172821 -0.482789 0.032852 -0.546398 -0.453713 -0.554198 -0.104546 0.139777 -0.038231 -0.423494 0.309136 0.249135 0.009767 0.114206 -0.347091 0.708394 0.324825 -0.642967 -0.167306 0.258829 -0.131872 0.451228 0.108560 -0.484122 0.478923 0.047474 0.480072 -0.407828 0.332579 -0.786364 1.234261 -0.033021 0.826057 0.082380 -0.103640 -0.415475 0.848499 -0.008645 0.267278 -0.107227 -0.142976 -0.088740 0.136640 0.036771 0.690644 -0.481723 0.350434 -0.389431 -0.068089 -0.126559 -0.006090 -0.243078 -0.062853 -0.272821 -0.002589 -0.143132 -0.272546 -0.073599 0.089697 -0.193649 0.255564 -0.573181 -0.337460 -0.327078 -0.447044 -0.256586 0.277928 0.167530 -0.012200 -0.011120 -0.129032 0.345094 0.218502 -0.818291 0.223474 0.249704 0.113096 -0.160027 0.243347 -0.097902 0.446711 -0.120527 1.043516 -0.528069 0.202357 -0.115208 0.220407 -0.179572 -0.517183 0.255080 -0.179570 -0.054687 0.005333 0.004382 -0.206418 0.134387 -0.048239 -0.535586 0.613346 -0.054739 0.370716 -0.114742 0.096165 0.050642 0.151291 -0.136697 0.064883 0.332622 -0.824058 0.039266 -0.005330 -0.657544 0.271829 -0.476315 -0.275683 0.347919 0.015708 0.491381 -0.265741 -0.379507 -0.359464 -0.186935 0.363463 -0.296620 0.684346 -0.409711 
a3869 -0.152509 -0.247204 0.259013 -0.152050 0.250184 -0.539356 0.457945 -0.280611 0.593469 -0.075962 0.120581 -0.492485 1.012914 0.596221 -0.107665 0.457938 0.218607 0.350540 0.474018 -0.645149 -0.823294 0.448820 -0.134832 0.210898 0.059201 0.118187 -0.236080 -0.244482 0.294836 -0.203708 0.320435 -1.199235 -0.028037 -0.198452 0.037547 -0.163734 -0.196670 -0.234324 0.321596 0.598576 -0.496190 -0.162348 0.274296 -0.260130 -0.477978 -0.284310 0.453858 0.064471 -0.048966 -0.112728 0.088693 0.393273 -0.095761 -0.318261 -0.012003 -0.316361 0.120054 0.048967 -0.418601 0.056694 0.231445 -0.318520 -0.033802 -0.177642 0.013497 -0.784959 0.200104 -0.011441 -0.222300 -0.039300 -0.007363 0.373427 -0.059465 -0.460332 -0.345547 0.299884 -0.049251 -0.178875 -0.067334 0.209556 0.426208 0.367276 0.538194 -0.285834 0.246542 -0.931368 0.294464 0.334951 0.244542 0.154737 0.080017 0.149327 -0.491693 0.520710 -0.191830 0.300382 -0.168390 0.988389 0.472519 -0.997312 -0.254755 -0.369512 -0.045820 0.374002 -0.318484 0.053236 -1.120489 -0.579552 0.059567 -0.499405 -1.411941 0.272951 -0.082801 -0.725962 0.899267 -0.680279 0.131805 0.662203 0.862580 0.035983 -0.940904 -0.374824 -1.002957 -0.829182 0.160973 -0.955877 0.420041 -1.083774 
a237 -0.414182 -0.779459 0.595907 -0.700881 0.168688 -0.726801 0.467742 -0.423042 0.334227 -0.102188 -0.518903 -0.800969 0.985633 -0.113646 -0.149692 0.303936 -0.013097 0.704350 0.074061 -0.294448 -0.157350 0.160502 0.392550 -0.099805 -0.024858 0.071430 -0.124758 -0.325359 0.638448 -0.159421 -0.061816 -0.833792 -0.046043 -0.382689 -0.313421 -0.275629 -0.032919 -0.130434 -0.372605 0.260328 -0.127514 -0.007036 -0.037395 0.196170 -0.562876 0.106254 0.061642 0.422592 -0.402763 -0.719556 -0.189188 0.319998 0.497350 -0.041174 0.362772 -0.469737 0.647257 0.676357 0.147450 0.249170 -0.148980 -0.050329 0.025811 -0.170165 -0.384808 -0.342624 -0.182908 -0.148829 -0.412417 0.152456 -0.017679 0.044857 -0.166548 0.009738 -0.183542 -0.014912 -0.077843 0.424676 -0.305377 0.406164 0.043312 0.155316 -0.055655 -0.361425 0.014939 -0.532221 0.374008 0.669768 -0.011227 -0.196308 0.260088 -0.772826 -0.137982 -0.191710 -0.177415 -0.801395 0.123809 0.215502 0.428781 -0.595108 -0.694302 -0.516576 -0.479035 0.063766 -0.406774 0.350765 -1.593923 -0.567235 0.139782 -0.207118 -0.886110 0.737663 -0.144038 -0.608793 0.379937 -0.496034 -0.616712 0.073626 0.696410 0.000681 -0.955384 -0.087498 -0.151742 -0.297814 0.256519 0.214302 -0.030082 -1.059203 
a1324 0.589367 -0.179417 0.269874 -0.191976 -0.647007 0.221357 0.181129 -0.269440 0.874217 -0.555925 -0.613932 -0.528914 0.425115 -0.453633 0.401128 0.467856 0.386174 0.369687 0.332480 0.066109 -0.179172 -0.299550 0.106781 -0.176859 -0.210485 -0.107242 -0.171011 -0.115179 -0.425113 0.030879 -0.303075 -0.618405 0.144970 -0.651907 -0.017460 -0.339212 -0.260413 0.101737 -0.153896 0.277462 -0.408407 -0.053986 -0.230981 -0.182198 0.142223 0.069535 -0.175858 -0.018324 0.287775 0.062066 0.035802 0.185014 -0.310049 0.239753 0.078382 0.401249 -0.178915 -0.205513 -0.264048 -0.292506 0.298259 0.370722 0.095061 -0.050161 -0.451926 -0.343400 0.111957 -0.012213 0.349899 -0.179448 -0.029571 0.146555 0.240103 0.219638 -0.090254 -0.283521 0.050524 0.096915 -0.001843 -0.022559 0.669112 -0.028769 -0.479314 0.098057 0.459615 -0.286862 -0.022554 -0.105213 0.141754 0.203834 0.414942 -0.392902 0.294940 -0.124962 -0.464006 0.132327 0.155270 -0.312093 0.545441 -0.923475 0.164413 -0.364063 -0.397852 -0.220279 -0.319571 -0.406925 -0.207752 -0.470692 -0.185152 0.419302 0.209491 0.625531 -0.146519 -0.231787 0.400401 0.017719 -0.482317 0.212536 -0.264852 0.159970 -0.354011 0.042316 -0.022983 -0.187182 -0.208241 -0.003201 0.001433 -0.111850 
a2027 -0.002717 -0.000744 0.000563 0.002154 -0.000626 -0.002568 0.002581 -0.001712 0.003548 -0.000022 0.000640 -0.003586 0.002114 -0.003235 -0.000256 0.003000 -0.002852 0.003050 -0.000961 0.003033 0.000490 -0.003017 -0.000377 -0.000924 0.002497 -0.002270 -0.003264 0.003458 0.003291 0.002970 0.003195 -0.000790 -0.002866 -0.003288 0.002520 0.002570 0.003681 -0.003831 0.003623 0.000474 -0.002338 -0.002932 0.001743 -0.002560 0.002636 -0.002911 0.001884 -0.000063 -0.002757 0.003680 0.003193 0.000764 0.001134 0.002801 -0.001045 0.002483 -0.003145 -0.002007 0.000036 0.001798 0.000151 0.002561 0.003626 -0.002632 -0.002526 0.000515 0.001059 -0.002385 0.000663 0.001254 0.001246 -0.002711 0.000076 0.000505 -0.000573 0.000908 0.003647 0.003761 0.000606 -0.000685 -0.002173 0.002844 -0.003883 0.000935 0.002267 -0.000659 0.002682 0.000518 -0.000486 -0.003209 -0.000083 0.002580 -0.002500 0.000688 0.000639 -0.002033 -0.001698 0.002854 -0.003820 0.002913 -0.001866 -0.002938 0.003264 -0.003455 0.002979 0.002477 0.001506 -0.000996 -0.002666 0.001156 0.003723 0.001135 -0.001101 0.000544 0.001248 0.003548 0.003889 0.002229 0.002991 0.000995 0.002661 0.001937 -0.003619 -0.002009 0.003150 -0.002649 0.002046 0.001007 
a1977 -0.087283 -0.750432 -0.058876 -0.727613 -0.132566 -0.459376 -0.285082 -0.407932 0.220590 0.322926 -0.340886 -0.822272 0.797047 -0.497128 -0.031037 0.245163 -0.176791 1.285113 0.378403 -0.156253 -0.188413 0.091864 0.443791 0.405309 -0.452641 -0.193802 -0.326142 -0.424035 0.524650 -0.188809 -0.312104 -1.092670 0.679300 -0.192927 -0.167026 0.210314 -0.951715 -0.170645 0.159445 0.030187 0.350694 -0.376309 0.033334 0.520689 0.042983 -0.075843 -0.021878 0.331820 -0.042093 -0.176052 -0.382741 -0.071342 0.677540 -0.281170 0.491048 -0.103068 0.455571 0.394918 -0.609913 -0.149497 -0.260944 -0.163450 -0.066211 -0.880037 -0.532198 0.324846 -0.685963 -0.362582 0.477292 0.149747 -0.150029 -0.208989 0.218246 0.392411 0.052499 -0.792157 0.011723 0.231748 -0.257670 -0.232299 0.153355 0.151470 -0.496308 -0.385831 0.873061 -0.409167 0.339004 0.179456 -0.293059 0.532032 -0.057442 -0.390041 -0.533779 0.147522 -0.658443 -0.422898 -0.141535 0.003338 0.054702 -0.322854 0.034916 -0.574983 -0.324850 0.102927 0.105336 0.536239 -1.383852 -0.132114 -0.539066 0.317530 -0.879320 0.416585 -0.476720 -0.403698 -0.143022 -0.585594 -0.537745 0.600470 0.405856 0.381194 -0.370605 0.312994 -0.317872 0.235934 0.150946 -0.197341 0.344070 -0.576699 
a1531 -0.559437 0.026078 0.022252 -0.015384 0.076226 0.197817 -0.217279 0.002461 0.670200 -0.620358 -0.347192 -0.842914 -0.084224 -0.570334 0.183283 0.778205 0.845677 0.395468 0.341914 -0.345383 -0.186220 -0.005473 -0.096923 -0.201379 0.061052 0.110577 -0.275260 -0.423496 -0.261220 -0.182086 -0.039607 -0.723219 0.378394 -0.662164 -0.181407 -0.194062 -0.378501 -0.168984 -0.182218 0.039686 0.093166 0.183340 -0.059483 -0.264131 -0.148415 0.134288 0.100373 0.211090 0.178075 -0.239240 -0.159122 0.333585 -0.312574 0.158485 -0.012430 -0.184306 0.300990 -0.245327 -0.131181 0.277358 0.342919 0.242409 -0.068512 0.105308 -0.965144 0.128232 -0.312146 -0.525747 0.535228 -0.496746 0.128272 0.024631 0.215190 0.123263 0.067816 -0.283049 0.098147 0.165717 -0.266708 -0.689072 0.144132 0.236126 -0.040496 -0.412691 0.216197 -0.579398 0.061969 0.284223 0.199709 -0.039451 0.264573 0.094155 0.288799 0.067877 -0.163178 0.284000 -0.170775 0.223396 0.366839 0.262807 -0.186592 0.219776 -0.424354 -0.218963 -0.284601 -0.272755 -0.423603 -0.003839 0.296602 -0.160797 -0.412479 0.094485 -0.234826 -0.124371 0.035956 -0.081661 0.022936 0.260347 -0.021339 0.574394 -0.604209 -0.339698 0.366618 0.416895 0.331839 0.093649 0.562193 -0.129452 
a1564 -0.404104 -0.080700 -0.257483 -0.419557 -0.308519 0.262953 -0.505134 -0.174777 0.534054 -0.276201 0.024177 -0.243922 0.522827 -0.266345 -0.000490 0.234266 0.375706 0.850711 0.019496 -0.250199 -0.324503 -0.492433 0.419513 -0.403366 -0.447635 -0.133867 0.214140 -1.068781 -0.239918 -0.086116 -0.188821 -0.291645 0.487749 -0.067796 -0.213816 -0.190549 -0.996849 -0.151307 -0.188414 0.487081 -0.594696 -0.220452 0.267424 0.314625 0.446470 0.194344 0.030250 0.067430 0.412506 0.025620 0.111822 0.760042 0.134271 -1.078843 0.070034 0.177985 0.463009 0.383545 -0.763395 0.100742 -0.125617 0.442534 0.000300 -0.232337 -0.371309 0.179293 -0.888466 -0.774165 0.893873 0.043135 0.729598 -0.183318 -0.143769 0.580792 0.126028 -0.936790 0.179996 0.103546 -0.181409 0.007944 1.032145 0.272974 -0.163115 0.225669 0.467366 -0.376170 0.415731 -0.144313 -0.161649 0.517366 -0.337930 -0.116536 -0.214491 -0.014388 -1.033513 -0.461792 -0.016102 -0.168235 0.022202 -0.195404 0.141513 -0.402658 -0.256586 -0.156887 0.254420 0.349097 -0.357777 0.033849 -0.458671 -0.105819 -0.711830 0.418279 -0.382330 -0.486941 0.321789 -0.430315 -0.686077 -0.098093 0.667621 -0.147674 -0.658207 -0.121536 -0.289220 -0.417373 0.123651 -0.433597 0.238792 -0.638748 
a445 0.920015 0.023237 0.410519 -0.640378 -0.046883 -0.836535 0.559422 -0.460477 0.693958 -0.145911 -0.609525 -0.232201 1.218995 -0.146859 0.456992 0.330807 0.290218 0.471432 0.131786 0.266489 -0.720866 0.018082 -0.028079 -0.227505 -0.482409 0.359817 -0.300084 -0.914341 0.204714 -0.674396 0.463430 -1.018036 -0.065170 -0.865305 0.443170 0.209088 -0.425003 0.490038 0.138761 0.602196 -0.486615 -0.092934 0.384806 -0.156266 -0.137115 -0.524629 0.197456 -0.179046 -0.549327 -0.745642 0.860701 0.042352 -0.347329 -0.097081 0.285216 -0.863473 0.221720 0.451316 -0.205450 -0.615347 0.416797 -0.820012 -0.987716 -0.832057 -0.980187 0.537077 -0.915778 -0.694780 0.712674 -0.330569 0.155566 -0.466985 0.242030 0.228672 0.684703 -0.745525 0.025872 -0.129885 0.045447 0.232604 0.073230 -0.225357 -0.070436 -0.020782 -0.028787 0.373017 0.496555 -0.596391 0.080360 0.034706 -0.096894 0.891024 -0.087947 0.486532 0.369020 0.359657 0.268843 0.312936 0.198028 -1.946339 0.156127 -0.388025 -0.506502 -0.198953 -0.404647 -0.131336 -0.915274 -0.646549 -0.121561 -0.098997 -1.234959 1.453762 -0.673059 -0.903403 0.984330 -0.287584 0.099286 -0.159449 0.523980 -0.511077 -0.912734 -0.358215 -0.811109 -1.083522 0.136560 -0.863248 -0.715295 -1.330809 
a6439 0.390612 0.013002 -0.033193 -0.099015 -0.007323 -0.029901 0.024279 -0.175001 0.018494 0.444266 -0.067546 -0.259095 0.524948 -0.192330 0.493174 -0.279211 -0.273853 0.020156 0.581917 0.110803 -0.698113 -0.172530 0.192330 0.291516 -0.361982 -0.285668 -0.216701 -0.573793 0.376929 -0.266246 0.863502 -0.608753 0.587547 -0.276155 0.564370 -0.006410 -0.743768 -0.200781 0.374638 0.234510 -0.444993 -0.234138 0.420199 0.061328 -0.318081 -0.071336 -0.193689 -0.310878 0.089456 -0.279012 0.062760 0.044919 0.009214 0.172364 0.590354 -0.527016 0.262048 -0.332802 -1.050431 -0.680857 -0.075569 -0.296503 -0.283685 -1.121031 -0.661738 0.509950 -0.671102 -0.788886 0.736802 -0.244933 0.210628 0.029082 0.671031 0.861719 0.163622 -0.466881 0.098609 0.177740 -0.053603 0.134771 0.743324 -0.215562 -1.000200 0.531582 0.669104 -0.382409 -0.156314 -0.622983 -0.246602 0.156135 -0.508762 -0.096199 -0.155732 -0.301939 -0.730668 -0.021291 0.032529 -0.038573 -0.145201 -1.004894 1.075558 -1.194410 -0.366491 0.628866 0.028601 -0.049112 -0.572279 -0.708209 -0.671058 0.315186 -0.791598 0.971316 -0.416757 -0.408798 0.704185 -0.450367 -0.328207 0.544207 0.274048 -0.027507 -0.950857 -0.092647 -0.879510 -0.510087 0.331246 -0.546996 -0.181320 -0.644208 
a4106 1.082748 -0.440802 0.568361 -0.337891 0.384562 -0.434603 -0.437113 -0.671356 -0.556497 0.121255 0.025548 -0.585777 0.832764 -0.342244 0.296154 0.363540 -0.083069 0.712857 0.775691 -0.103783 -0.214792 -0.171618 0.089441 0.136012 0.059646 0.220335 0.023940 -1.279489 0.064760 0.235833 0.262037 -0.477860 0.978567 -0.874847 0.637921 0.188048 0.066332 -0.201883 1.249622 -0.757579 0.466725 0.717371 0.075161 -0.188659 -0.228898 0.626581 -0.138594 0.218560 -0.214028 -0.641218 -0.144579 0.126444 -0.248789 -0.100841 -0.233684 -0.925946 0.372290 0.365161 -0.898270 -0.607791 0.581380 -0.645167 -0.801126 -1.571822 -0.504167 0.386603 0.108841 -0.398152 0.530175 -0.843041 -0.528936 -0.129473 0.391154 0.821567 -0.215307 -1.344135 0.451005 -0.439063 -0.100950 -0.054301 0.958598 -0.464625 -0.577095 0.032673 0.388918 -0.801652 -0.622226 -0.208388 0.003647 -0.003663 0.577994 -0.100241 0.304907 0.048556 -1.096623 0.104755 0.148104 0.406023 0.531689 -1.017102 0.316453 0.297961 0.462218 -0.436619 0.257304 -0.013086 -0.606213 -0.988011 -0.343719 0.503989 -1.189970 1.280331 -0.444090 -1.143772 0.302719 0.085887 -0.477762 0.445408 0.436081 0.888627 -1.231061 -0.560253 -0.333610 -0.184972 -0.024021 -0.372141 0.726608 -0.357479 
a3481 -0.062994 -0.760231 1.107493 -0.835211 0.020526 -1.125211 0.294469 -0.433126 0.117908 -0.920785 -0.838330 -1.170775 0.652509 -0.186902 0.203737 0.405487 -0.251616 0.631956 0.833287 -0.260849 -0.946631 0.478419 0.129453 0.540318 0.051036 0.389776 -0.356748 -0.426282 0.312944 -0.736025 0.255758 -1.649989 0.456377 -0.612729 0.665996 -0.624161 -0.025490 -0.587478 0.830038 0.196291 -0.033822 0.424870 -0.636943 -0.483660 -0.655991 0.006783 0.479695 -0.245287 -0.025095 -0.932594 -0.542488 -0.336149 -0.196757 0.402119 0.134173 -0.150409 0.091888 -0.347927 -0.261253 -0.129142 0.463026 -0.724575 0.201980 -0.799725 -0.820080 -0.533897 -0.039403 -0.190980 0.026940 0.009373 -0.156822 0.532312 0.308360 -0.040070 0.335669 -0.060416 -0.180883 0.004944 0.067314 0.062699 0.046879 -0.069376 0.283945 -0.529230 0.678766 -0.837535 -0.408572 0.443223 0.538898 -0.112818 0.126789 -0.584729 -0.240588 -0.283798 -0.162522 -0.009853 0.182298 0.383315 0.239153 -0.858516 -0.000606 0.248723 0.208375 -0.092554 -0.476357 -0.012893 -0.679247 -0.742285 0.674499 0.236537 -0.142055 0.451227 0.341591 -0.643454 0.365985 -0.086149 -0.179733 0.196562 -0.047860 0.275425 -0.377981 -0.224449 -0.488556 -0.207832 0.557360 -0.045596 0.253708 -0.238336 
a3338 -0.088517 -0.673257 0.360037 -0.558862 -0.237742 -0.784883 -0.369335 -0.403522 0.040342 -0.146369 -0.661763 -0.975694 0.353741 -0.231541 0.250427 0.415710 -0.359394 0.708893 0.321123 0.016611 0.107376 0.131641 0.146222 0.617035 0.136097 -0.300691 0.164082 -0.269281 0.275954 -0.044505 -0.381905 -0.528020 0.562367 -0.637936 0.456978 -0.018343 0.158190 -0.042471 0.441146 0.022389 0.192049 0.084012 -0.300571 0.330872 -0.193360 0.478863 0.409247 -0.324929 -0.057706 -0.289131 -0.186962 -0.377905 0.387289 -0.042753 -0.012527 -0.240827 0.100046 0.112931 -0.150848 -0.189392 -0.173994 -0.180234 -0.059237 0.167956 0.135554 -0.083696 0.175522 0.039673 -0.240310 0.080055 -0.209275 -0.207465 0.001806 0.065749 0.086362 0.001634 0.250816 -0.366618 -0.282084 -0.079018 0.485498 -0.257678 -0.297471 -0.169205 0.324089 -0.271392 -0.001855 0.129393 -0.188551 -0.347801 -0.087714 -0.358614 0.005924 0.115449 -0.067873 -0.239297 0.029244 -0.042960 0.393750 -0.300271 0.286089 -0.470009 -0.047173 -0.393209 0.164182 0.127900 -0.607829 -0.311927 -0.328491 0.373221 -0.936767 0.427284 -0.398470 -0.356036 0.354603 -0.284658 -0.231056 0.107939 0.203834 0.188011 -0.310405 -0.078803 -0.427318 -0.346070 -0.059270 0.067108 0.351782 -0.600008 
a4323 -0.176985 -0.862976 0.639530 -0.098376 -0.283710 -0.287600 0.232902 -0.454653 0.063895 -0.646193 -0.142821 -0.701490 0.622363 -0.041952 0.207564 0.353849 -0.454274 0.054525 0.371849 -0.178858 -0.317561 0.224304 0.111509 0.245908 0.124364 -0.229612 0.144892 -0.107834 -0.017971 0.183890 -0.269266 -0.283197 0.117351 -0.017380 0.289877 -0.483157 0.222771 -0.172073 0.633341 -0.177475 -0.210212 0.269659 -0.445928 -0.045315 -0.014508 0.464295 0.114718 -0.196099 -0.051889 -0.398445 0.168086 -0.067027 -0.335526 -0.243850 0.070188 -0.174244 0.438310 0.064590 -0.593196 0.069811 -0.006108 -0.332584 -0.124673 -0.377823 -0.120083 -0.331054 -0.128258 -0.213309 0.191151 -0.138866 -0.001790 0.217873 0.080398 0.264570 -0.327836 0.065434 -0.185708 0.033055 0.237319 0.392167 0.723003 0.367528 -0.309583 0.013876 0.142988 -0.683163 -0.105041 0.228336 -0.159819 -0.186313 0.462583 -0.555729 0.005827 -0.483304 -0.309706 -0.475399 0.317070 0.002986 0.427647 -1.141367 0.481707 -0.353061 0.158536 -0.549281 -0.067350 -0.077826 0.180124 -0.518136 0.152712 0.241927 0.020544 0.568792 -0.026111 -0.477877 0.855935 -0.320766 -0.420076 0.129663 0.391008 0.015180 -0.730930 -0.554281 -0.360096 -0.893934 0.245760 0.156231 0.475417 -0.359306 
a2899 -0.371271 -0.332754 0.429483 -0.184805 -0.459390 -0.394614 -0.048350 0.025148 -0.316277 -0.221317 -0.211063 -0.545831 0.040753 0.039913 -0.231877 0.110189 -0.201564 0.992876 -0.291060 -0.004545 -0.087411 -0.087720 0.039509 -0.093795 0.099727 -0.025943 0.389243 -0.050268 -0.154849 -0.303217 0.326896 0.184995 0.642382 -0.211347 0.547810 -0.030549 -0.519015 -0.271435 -0.154924 0.142784 0.003677 -0.178777 0.064300 -0.200635 0.499631 -0.558605 0.340794 -0.161042 -0.294916 -0.304177 -0.053675 0.078257 0.053513 -0.314383 -0.153916 -0.138356 0.305107 0.268518 0.439325 0.120342 -0.199630 0.462668 -0.158125 0.311966 -0.404825 0.273950 -0.311200 -0.299989 0.017439 0.330275 0.406634 0.044304 -0.173481 0.536586 -0.243708 -0.151599 0.399661 0.086403 0.117252 -0.252294 0.269526 0.556119 -0.013925 0.184364 0.202176 -0.514873 -0.451169 0.037077 0.086227 -0.007642 -0.077638 -0.146000 0.196109 -0.239313 -0.772019 -0.212143 0.317030 0.076546 -0.398661 -0.408250 0.258113 0.018137 0.323091 0.039663 0.778885 0.502724 -0.403796 0.106053 -0.347548 -0.361520 -0.128149 0.185817 0.193437 -0.638156 -0.024662 -0.283700 -0.162871 -0.039062 0.062120 0.325118 -0.542558 -0.167069 -0.008731 -0.391861 0.099179 -0.007834 0.079232 -0.376499 
a1006 0.027639 -0.356579 0.407743 0.289971 0.137901 0.188740 -0.216009 -0.141894 0.778673 -0.477591 -0.206143 -0.615254 0.247728 -0.417111 0.144271 0.312366 0.508886 0.217999 0.691417 -0.277254 -0.446610 0.000433 -0.035648 -0.503508 -0.039408 0.210944 -0.041108 -0.793451 -0.236262 -0.289778 0.305618 -0.818952 0.680811 -0.897156 0.486799 0.028335 -0.544101 -0.131154 0.010699 0.106882 0.076720 0.205439 -0.182900 -0.388923 -0.263049 0.008846 0.161034 0.111005 0.204735 -0.276023 -0.174656 0.312580 -0.327743 0.082953 -0.024610 -0.218285 0.067121 -0.425732 0.316297 0.238492 0.445877 0.283653 -0.016120 -0.432031 -0.607690 0.153027 -0.075687 -0.316427 0.487346 -0.634561 0.015889 0.144037 0.313598 -0.113519 0.087309 -0.427199 0.078774 0.593851 -0.165183 -0.462551 -0.172780 -0.061332 -0.470707 -0.152344 0.008902 -0.608731 -0.261782 0.459785 0.087045 -0.226990 0.482107 -0.295341 0.290067 -0.189324 -0.288330 0.147103 -0.042812 -0.140228 0.130920 0.202106 -0.318901 0.392146 -0.579378 -0.407595 -0.443366 -0.303636 -0.378395 -0.094779 0.326731 -0.179560 -0.095071 -0.094585 -0.273517 0.031253 0.108634 -0.012803 -0.608565 0.095178 0.126612 0.657382 -0.418057 -0.450271 0.476420 0.328514 0.010534 0.186889 0.310360 -0.394075 
a2704 -0.209783 0.318544 -0.243651 -0.080583 -0.423825 -0.003494 -0.046486 -0.060307 0.572946 -0.510734 -0.552764 -0.092349 0.057201 -0.257224 -0.052477 0.085699 -0.131903 0.354626 -0.126990 0.060068 -0.505881 -0.084943 0.071181 -0.455810 -0.324707 0.248289 0.158669 -0.332210 -0.631726 -0.684911 0.201492 -0.626927 0.071047 -0.688908 0.123782 -0.159352 0.229551 0.377263 -0.168279 0.744048 -0.479177 0.599262 0.171232 0.032433 -0.150868 0.295761 0.496857 -0.333727 -0.418997 -0.787331 1.175724 0.211389 -0.149303 -0.532483 -0.073317 -0.782782 0.818121 0.571081 0.068395 -0.179094 0.169031 0.058507 -0.949371 0.009651 -0.508527 0.660301 -0.649626 -0.570810 0.234550 -0.527593 0.570817 -0.274509 -0.322732 0.030961 0.540939 -0.238656 0.295890 -0.082850 0.126758 -0.472253 -0.052060 0.035961 -0.134374 0.086229 -0.171745 -0.688237 -0.057842 0.039893 0.424060 0.037580 -0.025290 0.307858 0.278248 0.588898 -0.648767 0.286320 -0.057341 0.355135 0.409835 -0.395154 -0.267259 0.254410 -0.004079 -0.179024 0.211595 -0.185233 -0.416263 -0.373054 -0.281840 -0.669940 -0.858118 0.085575 -0.512731 -0.140939 0.762175 0.317254 -0.147178 -0.294087 0.937336 0.137334 -0.625712 -0.292963 -0.261853 -1.095496 -0.541623 -0.583643 0.111534 -0.673856 
a76 -0.440054 0.000968 0.303984 -0.530451 -0.154509 -0.296185 0.216640 -0.234955 0.915787 -0.340878 0.065600 -0.496736 1.058401 -0.410193 -0.279015 0.353368 -0.290119 0.382472 0.130452 0.298313 -0.040667 0.111698 0.145488 0.017803 -0.570712 0.307022 0.175996 -0.226327 0.300173 -0.900217 0.180951 -0.385123 0.352162 -0.319990 0.828220 -0.353525 -0.356314 -0.003872 -0.090702 0.831815 -0.531463 -0.173163 -0.386342 -0.455344 0.144020 -0.003518 -0.218427 -0.230517 -0.344034 -0.771924 0.523307 -0.039361 -0.579255 -0.747911 0.538985 -0.235538 0.934225 0.125762 -0.016848 -0.565290 0.463046 -0.129124 -0.117043 -0.839094 -0.669413 0.093741 -1.338525 -0.362484 0.856083 -0.005199 0.248649 0.062773 0.297420 0.666575 0.247397 -0.739261 0.058917 0.327690 0.040094 0.522288 -0.029894 -0.246266 -0.223036 -0.161803 0.649530 -1.014193 0.240499 -0.462823 0.340305 0.183795 0.099076 -0.212230 -0.370809 -0.060616 -0.565061 -0.200992 0.031902 0.166446 0.224120 -0.374468 -0.215104 0.093540 -0.258029 0.053251 -0.310147 -0.029968 -0.340128 0.000670 0.137846 -0.045665 0.213686 0.222373 0.387538 0.458237 -0.159517 0.330848 -0.103602 -0.307803 0.104206 -0.305990 0.168350 0.354608 0.157226 0.048667 0.033431 -0.207781 -0.047532 0.012843 
a972 -0.576199 -0.425819 0.525093 -0.450142 0.438725 -0.150359 -0.240708 -0.196263 -0.179107 -0.502153 -0.437642 -0.408249 0.293810 -0.148038 -0.342328 0.144574 -0.195606 0.449146 -0.201151 0.095254 -0.053374 0.168504 0.413502 0.062129 0.097110 -0.214295 0.333224 -0.003732 0.101855 -0.211122 0.005648 -0.172691 0.573337 -0.653857 0.461510 -0.376547 0.078551 -0.229336 0.329076 0.360566 -0.236101 0.399534 -0.179214 0.034737 -0.151150 0.372362 0.044078 -0.058465 -0.131571 -0.644321 0.110024 0.170336 0.130449 -0.148507 0.179544 -0.198839 0.446859 0.184751 0.195344 0.050598 -0.174771 0.255258 0.087094 -0.053216 -0.287124 0.019640 -0.071456 -0.151066 -0.116299 -0.043028 -0.014585 -0.124901 -0.290268 0.006188 -0.103743 0.026791 -0.003501 0.124162 -0.209260 0.369014 -0.223959 0.075717 -0.531352 -0.070974 -0.086358 -0.255089 -0.166630 0.323240 -0.089875 -0.244719 0.475975 -0.478117 0.367295 -0.003293 -0.205703 -0.388897 -0.120682 0.287237 0.412734 -0.054181 -0.206429 -0.589013 0.061431 0.024831 0.192526 -0.035756 -0.958858 -0.266322 0.136674 -0.172116 -0.314526 0.182567 0.198122 -0.090029 0.401183 0.257161 -0.376149 0.138866 0.315984 0.341548 -0.977223 -0.119032 -0.343468 -0.553046 -0.283467 0.791606 0.475232 -0.381980 
a1074 -0.158994 -0.685386 -0.592951 -0.526034 -0.364260 -0.117623 -0.215822 -0.542693 0.058792 -0.117300 -0.034149 -0.616453 0.475403 -0.164709 -0.195487 0.187760 -0.340712 0.963273 0.444455 0.033340 -0.300361 0.088134 0.196927 0.510334 -0.200519 -0.148047 -0.438088 -0.262766 0.159610 0.080437 -0.505683 -1.041601 0.604010 -0.308877 -0.212498 -0.105090 -0.661622 -0.026762 0.537790 -0.179194 -0.085721 -0.046222 -0.098845 0.305775 0.173824 0.050782 0.071639 0.437120 -0.046799 0.220751 -0.307115 0.133088 0.218027 -0.578338 -0.114213 0.440891 0.354919 0.307891 -0.651959 0.092908 -0.139440 0.010817 -0.011656 -0.100081 -0.269468 0.456478 -0.293162 -0.349377 0.444014 -0.153535 0.109265 -0.169735 0.126821 0.436224 -0.371871 -0.664503 -0.072270 0.061954 0.224631 -0.260951 0.384848 0.535326 -0.255143 -0.399272 0.522245 -0.306673 0.270301 -0.003877 -0.370317 0.901402 0.442198 -0.462218 -0.319907 0.306369 -0.491168 -0.043843 0.138779 0.148365 0.435572 -0.039860 -0.090650 -0.030947 0.098996 -0.446456 0.192334 0.594197 -0.654150 -0.148408 -0.882696 0.193242 -0.014068 -0.220031 -0.081929 -0.389987 -0.040671 -0.303720 -0.593643 0.668929 0.012449 0.036743 -0.287003 -0.016544 -0.505095 -0.063851 0.249090 -0.296967 0.509821 -0.248362 
a6065 -0.032258 -0.843052 0.894176 -0.064846 -0.186972 -0.194527 0.311375 -0.566107 0.244485 -0.833208 0.022443 -0.786249 0.822760 0.085639 0.320627 0.372285 -0.402741 -0.179659 0.603275 0.033283 -0.379505 0.037645 0.235565 0.315780 0.164678 -0.033145 0.088237 -0.564557 -0.198233 0.125272 -0.017117 -0.188672 0.093998 -0.033470 0.206600 -0.868678 0.215447 -0.261132 0.325577 -0.240141 -0.206645 0.503934 -0.481590 -0.079790 -0.154540 0.519423 -0.007977 -0.204582 -0.077562 -0.929694 0.416185 0.002941 -0.170548 -0.294299 0.264632 -0.325081 0.718370 0.085072 -0.753313 -0.092609 -0.178187 -0.450200 -0.486681 -0.703463 -0.126113 -0.327149 -0.181804 -0.349080 0.405784 -0.119792 0.054924 0.286881 0.134566 0.269151 -0.300836 -0.074281 -0.255963 0.119218 0.037144 0.425342 0.656536 0.215028 -0.119679 -0.023316 -0.023849 -0.700426 -0.179079 0.196429 -0.101456 -0.259349 0.487612 -0.567313 -0.043227 -0.399265 -0.229073 -0.569314 0.189910 0.076398 0.464641 -1.284914 0.609668 -0.405231 0.027688 -0.330824 -0.135030 -0.199586 0.117673 -0.761860 0.420396 0.092699 -0.258662 0.642682 -0.273727 -0.436133 0.970039 -0.303565 -0.227695 0.114984 0.485131 -0.192454 -0.557708 -0.571077 -0.321073 -0.945816 0.280476 -0.054188 0.171782 -0.358148 
a1042 -0.621258 -0.317627 -0.193705 -0.503907 -0.346506 0.073865 -0.265241 -0.235272 0.469083 -0.781343 0.311378 -0.079260 0.622727 0.139541 -0.169218 -0.133682 -0.497632 0.512057 0.182858 -0.286560 -1.101702 0.064355 -0.169192 0.196216 -0.291792 0.279051 -0.144923 -0.189587 0.081595 -0.500426 -0.187465 -0.578373 -0.182228 -0.240902 0.353317 -0.798417 -0.161748 -0.146763 0.200491 0.693680 -0.357538 0.311008 0.138213 -0.357958 0.259085 0.090017 0.134501 0.096075 0.227853 -0.326688 0.356557 0.343704 -0.201181 -0.211467 -0.246989 0.127938 0.574782 0.434122 -0.551015 0.169052 0.102616 -0.085952 0.003663 -0.544558 0.063635 -0.066142 -0.604602 -0.398144 0.588049 0.139756 0.317201 0.492730 0.105435 0.326210 -0.068449 0.494247 -0.135089 -0.089418 0.042082 0.326613 0.269649 0.697415 0.475528 -0.008273 0.114425 -0.483266 0.202665 -0.155503 0.504343 0.335908 -0.206195 -0.071619 -0.383283 -0.204815 -0.119107 0.043372 -0.403979 0.610047 0.198927 -1.275919 0.333369 0.005203 0.084199 0.180148 0.338801 -0.004987 -0.499849 -0.568651 -0.490371 -0.813688 -0.388794 0.002664 0.221137 -0.176936 0.870710 0.160485 -0.154365 0.722815 0.352953 0.075475 -0.545327 -0.094577 -0.885622 -0.819887 0.159796 0.003349 0.645728 -0.308529 
a2362 -0.705257 -0.520907 -0.045324 -0.709330 0.333428 -0.712997 -0.337667 -0.315273 0.171467 -0.243445 -0.459743 -0.825991 0.643858 -0.135754 -0.267041 0.185001 -0.069279 0.597488 0.108560 -0.421592 -0.017024 0.184956 -0.368002 0.240120 0.191540 -0.398437 0.010689 0.054493 0.367271 -0.639038 -0.244338 -0.421669 0.487857 -0.456481 0.369578 0.191948 -0.012312 0.077819 0.462714 0.200335 0.338516 -0.176420 0.217189 -0.140374 0.108747 0.183420 -0.057455 0.118187 -0.559552 -0.127861 -0.365472 -0.038535 0.063081 -0.278926 0.169399 -0.024538 0.153884 0.230851 0.188719 -0.153965 0.373664 -0.033342 0.038011 -0.063586 0.024051 0.467335 -0.417566 0.055188 -0.136906 0.144072 -0.362510 -0.180152 -0.072525 0.180131 0.116954 -0.277006 0.016138 0.038386 0.308571 0.229923 -0.037727 -0.304345 -0.667572 -0.101665 0.180996 -0.442037 0.040036 0.109426 -0.223839 -0.188623 0.079906 -0.081485 -0.364961 0.307622 -0.077115 0.209970 -0.329260 0.536487 0.324649 0.181561 -0.257303 -0.143839 0.164338 -0.299850 0.017825 0.475898 -0.819764 -0.241860 -0.668390 0.058073 -0.531538 0.046450 0.095773 0.071512 0.106244 -0.150838 -0.259344 0.585511 0.633927 0.450576 -0.793381 -0.169872 -0.608398 -0.240101 -0.076718 0.210456 1.228955 -0.529857 
a1485 -0.020841 -0.632746 0.238853 -0.100434 0.236049 -0.215810 -0.185179 -0.213379 0.673460 -0.274202 -0.071353 -0.215564 1.015858 0.188625 -0.071738 0.665428 -0.052943 0.268145 0.681364 -0.410411 -0.778968 0.180636 -0.506613 -0.341883 0.039251 0.340797 0.266194 -1.114498 0.122179 -0.368879 0.499033 -0.674113 0.407243 -0.113903 0.287603 0.002609 -0.135648 -0.111962 0.549947 0.169533 -0.250203 0.008323 0.070352 0.069347 -0.196323 0.290067 0.258480 -0.155802 -0.243566 -0.653991 0.076268 0.098983 -0.550055 -0.361814 -0.262665 -0.417991 0.116981 0.143264 0.034260 0.173827 0.653975 -0.107559 -0.378807 -0.115579 -0.340518 0.205095 -0.141690 -0.564357 0.098136 -0.513941 0.189893 0.290950 0.091908 0.007982 0.286920 -0.137350 -0.099499 -0.037933 0.307450 0.090403 0.563850 -0.631457 0.006742 -0.047763 -0.166868 -1.051805 -0.443150 0.480469 0.085122 -0.591482 0.311748 -0.133498 0.239869 -0.112912 -0.691371 -0.183423 0.191374 0.172214 0.068281 0.531587 -0.371402 0.539572 -0.080369 -0.808520 0.037344 0.084815 0.640762 -0.028652 0.458999 0.117876 -0.128725 0.567316 -0.009632 -0.107973 0.889772 0.076309 -0.095331 -0.483051 0.857801 0.279640 -0.779472 -0.614596 -0.178779 -0.681338 0.274004 -0.281706 0.684360 -0.472161 
a235 -0.235705 -0.765943 0.560231 -0.607146 0.189176 -0.777602 0.522532 -0.444698 0.207000 -0.012798 -0.467116 -0.862972 0.884116 -0.098279 -0.001731 0.282884 0.031009 0.728492 0.187916 -0.262682 -0.174246 0.188551 0.404534 0.075466 -0.021871 0.111608 -0.217781 -0.352426 0.622229 -0.041996 -0.052326 -0.934170 -0.039167 -0.415488 -0.448115 -0.264644 -0.086375 -0.190428 -0.304791 0.094387 -0.066022 0.028216 -0.068625 0.265104 -0.695675 0.120653 0.102907 0.422675 -0.382147 -0.735448 -0.185640 0.309200 0.506318 0.005432 0.354584 -0.585838 0.630228 0.617291 -0.043738 0.218902 -0.145620 -0.159632 -0.080668 -0.312628 -0.547707 -0.329086 -0.100639 -0.220754 -0.312878 0.056225 -0.073822 0.010369 -0.090361 -0.109860 -0.151192 -0.115814 -0.126359 0.347356 -0.335823 0.292155 0.181204 0.166344 -0.038472 -0.412312 0.120913 -0.549527 0.328017 0.752584 -0.010254 -0.078847 0.319139 -0.790421 -0.116735 -0.115483 -0.273977 -0.726542 0.147541 0.205390 0.437161 -0.727609 -0.543725 -0.557891 -0.527783 0.095741 -0.443030 0.300393 -1.660194 -0.658543 0.096270 -0.053259 -1.069908 0.886329 -0.265708 -0.689860 0.363051 -0.533257 -0.555748 0.127806 0.595815 -0.053015 -0.889568 -0.111079 -0.121137 -0.273966 0.344165 0.112236 -0.181877 -1.069880 
a2586 -0.143578 -0.412513 -0.068515 -0.213627 -0.222063 -0.258208 -0.215305 -0.072723 0.339584 -0.428631 -0.375983 -0.830912 0.567683 -0.237254 -0.026790 0.258523 -0.417765 0.452765 0.268265 -0.121399 -0.668655 -0.193508 -0.477664 0.136997 -0.294230 0.135506 0.001496 -0.317522 -0.271423 -0.340530 0.117849 -0.249568 0.047166 -0.386274 0.483716 0.140022 -0.002104 0.006354 0.445557 0.290630 -0.019660 -0.056077 0.221820 0.138705 0.233443 0.156952 0.248952 -0.370059 -0.383587 -0.289048 0.200491 -0.314077 0.072534 -0.238463 -0.143993 -0.204337 0.499354 0.578946 -0.217084 -0.054929 -0.032893 -0.313158 -0.393870 -0.293707 0.445406 0.402086 -0.112968 0.071969 -0.011595 0.233609 0.067554 -0.047763 0.384939 0.319467 -0.034533 0.323221 0.360460 -0.017575 0.413467 -0.099220 -0.139208 0.112122 0.015511 0.262905 -0.355779 -0.166825 -0.288924 -0.148421 0.004193 -0.109240 0.066386 -0.049036 -0.267059 -0.044323 -0.054214 0.104837 -0.145148 0.118693 0.183141 -0.683961 0.147336 -0.000603 -0.226118 -0.154684 0.149105 0.226983 -0.392492 -0.449803 -0.717998 -0.510362 -0.425718 0.018218 -0.066680 0.387761 0.169704 0.130425 0.121203 0.226119 0.295467 0.275937 -0.093884 -0.189795 -0.332968 -0.215067 0.008296 0.243349 0.309199 -0.111059 
a7110 -0.102103 -0.205590 0.681162 -0.063300 -0.154671 -0.430674 0.182003 -0.137289 -0.105754 -0.260935 -0.243781 -0.441562 0.758057 0.288835 -0.029840 0.040187 -0.073150 0.527833 0.069063 -0.275509 -0.578619 -0.195004 -0.592742 -0.122892 0.223209 -0.456037 0.354030 -0.319386 -0.018549 -0.864587 0.635125 -0.317824 0.669854 -0.086297 1.196750 -0.188222 0.096549 -0.329793 0.160177 0.134767 -0.081530 -0.056424 0.209763 -0.971328 0.192136 -0.674225 0.240246 -0.346824 -0.666084 -0.184687 -0.136433 0.251662 -0.472379 -0.529269 0.293567 -0.244761 -0.020323 -0.040067 0.345523 -0.195114 0.160226 0.208758 -0.100396 -0.194271 -0.242585 0.034086 0.104369 -0.020822 0.169404 0.210032 0.273819 -0.017739 -0.114957 0.349838 -0.077988 -0.074739 -0.176516 -0.003361 0.678820 -0.048462 0.135199 0.190053 -0.172050 -0.193335 0.148486 -0.464486 -0.386861 -0.314493 -0.082685 -0.251561 0.101988 0.338278 -0.247770 -0.015798 -0.297433 0.418029 0.108305 0.707154 -0.086607 -0.648326 0.405715 -0.247818 0.328042 0.030485 0.094766 0.131535 -0.313655 -0.188381 0.068561 -0.550822 -0.121618 0.218654 0.449244 -0.223809 0.126247 -0.284923 -0.159560 0.372882 0.200295 0.450396 -0.446124 -0.520868 -0.253018 -0.844979 0.344856 -0.409397 0.761477 -0.300004 
a963 -0.335938 -0.166217 0.192919 0.148330 0.027724 -0.034058 -0.275399 0.081639 -0.322663 -0.595167 -0.308585 -0.633942 -0.114054 -0.390670 -0.386228 -0.043586 -0.107798 0.411453 0.123390 0.114416 -0.519149 0.161884 0.000103 0.248969 -0.239577 0.397381 0.190707 -0.239728 -0.335469 -0.398184 0.609018 -0.617396 0.565580 -0.032915 0.469178 -0.165329 -0.460629 -0.404304 0.063203 0.331127 -0.123913 0.760952 -0.230673 -0.031002 0.013675 0.012845 0.278410 -0.170101 0.204147 -0.465150 0.331895 0.213077 0.025690 -0.538283 0.331780 0.023419 0.589956 -0.062556 0.219772 -0.156671 0.063899 0.209535 -0.082081 -0.211101 -0.516614 0.719085 -0.281869 -0.542141 0.377210 -0.175933 0.464869 0.229151 0.205446 0.312882 0.249462 -0.250591 0.024213 0.337442 0.297305 -0.308614 -0.528928 0.126171 0.414334 0.281119 0.013942 -0.171539 -0.777655 -0.204010 0.477344 0.271714 0.228335 -0.217817 0.247738 0.005237 -0.715868 0.272115 -0.240018 0.157367 0.155936 -0.147176 0.189217 0.155769 -0.075050 -0.051511 0.448668 0.247060 -0.533597 0.248736 -0.214747 -0.245568 -0.178762 -0.025038 0.244145 0.122220 0.153959 0.471282 -0.369311 0.092790 0.304657 0.582455 -0.437921 -0.057762 -0.061566 -0.688994 0.100955 0.095714 0.148439 -0.268340 
a1493 -0.215818 -0.448346 0.178925 -0.483805 -0.405741 -0.051629 -0.110498 -0.229625 0.707251 -0.286294 -0.486809 -0.585209 0.649739 -0.529388 -0.171841 0.170017 0.073541 0.835073 0.119701 -0.005462 -0.065819 -0.200159 0.362985 -0.302158 -0.211656 -0.170777 0.044344 -0.387830 0.185295 -0.037225 -0.185840 -0.405314 0.242276 -0.229430 -0.076919 -0.026218 -0.444123 0.062913 -0.513704 0.398754 -0.111983 -0.082819 0.101088 0.129550 0.100072 0.003340 -0.193415 0.212383 -0.034659 -0.183757 -0.068480 0.317387 0.287982 -0.411989 0.243246 0.076097 0.460493 0.294981 0.032928 0.033983 -0.171692 0.611207 0.092773 -0.116946 -0.075120 -0.221707 -0.399086 -0.102825 0.104000 0.103792 0.207501 0.060115 -0.206602 0.392930 -0.252824 -0.344996 0.297612 0.535748 -0.270744 -0.060490 0.146652 -0.003127 -0.271341 -0.022174 0.158267 -0.263519 0.071989 0.014919 -0.048800 -0.119974 -0.107641 -0.494940 0.012413 -0.296835 -0.604203 -0.710271 -0.137302 -0.184649 0.210158 -0.440560 -0.397124 -0.433303 -0.385904 0.005754 -0.086209 0.146066 -0.881845 -0.052196 -0.145048 -0.190413 -0.370675 0.483430 -0.247235 -0.388999 0.453540 -0.319329 -0.815526 -0.068032 0.731921 0.288148 -0.979688 -0.019265 -0.016661 -0.151089 -0.109655 -0.099458 0.270060 -0.846037 
a903 0.401153 0.143189 0.303278 -0.391690 0.396850 -0.503523 -0.173849 -0.245377 0.069966 -0.209028 -0.890977 -0.830669 0.285226 -0.402696 0.131416 0.202788 0.363785 0.544985 0.084804 0.370727 -0.089081 0.025120 0.101109 0.408467 -0.438862 0.328543 -0.204778 -0.124754 -0.057421 -0.385830 0.114283 -0.898502 0.257539 -0.383706 -0.102124 0.060469 -0.557596 -0.083078 -0.284471 0.159151 0.249736 0.206691 0.025198 -0.175425 0.051855 -0.200164 -0.319252 0.136863 0.128598 -0.232455 -0.069503 0.325917 0.083671 0.092764 0.530326 0.267651 -0.264460 -0.160583 0.380632 -0.246343 0.353391 0.311711 -0.042543 0.309994 -0.728079 0.420513 0.123011 -0.207033 0.374819 -0.190023 -0.012648 0.004104 0.243888 -0.018698 0.187715 -0.650642 0.004574 0.058616 0.074883 -0.517804 -0.439595 -0.336361 0.380534 -0.195199 0.312701 0.215244 -0.516996 -0.031384 0.502260 0.334448 0.436107 -0.081757 0.273445 0.433747 -0.320368 0.231302 -0.022508 0.426430 0.208082 0.048220 -0.046807 0.016132 -0.300062 0.157212 0.085157 -0.154834 -1.112166 -0.283188 -0.109889 0.580365 -0.665372 0.621810 0.015314 -0.371181 0.379350 0.168188 -0.372509 0.531490 0.120606 0.829678 -0.704404 0.066529 -0.312780 -0.098615 0.308942 -0.042150 0.131268 -0.502764 
a901 0.576519 -0.127144 0.474893 -0.293331 0.490775 -0.330351 -0.045051 -0.411026 0.137503 -0.401598 -0.620543 -0.737699 0.722956 -0.201956 0.007835 0.000317 0.292927 0.335639 0.317957 0.288723 -0.132420 -0.022396 0.013681 0.350677 -0.216770 0.197750 -0.042033 -0.283061 -0.090092 -0.506338 0.362156 -0.775766 0.257961 -0.266093 -0.063418 -0.192224 -0.292407 -0.117536 -0.218479 0.133775 -0.056873 0.261296 0.009237 -0.280083 0.012286 0.077588 -0.490567 0.161110 0.020523 -0.109614 -0.024148 0.421011 -0.083756 -0.181595 0.667730 0.320109 -0.281020 -0.156960 0.251228 -0.387841 0.599815 0.478929 -0.002259 0.084527 -0.403625 0.187760 0.181549 -0.152401 0.300564 -0.214751 0.003229 0.194493 0.397325 -0.193404 -0.071162 -0.696539 -0.001251 0.024007 0.318489 -0.206244 -0.179575 -0.682977 0.266539 0.069867 0.074897 0.089075 -0.659374 -0.101193 0.495222 0.142479 0.619679 -0.207932 0.270258 0.422236 -0.558284 0.116954 0.114917 0.271332 0.363217 -0.153204 0.036780 -0.019185 -0.225718 -0.084084 -0.068485 -0.353235 -0.758360 -0.362684 -0.037532 0.838760 -0.376652 0.852857 0.317549 -0.246736 0.277719 0.674847 -0.466997 0.288733 0.120762 0.730204 -0.516829 0.034631 -0.061592 -0.108538 0.339796 0.171289 -0.030535 -0.258166 
a2824 -0.666750 -0.757829 0.384665 -0.255774 0.509035 -0.368848 -0.368225 -0.376928 -0.167198 -0.538267 0.117671 -0.747700 0.421574 -0.042711 -0.210749 0.225534 -0.272188 0.756201 0.398025 -0.134732 -0.106921 0.257295 -0.098562 0.209233 0.536493 -0.066210 0.431803 -0.314639 -0.007232 -0.373495 0.371368 -0.017232 0.914058 -0.449940 0.653645 -0.188273 -0.030836 -0.294912 0.466950 -0.106038 0.102681 0.275228 -0.097231 -0.194991 -0.066598 0.367355 0.136313 0.303855 -0.464527 -0.649529 -0.213404 0.231284 -0.092621 -0.276347 0.148310 -0.515155 0.682661 0.385715 0.103898 0.132183 0.305897 0.030976 -0.143338 -0.458863 -0.217034 0.354572 -0.368691 -0.296404 0.091039 0.012197 -0.058152 0.170099 -0.074232 0.381481 -0.260653 -0.413476 0.264195 0.178811 0.020600 0.139128 -0.073418 -0.176894 -0.303558 0.096464 -0.028144 -0.465205 -0.315189 0.008044 0.156372 -0.408985 0.264319 -0.226172 0.167278 -0.041246 -0.348014 -0.344889 -0.043242 0.401963 0.091229 0.021462 -0.065214 -0.011248 0.255748 -0.321318 0.398939 0.174793 -0.748175 -0.205962 0.074442 0.008885 -0.276131 0.176028 0.140005 -0.215050 -0.004532 0.181082 -0.369055 0.120424 0.300886 0.666916 -0.750953 -0.243325 0.096680 -0.251325 0.088084 0.556398 0.625494 -0.293420 
a1958 -0.536175 0.360517 0.310462 -0.212613 0.636671 0.569992 0.034867 -0.189560 0.415258 -0.398246 0.314575 -0.138124 0.902898 0.159971 -0.547394 0.244765 0.215170 0.231388 0.067941 -0.221558 -0.569147 -0.280883 -0.078574 -0.088983 0.272065 -0.516017 0.374954 -0.326792 -0.137669 -0.534680 0.941356 -0.142849 0.072791 -0.350751 0.037416 -0.891881 0.198606 -0.208945 0.263514 0.565665 -0.586002 0.631309 0.422033 -0.709557 0.068623 0.241048 0.077549 0.062529 -0.470635 -0.988059 0.637652 0.554148 -0.636120 -0.537363 0.066321 -0.639341 0.597804 0.232014 -0.282580 0.103700 -0.062570 0.273246 -0.759701 -0.161053 -0.374117 0.129119 -0.651565 -0.731749 0.656005 -0.474707 0.528315 -0.024645 -0.245020 0.339247 0.104326 -0.012599 -0.282070 0.135993 0.141600 0.162682 0.712944 -0.164049 -0.021590 0.237827 0.016093 -0.840154 -0.287339 -0.328019 0.159189 0.035810 0.134201 0.264789 0.113724 0.288596 -0.889836 0.204845 -0.164450 0.802708 0.350770 -0.214675 -0.138868 -0.220127 0.213672 0.118310 0.185327 -0.221882 0.175339 -0.197908 0.058097 -0.458725 -0.324334 0.099712 0.325213 -0.310668 0.688756 0.213718 0.303145 -0.188266 0.597126 0.026715 -0.934082 -0.439972 0.132211 -0.484152 -0.143751 -0.335971 0.556078 -0.177453 
a4596 0.420593 -0.015724 0.261253 -0.446695 -0.540165 -0.966889 -0.049676 -0.241713 -0.296199 -0.276786 -0.537227 -0.519753 -0.181234 -0.325501 0.625943 -0.337305 -0.469803 0.972198 0.497245 0.475010 -0.510463 0.222183 0.111090 0.317917 -0.002325 0.101581 -0.108358 -0.065160 -0.277683 -0.693510 -0.197027 -1.162019 0.089106 -0.565173 0.536814 -0.447903 0.091195 0.036592 0.682454 0.064373 0.263340 0.539178 -0.745529 -0.692404 -0.756445 0.027589 0.380572 -0.393597 -0.596818 -0.869823 0.365772 -0.358216 -0.117343 0.635977 0.196080 -0.966801 -0.127607 -0.137784 -0.109742 -0.442145 -0.089418 -0.727508 -0.823899 -0.399916 -1.278060 -0.287502 -0.063681 -0.248417 0.503926 -0.378170 -0.369169 0.135229 -0.207630 -0.245545 0.301570 -0.272313 -0.536985 -0.398052 0.151094 -0.112347 0.074158 -0.068901 -0.512017 -0.800657 0.837447 -0.814871 -0.286781 0.297214 -0.092411 0.416387 0.461825 -0.186483 0.305757 0.394782 -0.247752 0.053559 -0.034958 0.634418 0.377302 -0.854538 0.140243 -0.321801 0.007736 0.266596 -0.265645 -0.350245 -0.940005 -1.036130 0.240193 0.019278 -0.906036 0.318369 -0.494682 -0.396815 0.798315 -0.242961 0.204732 0.534961 0.059563 0.031123 -0.156053 -0.152533 -0.456245 -0.395291 0.075753 -0.451792 0.192255 -0.109544 
a1418 -0.540355 -0.765164 0.002667 -0.295933 -0.103051 -0.586861 -0.536254 -0.183304 0.124799 -0.351323 -0.090743 -0.835640 0.300014 -0.307909 -0.276765 0.160581 -0.564203 0.838933 0.513360 -0.136795 -0.231083 0.159087 -0.151244 0.306681 -0.019170 0.164132 0.208933 -0.481013 0.196086 -0.299339 -0.001656 -0.448400 0.828231 -0.138743 0.553145 -0.089861 -0.272646 -0.229176 0.236849 0.121032 0.264182 0.283143 -0.294449 0.218082 -0.106693 0.419970 0.228259 -0.136476 -0.138529 -0.734179 0.015182 -0.112980 0.234181 -0.524824 0.015856 -0.378164 0.811067 0.276659 -0.121125 -0.060085 0.034051 -0.115062 -0.216833 -0.576355 -0.189538 0.412054 -0.507588 -0.346802 0.329090 -0.060927 0.135137 0.292276 0.077094 0.421757 0.092792 -0.326708 0.175492 0.264447 0.029555 -0.141441 -0.080872 -0.103321 -0.093056 -0.055819 0.244606 -0.681210 -0.197821 -0.100249 0.025670 -0.234339 -0.022266 -0.323294 -0.166724 -0.105459 -0.439135 -0.394297 -0.374804 -0.025124 0.074359 0.258701 -0.140352 0.233759 -0.057453 -0.385768 0.307944 0.289974 -0.183336 0.004729 -0.063970 -0.149222 -0.188102 -0.187561 -0.243646 0.319775 0.134491 0.106239 -0.320922 0.036468 0.442528 0.357719 -0.032098 -0.026090 0.053390 -0.179632 0.144813 0.104399 0.540746 -0.189325 
a1223 -0.328746 -1.053288 -0.498620 -0.237312 -0.212435 -0.343906 -0.150431 -0.417845 -0.091856 -0.022516 0.159066 -0.847272 0.631212 -0.080048 -0.199072 0.105322 -0.598265 1.027043 0.716566 -0.075264 -0.348664 0.158851 -0.107589 0.593863 0.044779 -0.043331 -0.418626 -0.271846 0.236841 -0.072043 -0.438538 -0.962693 0.652876 -0.313908 -0.031435 -0.124371 -0.460900 -0.205141 0.849005 -0.346092 0.183915 0.048527 -0.125448 0.398697 -0.012479 0.174344 0.218200 0.289055 -0.388566 -0.171813 -0.310826 -0.143974 0.200157 -0.476012 -0.009543 -0.067592 0.723855 0.467074 -0.766578 -0.055811 -0.086261 -0.317736 -0.384225 -0.580093 -0.286180 0.553966 -0.410329 -0.425842 0.394957 -0.220614 -0.117467 -0.031734 0.346664 0.516768 -0.253882 -0.409856 0.016571 0.013489 0.401560 -0.250647 0.414031 0.483792 -0.543818 -0.458474 0.455792 -0.838820 0.065871 0.096781 -0.481823 0.626012 0.401336 -0.560247 -0.407707 0.389609 -0.604684 -0.165077 0.063636 0.307613 0.333785 0.055369 -0.098952 -0.125831 0.057429 -0.448670 0.279174 0.633168 -0.854793 -0.319017 -0.809109 0.027382 -0.175330 -0.384080 -0.258890 0.098071 -0.193677 -0.280318 -0.286542 0.593419 0.078795 0.197463 0.021201 0.020421 -0.317302 0.057614 0.294491 -0.120523 0.595237 0.059639 
a1488 0.053554 -0.599122 0.232418 -0.107243 0.238818 -0.248777 -0.189105 -0.224969 0.545108 -0.174537 -0.043399 -0.121113 0.987313 0.233796 -0.091791 0.566598 -0.166965 0.184228 0.631591 -0.335829 -0.660559 0.159011 -0.502585 -0.283925 0.068968 0.283020 0.306486 -1.002428 0.221394 -0.376324 0.462896 -0.553223 0.431178 -0.049296 0.407571 0.061869 -0.079891 -0.085481 0.613581 0.141806 -0.191620 -0.008177 0.084985 0.058704 -0.136762 0.247985 0.213369 -0.241067 -0.279575 -0.603023 0.042617 -0.005118 -0.515718 -0.371322 -0.236600 -0.382472 0.083543 0.091103 0.057238 0.045769 0.586884 -0.145111 -0.317152 -0.127518 -0.213551 0.218118 -0.121964 -0.489521 0.047004 -0.446024 0.139500 0.273739 0.084570 0.082286 0.297778 -0.150201 -0.047278 -0.045477 0.324026 0.133642 0.522852 -0.739386 -0.019151 -0.017452 -0.102732 -0.993139 -0.444067 0.339527 0.047150 -0.616954 0.201972 -0.112855 0.166171 -0.129566 -0.660824 -0.206575 0.185924 0.162886 0.018049 0.488091 -0.302564 0.480437 0.018839 -0.745596 0.075081 0.138398 0.657696 -0.012353 0.404905 0.155041 -0.114219 0.536040 0.004835 -0.080715 0.850965 0.041633 -0.115176 -0.482973 0.846438 0.246627 -0.742184 -0.563079 -0.259092 -0.662313 0.236922 -0.320016 0.719730 -0.451774 
a278 -0.182549 -0.757544 0.625486 -0.600450 0.217889 -0.786212 0.602094 -0.441604 0.225169 -0.012216 -0.518488 -0.891372 0.957036 -0.116372 0.007163 0.295777 0.119361 0.789425 0.193760 -0.240684 -0.207485 0.164067 0.450270 0.007597 -0.063920 0.195695 -0.274327 -0.433210 0.601886 -0.052053 0.000667 -1.047139 -0.081724 -0.427616 -0.557210 -0.274083 -0.133066 -0.210197 -0.434697 0.082679 -0.084318 0.072514 -0.041623 0.274745 -0.739195 0.070065 0.091081 0.511625 -0.425402 -0.800993 -0.185533 0.398061 0.540333 0.053874 0.423701 -0.613566 0.658041 0.660651 -0.006898 0.227706 -0.164956 -0.128517 -0.137689 -0.309275 -0.699188 -0.303152 -0.091527 -0.286683 -0.301836 0.008017 -0.041834 0.034373 -0.101344 -0.120585 -0.150927 -0.144856 -0.152472 0.382899 -0.358220 0.247476 0.163457 0.220585 -0.022902 -0.453583 0.081786 -0.567231 0.314534 0.813041 0.028535 -0.003068 0.381120 -0.816307 -0.069289 -0.080483 -0.343043 -0.752756 0.177346 0.248657 0.427686 -0.657206 -0.670128 -0.531720 -0.572059 0.137217 -0.461506 0.293740 -1.796926 -0.666010 0.158042 -0.083102 -1.069538 0.898000 -0.310266 -0.742545 0.342514 -0.550018 -0.562256 0.112101 0.620680 -0.013958 -0.920783 -0.095999 -0.047199 -0.236246 0.361782 0.079952 -0.265662 -1.095015 
a3690 0.437946 -0.358187 0.450666 -0.528686 -0.556926 -0.599113 -0.028342 -0.414988 0.517405 0.200457 -0.373333 -0.340074 0.822251 0.224031 0.525516 0.740982 -0.062923 0.494438 0.523314 -0.168346 0.042122 -0.033599 -0.192439 0.048753 0.128339 -0.165909 0.166723 -0.580555 0.327612 -0.056282 -0.098118 -0.454593 0.037474 0.010560 0.020254 0.202982 0.173064 0.198142 -0.024219 -0.025800 0.267197 -0.234154 0.001012 0.165730 0.060028 0.046585 0.230882 -0.390959 -0.437265 -0.453668 -0.055980 -0.358179 -0.075036 -0.197045 -0.229420 -0.306444 -0.136251 0.135095 -0.110120 -0.212804 -0.043377 -0.105306 -0.570892 0.436075 0.070780 -0.197439 -0.137026 -0.209415 -0.129869 0.044450 0.108584 -0.030719 -0.097431 0.239654 0.169224 -0.232868 0.376433 -0.215651 -0.010450 -0.229859 1.449353 -0.645619 0.206991 0.015817 0.350405 -0.864874 -0.037983 0.190850 0.031613 -0.434033 -0.383193 0.018220 0.119374 -0.069153 -0.655170 -0.442288 0.403269 -0.038403 0.259876 -0.336439 0.093643 0.041910 0.068344 -0.554075 -0.052249 0.017820 0.657607 -0.089603 0.331678 0.409700 -0.780364 0.911953 -0.659437 -0.674354 0.823029 -0.704401 0.164717 -0.729300 0.717145 -0.150773 -0.445729 -0.414592 -0.168945 -0.375058 0.111842 -1.099271 0.419252 -0.598145 
a1524 -1.050540 -0.435279 0.095859 -0.431409 0.042858 -0.641204 -0.181629 -0.053870 -0.039348 -0.416042 -0.575137 -0.730243 0.258035 -0.249208 -0.430061 0.161630 -0.167374 0.628469 -0.103924 -0.329624 -0.215003 0.309632 -0.220575 0.127585 0.080591 -0.514304 -0.025887 0.412348 0.265124 -0.637446 -0.101590 -0.507089 0.261446 -0.097116 0.465168 -0.035290 -0.173020 0.116325 0.150902 0.302739 0.245144 0.046890 0.050397 -0.328679 -0.132497 -0.247829 0.116672 0.150254 -0.580813 -0.363424 -0.061051 -0.136322 0.008735 -0.403460 0.099744 -0.133708 0.512500 0.136794 0.338928 0.205895 -0.119798 0.160035 -0.182847 0.070826 -0.117286 0.574697 -0.391635 -0.026179 0.024195 0.151509 0.100409 -0.002500 -0.213323 0.078566 0.142652 0.043478 -0.291440 0.333539 0.424768 -0.060458 -0.259733 0.327602 -0.492313 -0.373318 0.129672 -0.661875 -0.104601 0.322645 -0.197124 0.104185 0.339875 0.004652 -0.277175 0.157397 -0.267094 0.243704 -0.417522 0.602377 0.333313 0.012222 -0.238826 -0.166273 -0.023498 -0.162038 0.046301 0.397256 -0.647580 -0.077051 -0.146467 -0.686327 -0.340922 -0.186361 0.194152 0.350250 0.194149 -0.236059 0.082505 0.510669 0.722267 0.521454 -0.771833 -0.340692 -0.341418 -0.484705 -0.068313 0.086832 1.261907 -0.538958 
a1687 -0.136143 -0.222963 0.111851 -0.195418 -0.517454 -0.058962 0.009148 -0.059410 0.778588 -0.325177 -0.418172 -0.550776 0.278008 -0.442591 -0.052114 0.067579 0.107086 0.631177 0.104218 0.177099 0.088071 -0.074809 0.246361 -0.485840 -0.111791 -0.018083 0.035701 -0.184969 0.146726 -0.039831 -0.203549 -0.175097 0.220469 -0.473480 0.025465 -0.129772 -0.382231 0.090090 -0.610465 0.301267 -0.182342 -0.158066 -0.064071 -0.183407 -0.094417 -0.121542 -0.182132 0.094627 -0.097603 -0.163523 -0.016833 0.251385 0.042981 -0.124099 0.116785 -0.090599 0.332226 0.026820 0.310786 0.125754 0.032365 0.641087 0.198157 0.012004 -0.352372 -0.359179 -0.276640 -0.058838 0.034981 -0.071266 0.027210 0.212812 -0.278009 0.218229 -0.312158 -0.338748 0.211132 0.589490 -0.243465 -0.185410 -0.047829 0.080425 -0.441211 -0.271080 0.072389 -0.608694 0.053640 0.226201 0.055759 -0.208568 0.147539 -0.459580 0.237890 -0.313864 -0.519396 -0.597727 -0.119693 -0.148353 0.108157 -0.376054 -0.492411 -0.252050 -0.398557 -0.066906 -0.167487 -0.033318 -0.837234 -0.172893 0.004523 -0.312804 -0.204033 0.416529 -0.074511 -0.239428 0.322211 -0.151433 -0.825983 -0.002500 0.443826 0.260342 -0.846149 -0.052757 0.308991 -0.057931 -0.047047 0.045403 0.012592 -0.678891 
a2573 -0.279055 -0.511344 0.139889 -0.414246 0.579755 -0.117215 -0.299375 -0.353274 0.121661 -0.265117 -0.107966 -0.501337 0.712258 -0.078925 -0.324730 -0.042638 -0.106837 0.377752 0.713220 -0.322891 -0.275638 0.228561 -0.234961 0.411058 0.246684 -0.201082 -0.180151 -0.398447 0.379897 -0.659502 0.413342 -0.655502 0.846077 -0.363000 0.434584 -0.137483 -0.203835 -0.188455 0.772011 0.269990 0.104576 0.136196 0.280828 -0.245114 0.100923 0.246481 -0.119251 0.117325 -0.299710 -0.305044 -0.348543 -0.111327 0.016927 -0.172917 0.305385 0.118543 0.087265 -0.010996 -0.195831 -0.293765 0.209196 -0.065048 0.078307 -0.314988 -0.064423 0.372776 -0.651847 -0.223407 0.262102 0.084359 -0.094514 0.205657 0.506042 0.185048 0.061617 -0.393680 0.095726 0.340180 0.230295 0.067382 -0.063438 -0.584251 -0.253804 0.131498 0.087155 -0.322544 -0.193961 -0.226569 0.020064 -0.167563 -0.182176 0.016951 -0.463991 0.290882 -0.168060 0.167310 -0.319474 0.462978 0.157119 0.219779 -0.020189 -0.088403 0.201720 0.035363 -0.123610 0.176823 -0.206674 0.028064 -0.324561 0.322854 -0.209747 -0.189187 0.164266 -0.020622 0.148702 0.095861 -0.019195 0.285662 0.328984 0.401521 -0.309571 -0.003194 -0.419129 0.294424 0.101969 0.063518 0.653602 -0.162996 
a1161 0.148935 -0.463610 -0.074645 -0.439935 0.182709 0.301679 -0.754363 -0.441872 0.397838 -0.256999 0.229767 -0.349321 0.882582 -0.357626 0.079361 -0.097438 -0.210626 0.545521 0.409888 -0.021877 -0.561586 -0.167798 0.102117 0.198824 -0.196793 -0.182818 0.378960 -0.816941 -0.247905 -0.221989 0.315171 -0.005598 0.585252 -0.263029 0.247334 0.077533 -0.290935 0.054140 0.535544 0.093827 -0.071678 0.069293 0.325073 0.187061 0.355569 0.451370 -0.176124 0.076414 0.129567 0.176115 0.100147 0.298791 -0.078309 -0.756952 0.145494 0.038509 0.064642 0.181400 -0.440028 -0.081497 0.189749 0.129933 -0.240850 -0.665216 0.606180 0.214387 -0.089792 0.023547 0.404946 -0.200088 0.021431 -0.072483 0.018460 0.218130 -0.306466 -0.357510 0.148443 -0.093981 0.224279 0.063919 0.069402 -0.361115 -0.384795 0.624148 -0.281435 0.342375 -0.380750 -0.498188 -0.076760 -0.326627 0.010995 -0.245945 -0.023790 -0.172907 -0.496517 -0.444748 -0.137395 -0.064016 0.196129 -0.417026 0.338438 -0.265892 -0.043161 -0.449384 0.347469 -0.120055 -0.061501 -0.357414 -0.356329 0.280961 -0.389198 0.654797 0.109600 -0.192377 0.647831 0.340613 -0.584950 0.165494 0.606122 0.283450 -0.863052 -0.356395 -0.373089 -0.566640 -0.145596 0.299345 0.539327 -0.283546 
a1481 -0.590834 -0.738069 0.244964 -0.314219 0.507184 -0.320969 -0.175938 -0.328012 -0.189537 -0.544479 0.094637 -0.469840 0.358994 -0.061366 -0.245119 0.068676 -0.348297 0.435364 0.226125 0.042446 -0.127264 0.497939 0.234964 0.162841 0.382525 0.223209 0.298057 -0.124213 0.052821 -0.265400 0.029959 -0.165190 0.324294 -0.430565 0.388968 -0.168457 -0.117467 -0.081083 0.886974 -0.016336 -0.013242 0.289713 -0.269743 -0.068025 -0.294920 0.398437 -0.094725 0.463454 -0.418562 -0.483166 -0.095590 0.027536 -0.147790 -0.078108 0.114647 -0.262327 0.550476 0.388834 0.110758 0.084302 0.285551 -0.209311 -0.177924 -0.275314 -0.197282 0.289924 -0.196405 -0.154990 -0.126013 -0.153914 -0.364069 0.128617 -0.205135 0.190045 -0.210930 -0.298259 -0.083825 -0.000118 0.012269 0.430321 -0.127409 -0.226061 -0.444391 -0.001547 -0.057902 -0.439815 -0.227470 0.273275 0.128786 -0.053936 0.628814 -0.458154 0.213251 0.040277 -0.322940 -0.314413 -0.035881 0.611758 0.329942 -0.102564 -0.338662 -0.116225 0.245828 -0.403361 0.312476 0.371882 -1.195276 -0.293412 0.030912 -0.030578 -0.299424 0.491514 0.251539 -0.195200 0.165982 0.254286 -0.415152 0.312410 0.608840 0.450440 -1.196455 -0.198877 -0.367756 -0.699350 -0.215893 0.521550 0.791758 -0.297649 
