1711 128
</s> 0.003127 0.003453 -0.002992 -0.002561 0.001068 0.002360 0.000735 0.000165 -0.002815 0.001733 -0.003403 0.000976 -0.000587 -0.000748 -0.002590 -0.001470 0.002015 0.002364 0.002320 0.001248 0.001207 -0.002971 -0.003200 0.003883 0.002970 0.002414 -0.000472 0.003137 -0.000387 0.000574 -0.000117 -0.002331 0.001025 -0.001045 -0.002989 0.003714 0.003421 -0.000856 -0.000177 0.000398 -0.002842 -0.003131 0.003558 0.000049 -0.002017 -0.002377 -0.002403 0.001326 0.000157 0.001040 -0.003292 -0.002975 -0.000102 0.000893 0.001992 -0.002477 0.003187 0.000724 0.000875 -0.000475 0.002333 -0.001787 -0.001639 0.001686 -0.000588 0.000805 0.001410 -0.003194 -0.001549 0.002276 0.003306 0.003072 -0.002380 -0.001647 -0.000710 0.001564 -0.002960 0.002342 0.002178 -0.001249 -0.001212 -0.001749 0.003304 0.003056 -0.000922 0.003293 0.003766 0.001418 0.003893 -0.002431 -0.001197 -0.001646 -0.002271 0.002199 0.001234 0.000332 -0.001714 0.001191 0.002390 0.000151 0.001781 -0.003869 0.003371 0.000375 -0.001431 -0.001628 -0.000584 -0.002293 -0.003414 -0.002216 0.003341 -0.001383 -0.002093 0.001810 -0.001331 0.003716 -0.001254 -0.003585 0.002122 -0.000058 -0.002726 0.000762 0.001127 -0.000376 0.001425 -0.003092 0.000688 0.001419 
a4436 -0.376601 0.028053 0.103895 0.515318 -0.212216 0.007118 0.510259 0.314428 -0.046617 -0.404256 -0.435861 0.293489 0.579382 -0.367654 0.581447 -0.075778 -0.381922 0.474368 -0.174284 0.061884 -0.228296 -0.033081 -0.329703 -0.062636 -0.735324 0.042232 -0.055019 0.212932 -0.991782 0.579814 -0.406572 -0.120812 0.127522 -0.219272 0.039161 -0.574810 0.563246 0.551899 0.455493 0.119413 -0.604386 -0.127853 0.298471 0.066698 0.083811 -0.149843 0.181466 0.069752 -0.243067 -0.109454 0.236707 -0.328520 -0.402522 0.418306 -0.046604 0.141244 0.232324 0.395374 -0.649754 -0.336635 0.081254 -0.336715 -0.690063 -0.001280 0.778961 0.033235 -0.187053 0.599272 -0.100904 -0.115445 0.244526 0.281853 -0.051908 -0.507700 0.505298 0.339422 0.097920 -0.095650 -0.190407 -0.277118 0.431983 0.583363 1.079934 -0.132161 0.770724 0.106508 0.017226 0.146693 0.184715 0.583319 -0.194974 -0.085264 0.089124 0.242809 0.106572 -0.496535 0.123514 -0.203195 -0.423799 -0.311151 -0.235524 0.477685 -0.066036 0.063025 0.010297 0.033023 0.491522 -0.205487 -0.337146 -0.644209 -0.243580 -0.025670 0.495515 -0.159305 -0.781427 0.105007 0.354718 0.813891 0.417996 0.221221 -0.395687 0.241923 -0.028528 -0.337335 0.353947 0.154306 1.258657 -0.210816 
a1891 0.354738 -0.285032 -0.441637 -0.007468 -0.300274 -0.058752 0.143126 -0.207992 -0.545235 -0.261832 0.304054 0.572864 0.466603 -0.131205 -0.388445 0.420783 -0.114013 -0.412913 0.022879 -0.614026 -0.306719 -0.027565 0.038841 0.251252 -0.544374 -0.295139 -0.355434 0.186124 -0.230400 0.138503 0.327924 -0.079131 -0.381901 0.387940 -0.460594 0.069004 0.137376 -0.198631 0.123549 -0.022609 0.093604 -0.196622 -0.199287 0.034592 0.041931 -0.287391 0.645117 -0.109614 -0.001920 -0.152145 -0.059875 -0.040833 -0.087271 0.199623 -0.340553 -0.403142 -0.202176 -0.012388 -0.024328 0.204174 -0.662460 -0.520911 -0.235306 0.036251 0.211617 -0.029175 -0.149582 0.628856 -0.210073 0.569904 0.388792 0.229405 -0.135638 -0.747633 -0.633188 -0.288694 0.731339 0.188357 -0.069472 -0.071478 -0.070774 0.345150 0.911293 -0.032121 0.579364 -0.154539 0.363910 0.404812 -0.356978 0.279124 0.035431 -0.339793 0.368453 0.141598 -0.036415 -0.243221 -0.316176 -0.463846 -0.564966 -0.175954 0.579395 0.533723 0.243476 0.408283 0.440205 -0.355047 -0.390084 0.002681 0.205963 0.410730 -0.086862 0.311287 0.643131 -0.708528 -0.656818 0.021921 0.311113 0.422368 0.160961 0.463678 0.106757 -0.496606 0.388213 -0.069020 0.138579 0.378021 -0.201037 -0.008265 
a8573 0.503633 -0.220010 0.142656 -0.191804 -0.389497 0.126874 -0.066258 -0.059508 0.281400 -0.212767 -0.091729 0.108818 0.443631 -0.063841 0.590639 0.327183 -0.116517 -0.139423 -0.361825 0.483080 0.473302 -0.227253 0.524901 0.455905 0.010872 -0.144483 0.238918 -0.240779 -0.424598 0.253077 0.186661 0.440447 -0.251453 0.204471 0.094458 -0.990678 -0.252719 -0.378793 0.106025 -0.386309 -0.089979 0.010924 0.265959 -0.228161 -0.020682 -0.532589 -0.253015 -0.074218 0.312767 -0.393235 -0.339286 -0.345155 -0.116536 0.530121 -0.604970 -0.505262 0.241607 0.452394 0.284078 -0.244571 0.377023 -0.313448 -0.047392 0.123967 0.397691 -0.239195 -0.473896 1.301383 0.073322 0.097650 -0.108223 -0.345081 -0.006776 0.020389 0.014188 -0.381393 0.122647 -0.335017 0.287769 -0.002487 0.323592 -0.248609 0.660620 -0.241428 -0.297032 -0.378559 -0.165508 0.044365 0.269447 0.371835 0.050898 0.152581 0.000551 0.015247 0.272324 -0.068140 -0.028569 0.146631 -0.366939 -0.571580 0.125312 0.544550 0.193528 0.355987 0.786239 0.075711 0.080223 -0.593394 -0.382963 0.157525 -0.210450 -0.071942 0.386174 -0.212548 -0.509209 0.258420 0.206935 0.129851 0.206183 0.423611 0.181298 0.048085 0.374101 0.043700 0.097977 -0.006798 0.484446 -0.310358 
a3080 -0.238747 -0.268846 0.171059 -0.141467 -0.751521 0.086758 -0.573622 0.385862 0.198844 -0.089677 0.040500 -0.581474 0.613541 -0.474060 -0.365902 0.216970 0.220191 -0.007009 0.417103 -0.179949 0.079543 -0.034992 -0.133878 0.147716 0.044289 0.117001 0.224521 -0.285286 0.032523 -0.531619 -0.400010 -0.245916 -1.127799 -0.093428 -0.374217 -0.125074 -0.332385 -0.155813 0.341648 -0.508683 0.313838 -0.183660 0.023230 -0.477615 -0.607057 -0.217175 0.518424 0.278834 -0.165344 -0.515189 0.058607 -0.165742 -0.050309 -0.121913 0.338034 -0.071176 -0.226780 0.582598 0.404253 0.709716 -0.161151 0.598958 -0.781698 0.103666 0.351050 0.065347 -0.198297 0.857012 0.046151 0.594553 0.156462 0.488160 -0.281232 -0.109040 -0.011315 -0.575743 0.358018 0.014044 0.034243 0.152750 -0.052985 -0.116571 1.186020 -0.080524 0.517983 0.076235 0.174576 0.350288 0.343561 -0.141135 -0.233009 -0.273602 -0.325949 -0.002802 -0.210831 0.165327 0.200056 0.067711 -0.730990 -0.672645 0.350726 0.487861 -0.693276 0.152645 0.479998 -0.001375 -0.303992 -0.045065 0.729717 -0.869328 0.490030 -0.012177 -0.001448 -0.702580 -0.069800 0.149216 0.054652 0.417636 0.740458 -0.035178 -0.290626 0.421325 -0.050900 0.236870 -0.070777 -0.098290 0.603248 -0.036482 
a1952 0.297316 -0.196257 0.534180 0.370440 -0.311976 0.953442 -0.019017 0.536777 0.037246 -0.265158 0.196669 0.497995 0.577746 -0.164214 0.090868 -0.078781 -0.664681 -0.018468 0.527591 0.064070 0.000557 -0.377126 0.133881 0.046315 -0.122144 0.004715 0.630549 -0.281283 0.118594 1.045465 0.179382 -0.217051 -0.108748 0.202359 -0.245727 -0.303754 -0.382078 -0.290438 -0.111559 -0.043308 -0.126292 0.228029 0.061387 -0.526088 -0.670272 -0.098763 0.016829 -0.375792 0.126190 0.026429 -0.069472 0.191905 0.159287 -0.191708 -0.733555 -0.134925 0.361410 0.534242 -0.024336 0.495288 -0.276352 -0.298711 -0.321002 0.010642 -0.386017 0.423393 -0.071046 0.341491 0.838866 0.434831 0.547951 -0.292014 -0.302666 -0.787383 0.159916 -0.141498 0.235730 -0.468333 0.124173 -0.323775 0.044060 0.348869 1.254520 0.184787 0.531865 -0.601983 -0.329784 -0.137494 -0.292544 -0.059413 -0.676559 0.556822 0.031136 0.128164 0.271714 0.297025 -0.163231 -0.078361 -0.097546 -0.784040 0.624946 0.358513 0.275602 0.626252 0.489898 0.278380 -0.066264 -0.074724 -0.100316 0.203554 0.167063 0.030805 0.305475 -0.303452 -0.332054 0.297020 0.487662 -0.157749 0.168495 -0.120966 -0.295426 0.238450 0.476824 0.196166 -0.323193 -0.055914 0.487223 -0.687949 
a8572 0.500310 -0.224630 0.116070 -0.081110 -0.417216 0.199524 0.041781 -0.020013 0.286630 -0.229637 -0.178920 0.062435 0.406286 -0.037866 0.550265 0.283977 -0.180180 -0.140491 -0.355808 0.515738 0.460417 -0.130038 0.543028 0.472373 0.092464 -0.155156 0.353305 -0.197946 -0.467589 0.256708 0.146481 0.350043 -0.284750 0.190728 0.042700 -1.003478 -0.269401 -0.258587 0.103052 -0.465995 -0.114373 0.071340 0.263670 -0.201297 0.025839 -0.584003 -0.234663 -0.023933 0.143603 -0.391884 -0.398536 -0.430936 -0.250262 0.521182 -0.607058 -0.590719 0.241084 0.462282 0.309246 -0.250191 0.321501 -0.444371 -0.018935 0.133887 0.303095 -0.136534 -0.473715 1.204857 0.010426 0.134767 -0.134391 -0.339610 0.124351 0.020424 0.124514 -0.379314 0.120764 -0.363819 0.298944 -0.111746 0.171939 -0.197471 0.684174 -0.283078 -0.311624 -0.467843 -0.245928 -0.010278 0.351794 0.339881 -0.016790 0.107137 0.028190 0.163999 0.340366 -0.008485 -0.085238 0.130066 -0.397104 -0.561319 0.159360 0.652055 0.142507 0.345234 0.742635 0.003355 -0.007026 -0.497290 -0.381411 0.164057 -0.166433 -0.100426 0.502853 -0.203271 -0.446666 0.285900 0.189177 0.163560 0.182923 0.310786 0.214911 0.057530 0.323671 -0.009235 0.170318 0.055312 0.535344 -0.399352 
a7662 -0.226303 -0.206953 0.128027 0.356335 -0.653728 0.296976 0.538894 0.386267 0.330141 0.265801 0.077547 0.423247 0.889972 -0.144258 0.493047 -0.506214 -0.786646 -0.103526 0.223772 -0.606481 -0.112000 -0.391545 -0.259435 0.251258 -0.257434 -0.658538 0.001271 0.276418 -0.421990 -0.188790 0.192296 0.081857 -0.080314 -0.366220 -0.175942 0.039461 0.690343 0.296282 0.536235 0.197973 -0.476473 -0.738637 -0.144720 -0.249325 0.121712 -0.253960 0.219504 0.137930 -0.581190 0.992219 0.023784 -0.382435 -0.715770 0.009630 -0.453248 0.397894 0.355202 0.213407 -0.011430 0.458435 -0.211399 -0.105720 -0.834164 0.409163 0.649447 0.072057 -0.129744 1.033861 -0.212260 -0.140951 0.112841 -0.347743 -0.668949 -0.431355 0.432105 -0.018639 0.347630 0.308989 -0.365858 -0.018403 0.129561 0.216205 0.211549 -0.371767 0.201330 -0.485770 -0.416243 -0.081044 0.241372 0.448964 -0.306392 -0.124564 -0.008174 0.376888 -0.553615 -0.068777 0.509144 0.436456 -0.315994 -0.422915 0.070812 0.168897 0.277178 0.055329 0.236761 0.295553 -0.216801 -0.189782 0.027665 -0.434489 0.341222 0.123594 1.102436 -0.533365 -0.746792 0.008322 0.103846 0.171267 0.888885 0.078436 0.157665 -0.143776 0.283408 0.520451 0.111890 -0.179111 0.083007 0.011227 
a1918 -0.159173 0.004665 1.031510 0.643812 -0.229494 0.220894 0.374263 0.111765 -0.425085 -0.192554 0.007938 0.049417 0.651698 -0.046374 0.011095 -0.054835 -0.211070 0.475818 0.119521 -0.153576 -0.346911 -0.088971 -0.205408 0.429924 -0.506421 -0.041867 0.139809 -0.041092 -0.132475 0.238013 -0.294221 -0.074756 -0.014248 0.251094 -0.061886 -0.060866 -0.093809 0.239163 0.775169 -0.157537 -0.587593 -0.257454 0.212357 0.305503 0.049526 -0.557302 1.128885 -0.298364 0.505062 0.334579 -0.353181 -0.367899 -0.623824 0.431528 -0.498721 0.165824 -0.180362 0.579601 -0.477691 0.106936 0.042393 -0.379530 -1.306373 0.375843 0.030125 -0.336173 0.080477 1.202320 0.433352 0.246749 0.264694 0.549652 -1.343966 0.241870 0.149536 -0.133392 0.449263 -0.067153 0.137842 0.156723 0.563831 0.428489 0.079022 0.124633 0.700071 -0.365607 -0.468860 -0.087819 0.126460 0.050979 0.070791 0.184218 0.244066 -0.166065 0.220861 0.095997 0.210371 -0.014673 -0.273404 -0.643828 0.148330 0.615497 0.098232 0.592753 -0.018121 0.714429 0.082578 -0.373480 -0.210296 0.391686 -0.253198 0.207344 0.640888 -0.601038 -1.389314 0.350836 0.241166 0.656326 0.565612 0.078751 -0.291713 -0.297646 -0.276302 0.540925 0.301306 -0.136148 0.086162 -0.095698 
a7159 -0.145752 -0.344407 -0.180877 0.138814 -0.238633 -0.005834 -0.120203 -0.339754 -0.325228 -0.353170 0.476590 -0.071061 0.369667 -0.131919 -0.221380 -0.029073 0.458396 0.103603 -0.114635 -0.065323 0.102820 0.119555 0.188988 0.514168 -0.373326 0.390417 0.143307 -0.066286 0.109814 0.316393 0.070222 0.219383 0.111765 -0.304304 -0.177520 0.333328 0.075543 0.066048 0.023615 -0.131069 -0.005242 -0.082396 -0.255844 0.079088 -0.119741 -0.189979 0.425286 0.282491 -0.406580 0.133039 0.083053 -0.016814 -0.420828 -0.087201 -0.289718 -0.167219 0.561461 -0.145240 0.020091 0.293499 -0.111538 0.168431 -0.282962 0.416625 -0.080865 -0.213137 -0.103555 0.025356 0.016311 0.134291 -0.067111 0.085517 -0.281528 -0.340277 -0.164539 -0.188836 0.412657 -0.143491 -0.179040 -0.345862 0.321149 0.008423 0.212509 0.354650 0.029341 0.020200 0.274835 0.440982 -0.129436 -0.081484 -0.221493 -0.132999 -0.156161 0.048599 0.208867 0.205304 0.285518 -0.613046 -0.459791 -0.169020 0.344319 0.132347 0.216420 0.318459 0.168398 -0.116753 -0.249820 0.197253 -0.511547 0.054912 0.453052 0.144288 0.636166 -0.057645 -0.319687 0.275672 0.019797 0.114010 0.297284 -0.298375 0.109096 -0.278589 0.052888 0.116167 -0.082262 -0.044230 0.240549 0.061925 
a8571 0.546708 -0.234499 0.191163 -0.203692 -0.296958 0.236291 -0.044971 0.012515 0.283287 -0.209324 -0.216611 0.113459 0.374934 0.026757 0.507727 0.308973 -0.155369 -0.162261 -0.369561 0.530489 0.491767 -0.163403 0.557655 0.458903 0.045160 -0.176979 0.262701 -0.269520 -0.424889 0.273459 0.207420 0.391870 -0.345118 0.250698 0.124713 -0.965572 -0.215423 -0.333700 0.112476 -0.501114 -0.099657 0.058739 0.286930 -0.224719 0.049774 -0.592164 -0.119364 -0.022616 0.187923 -0.308352 -0.310557 -0.447668 -0.171689 0.501988 -0.580094 -0.551550 0.336274 0.464060 0.293848 -0.250336 0.304648 -0.318915 -0.067004 0.194203 0.479320 -0.175702 -0.424269 1.204719 0.049431 0.071937 -0.070267 -0.373012 0.100285 0.028215 0.103953 -0.402435 0.096975 -0.287667 0.221244 -0.051195 0.291218 -0.260022 0.602023 -0.258095 -0.209658 -0.419143 -0.215423 0.022589 0.284262 0.293720 0.082373 0.121864 -0.062678 0.062107 0.327019 0.010777 -0.065463 0.087047 -0.341806 -0.623399 0.175723 0.552492 0.183250 0.286706 0.784324 -0.008270 0.051074 -0.502037 -0.363381 0.182113 -0.194287 -0.073573 0.377657 -0.163656 -0.370852 0.284076 0.158723 0.181606 0.206912 0.344522 0.173756 0.050985 0.438250 -0.032855 0.223013 -0.006819 0.554634 -0.375545 
a1888 0.448475 -0.263335 -0.361438 0.042628 -0.307452 -0.141281 0.215422 -0.209290 -0.622518 -0.290609 0.340021 0.536915 0.375511 -0.023462 -0.381423 0.382161 -0.212881 -0.277782 0.281855 -0.602358 -0.151378 -0.081920 -0.062872 0.357875 -0.553117 -0.346524 -0.474589 0.125740 -0.264256 0.086771 0.198632 -0.015377 -0.343633 0.330783 -0.521934 -0.061678 0.167624 -0.243135 0.175479 -0.114381 0.176586 -0.217493 -0.119127 -0.139237 0.108442 -0.259712 0.692860 -0.091902 0.117793 -0.136214 -0.110987 -0.068175 -0.208571 0.273525 -0.378379 -0.291099 -0.162099 -0.003240 -0.012416 0.162278 -0.718030 -0.483779 -0.144820 -0.011230 0.129870 -0.029990 -0.129006 0.539735 -0.196761 0.624216 0.404196 0.147788 -0.196721 -0.634073 -0.655039 -0.291293 0.737480 0.116833 -0.066319 -0.049368 -0.112487 0.310947 0.908222 0.056615 0.598476 -0.089196 0.358893 0.393098 -0.353352 0.164054 0.069534 -0.439768 0.293556 -0.040811 -0.108229 -0.178030 -0.222791 -0.498714 -0.574382 -0.068683 0.658417 0.454692 0.332562 0.408811 0.327666 -0.374342 -0.404214 0.103203 0.214298 0.398249 -0.184144 0.224398 0.613059 -0.739196 -0.686608 -0.053974 0.333989 0.339860 0.191213 0.382665 0.108158 -0.402959 0.471642 -0.127820 0.182285 0.346698 -0.175908 -0.052061 
a3026 -0.495712 -0.314222 0.308193 0.507643 -0.134374 -0.482140 0.354021 -0.026883 0.162323 0.054255 0.029144 -0.325650 0.255949 -0.654384 -0.256610 0.595890 0.190368 -0.210205 1.029542 -0.331954 -0.382303 -0.017280 0.371592 0.136321 0.315626 0.220040 -0.208973 -0.111711 0.457867 0.112012 0.405153 -0.383581 -0.552283 -0.049426 -0.459739 -1.000468 -0.082602 -0.668189 -0.109816 -0.703885 -0.354033 0.077824 0.196612 -0.805190 0.674907 -0.485835 0.703311 0.080638 -0.137419 0.252486 -0.567320 -0.148777 -0.273988 -0.175489 -0.715793 -0.406563 0.300229 0.462953 -0.383788 0.166775 -0.086269 -0.024498 -0.950027 0.037943 0.587855 0.064279 -0.012875 0.127021 0.251131 0.040788 0.319469 0.170412 -0.559333 0.363344 -0.020965 0.267881 0.172275 0.060724 0.353142 -0.147653 -0.227005 0.063797 0.492154 0.698201 0.429426 -0.419529 -0.012253 -0.193160 -0.087737 -0.083000 -0.205016 0.055987 -0.690449 0.637054 -0.063770 0.310179 -0.312502 -0.080860 -0.337313 -0.159241 0.006818 0.641015 -0.022747 0.368109 0.075366 0.299696 -0.068006 -0.430722 -0.243814 -0.451724 -0.226194 0.049967 -0.048344 -1.012448 -1.011311 -0.080012 0.195782 0.416606 0.279614 -0.079407 -0.367564 0.059616 -0.248535 -0.176671 0.242783 -0.583224 1.089610 0.038587 
a9965 0.102927 -0.201554 -0.316216 -0.155894 -0.365505 0.187723 -0.141290 0.041967 0.212220 0.030515 -0.314431 -0.076612 0.596869 0.086371 0.020574 0.058028 0.238486 -0.059337 0.070988 0.087314 0.359279 -0.401420 -0.322761 0.272575 -0.202268 0.260045 -0.045005 0.106753 0.038799 0.453276 0.059484 -0.144789 -0.628239 -0.126772 -0.116950 -0.222072 0.183228 -0.018635 0.178566 0.379667 -0.323415 0.144813 0.251027 -0.508643 -0.145360 -0.165316 0.118945 0.095357 -0.006820 0.501965 0.347845 0.352773 -0.095854 0.462431 -0.369050 -0.091197 -0.320502 -0.338909 -0.344938 -0.244560 0.325370 -0.084094 0.037191 0.064113 0.007983 0.228015 0.678825 0.631509 1.089256 0.276534 -0.089733 -0.218807 -0.530149 0.279419 -0.023551 -0.343547 0.065395 -0.147494 0.545548 0.058565 -0.105425 0.039647 0.682541 0.299224 0.462056 -0.029288 -0.172308 0.296553 -0.354536 -0.028316 0.333952 0.568933 -0.317061 0.001577 -0.687461 -0.142942 0.587767 -0.664468 -0.251079 -0.320746 0.503073 0.388635 0.455405 0.330222 0.278714 -0.005590 0.017586 -0.073130 0.494340 -0.157172 0.252864 -0.059426 0.510500 -0.315315 -0.365785 -0.206016 0.708859 0.707153 0.449102 -0.037587 -0.107673 0.171218 0.829468 0.045016 -0.440099 0.012959 0.609698 -0.582202 
a1890 0.402626 -0.335905 -0.387567 0.088718 -0.450750 -0.066537 0.229976 -0.217877 -0.682532 -0.260984 0.346409 0.504368 0.440509 0.066903 -0.335772 0.265159 -0.153405 -0.447070 0.000592 -0.485947 -0.322429 -0.057380 0.040916 0.272633 -0.512840 -0.157559 -0.361754 0.093274 -0.151062 0.102366 0.107979 -0.059834 -0.423219 0.249908 -0.501164 0.045017 0.184684 -0.199089 0.106010 -0.121872 0.083604 -0.199749 -0.196127 0.005853 0.164455 -0.357814 0.678403 -0.021131 0.078919 -0.176029 -0.127304 -0.119251 0.024769 0.241332 -0.268347 -0.359576 -0.152661 -0.106484 -0.056703 0.111417 -0.665347 -0.454548 -0.233742 -0.028174 0.195635 -0.097284 -0.134237 0.672369 -0.371074 0.529009 0.366268 0.215161 -0.191975 -0.759558 -0.654904 -0.415135 0.727556 0.116162 -0.103704 -0.132064 -0.063263 0.256757 0.931546 0.032342 0.586994 -0.135369 0.331401 0.352511 -0.321599 0.221438 -0.093257 -0.351859 0.226318 0.077574 -0.040107 -0.233553 -0.248315 -0.480183 -0.535260 -0.119402 0.635473 0.434922 0.184526 0.455618 0.148710 -0.327333 -0.280392 0.120457 0.195084 0.253863 -0.094397 0.258504 0.489407 -0.664576 -0.609583 0.000993 0.220398 0.352349 0.268301 0.524872 -0.016861 -0.565545 0.358457 0.030316 0.159366 0.291879 -0.030769 -0.083900 
a4163 0.127078 -0.125100 0.158218 -0.144098 -0.277768 -0.032308 0.475923 -0.353085 0.232563 0.105936 0.133446 0.783549 0.003891 -0.675897 -0.162112 0.455524 -0.242116 0.250121 -0.078841 0.053765 -0.524440 0.249958 0.376718 -0.199995 -0.340156 0.307986 0.129260 0.280393 0.332623 0.026052 0.021607 -0.012675 0.034337 -0.242166 -0.178125 -0.409593 -0.027372 -0.388417 -0.211133 -0.087005 0.070380 0.442608 0.049251 -0.390863 -0.204997 -0.590338 -0.029780 -0.242432 0.198315 0.237747 0.132817 0.128078 0.202809 0.004128 -0.259153 0.485780 0.116093 -0.244549 -1.027497 -0.089994 0.217322 -0.199971 -0.353844 0.064500 0.823270 0.481903 -0.023251 0.930472 0.222814 0.475096 -0.215429 0.008811 -0.639058 -0.668261 -0.340089 -0.344991 0.367314 -0.078448 -0.162800 0.109058 -0.417089 0.514886 1.227640 0.251735 0.032963 -0.407309 0.147832 0.316425 0.113655 0.262034 0.309468 0.193963 -0.498536 0.159265 0.421301 0.092468 -0.101199 0.110208 -1.028488 -0.784054 0.176291 1.010468 0.360806 0.608597 0.514339 0.723405 0.046186 0.685173 0.237379 -0.417832 0.207799 -0.851677 0.222648 -0.539647 -0.683543 0.127381 0.704638 0.113915 0.325437 -0.340734 0.152856 -0.068524 0.435424 -0.137841 0.515531 -0.125546 0.516166 0.628310 
a2423 0.917131 -0.454597 0.060614 -0.156376 0.076773 0.086514 0.242029 0.129661 0.289741 -0.227664 -0.257733 -0.331269 0.638058 -0.193959 -0.025015 0.559312 -0.550980 0.299179 0.097726 0.322500 -0.009323 -0.149248 0.216270 0.574701 -0.277809 -0.057043 0.638151 0.222359 -0.403398 -0.237943 0.131853 0.158371 0.126607 0.472297 -0.151361 0.152795 0.307040 -0.632292 -0.157804 -0.412799 0.034614 -0.152194 0.108946 0.094392 -0.734246 -0.438995 0.536535 -0.403850 -0.291997 -0.320125 -0.626224 0.107386 -0.094776 -0.235188 -0.601289 0.385308 -0.015529 -0.078311 -0.334777 -0.018918 -0.052881 -0.568140 -0.587624 0.091494 0.418438 0.227153 0.105932 0.858501 0.888251 0.238593 -0.339727 -0.137612 -0.400022 -0.901218 0.011617 -0.874262 0.395574 0.288668 0.358243 -0.224877 -0.184183 0.010476 0.605870 -0.148037 0.991732 0.429405 -0.264869 0.658578 0.367566 -0.054842 0.212683 0.056415 -0.676174 0.053761 0.289280 0.008163 -0.080833 0.057339 0.089722 -0.472409 -0.206367 0.677901 -0.142647 0.628925 0.373198 0.622773 0.113952 -0.075351 -0.173733 -0.202553 0.060871 -0.484926 0.157985 -0.649852 -1.059387 0.010297 0.643118 -0.108580 0.234077 -0.467932 0.144385 -0.020894 0.019408 -0.132724 0.662398 -0.520662 0.538467 0.516510 
a7106 -0.138662 -0.370756 -0.338761 0.163498 -0.241075 0.174588 -0.196003 -0.365473 -0.153851 -0.338411 -0.039293 0.021611 0.043727 -0.109118 -0.032118 0.021402 0.138758 -0.028391 -0.046459 -0.017741 0.034472 0.057703 0.194128 0.402866 -0.113505 0.042473 0.249229 0.085188 -0.018803 0.260857 0.078045 0.199320 0.082908 0.020033 -0.247616 0.313153 0.133823 -0.225890 0.148702 -0.022673 -0.031333 -0.218814 -0.215552 0.108488 -0.000008 -0.155707 0.375108 0.212951 -0.267484 0.124310 0.067468 -0.004049 -0.193467 -0.091007 -0.013643 0.007231 0.256811 -0.093587 -0.161098 -0.051700 -0.241930 0.120682 -0.158109 0.154369 -0.038473 -0.201630 0.062439 0.054429 -0.156456 0.152117 -0.081562 -0.052286 -0.176934 -0.315546 -0.134784 -0.103213 0.147283 -0.183185 0.062823 0.010988 0.198045 -0.147870 0.071509 0.516587 -0.072749 0.046672 0.276880 0.231006 -0.053903 -0.126644 0.033191 0.042304 -0.202259 -0.140433 -0.144417 0.127538 -0.084266 -0.510892 -0.609666 -0.183217 0.222449 0.064916 0.066296 0.331569 -0.064145 -0.173940 -0.138938 0.153883 -0.301479 -0.087140 0.238551 0.217134 0.473395 -0.096559 -0.233277 0.203886 0.159965 -0.072939 0.057662 -0.124104 0.098903 -0.346861 -0.004614 0.017988 -0.129894 -0.254843 0.101200 0.084687 
a347 0.064193 -0.101186 0.178175 -0.243531 -0.267218 0.001039 0.486601 -0.356474 0.233718 0.029599 0.133838 0.779121 0.114857 -0.660262 -0.097624 0.515610 -0.282783 0.157195 0.002205 0.126134 -0.435659 0.225299 0.357956 -0.242622 -0.343710 0.359239 0.122244 0.374497 0.295629 0.014556 -0.138189 0.040357 0.103349 -0.173709 -0.178113 -0.362140 -0.040831 -0.360397 -0.188597 -0.070372 0.049424 0.500306 0.089393 -0.479353 -0.220813 -0.525554 0.016552 -0.435433 0.180444 0.198378 0.051144 0.145303 0.132302 -0.074309 -0.257414 0.442729 0.121157 -0.201147 -1.066711 -0.148866 0.252334 -0.192098 -0.434507 0.044736 0.819320 0.469612 -0.116317 1.001373 0.247524 0.428592 -0.224063 -0.073511 -0.627778 -0.681897 -0.340574 -0.286993 0.336186 -0.104011 -0.142325 0.109243 -0.302135 0.518715 1.224688 0.226477 0.090660 -0.482792 0.199319 0.276109 0.215740 0.239428 0.336722 0.187486 -0.516310 0.149498 0.340478 0.004667 -0.036089 0.090260 -1.047379 -0.854530 0.130275 1.034841 0.289889 0.685086 0.439806 0.817052 0.148886 0.680019 0.213830 -0.493374 0.295815 -0.916392 0.146123 -0.443268 -0.735527 0.208000 0.786498 0.163264 0.292137 -0.275343 0.134241 -0.118604 0.433809 -0.243906 0.510773 -0.100027 0.518369 0.585607 
a277 0.440214 -0.263132 0.321453 0.065000 0.037636 -0.369774 0.244270 0.253910 0.172230 -0.741482 -0.123344 -0.012483 0.672393 -0.754468 0.482604 0.291311 -0.389436 0.175038 -0.403291 -0.073653 -0.155196 0.334121 -0.068361 0.204672 -0.882515 -0.199159 0.057885 0.181038 -0.065114 0.308327 -0.258846 -0.467608 -0.514478 0.192873 -0.229989 -0.496071 0.517681 -0.624428 0.187351 -0.005635 0.136381 0.563812 -0.356027 -0.832014 -0.099632 -0.611482 0.393082 -0.307455 -0.982550 0.271399 -0.186324 -0.297927 -0.124878 0.208494 -1.118354 0.054287 0.078809 0.160816 0.079145 0.218215 -0.638383 -0.656642 -0.809035 0.443881 0.424726 0.514941 0.474444 1.137265 0.286995 0.046013 0.148443 -0.105281 -0.899298 0.082141 0.050431 -0.246492 0.391273 -0.888943 -0.204498 0.019385 0.385730 -0.183751 1.109261 -0.259999 0.594957 -0.794165 0.162508 0.460772 0.038773 0.224873 -0.337864 0.311342 -0.578222 1.206174 0.292054 -0.136785 -0.080917 0.342042 -0.171721 -0.130985 0.471352 0.806975 0.732867 0.738055 0.105129 0.104532 0.065622 -0.139439 0.452162 0.083682 -0.218879 -0.568646 0.668462 -0.313190 -0.594232 0.179670 0.963294 0.451543 0.576786 -0.099777 -0.037392 -0.201623 0.445222 -0.515599 0.060178 0.104973 0.511012 -0.003245 
a1163 -0.331239 -0.277263 0.137340 -0.066177 -0.824942 0.000314 -0.414291 0.412135 0.235416 -0.104818 -0.008900 -0.640572 0.569010 -0.331202 -0.304173 0.212836 0.228465 -0.009232 0.409947 -0.126273 0.075013 0.013975 -0.250460 0.185253 0.047477 0.095833 0.098410 -0.327133 0.120209 -0.585074 -0.558636 -0.175115 -1.170595 -0.168311 -0.289817 -0.157559 -0.395650 -0.215092 0.330290 -0.529841 0.179361 -0.226785 -0.044330 -0.391634 -0.628698 -0.220337 0.619569 0.192081 -0.285248 -0.408640 0.000467 -0.059160 -0.063835 -0.122658 0.456512 -0.046171 -0.253481 0.558283 0.457594 0.603480 0.014354 0.497961 -0.814527 0.076961 0.384846 0.019789 -0.247678 0.836931 0.053148 0.620226 0.118448 0.438430 -0.201908 -0.123250 -0.043019 -0.523951 0.320769 -0.035839 0.000227 0.147058 -0.137864 -0.005457 1.252453 0.041772 0.559005 0.098164 0.125425 0.275987 0.302915 -0.061319 -0.252734 -0.171146 -0.333646 -0.012649 -0.239462 0.088861 0.209386 -0.042626 -0.736829 -0.795518 0.311784 0.486062 -0.711509 0.172923 0.452173 -0.006436 -0.305938 -0.040431 0.687720 -0.686414 0.518896 -0.035526 -0.045429 -0.746979 -0.025715 0.150580 0.085454 0.263399 0.678835 -0.031308 -0.254042 0.401186 -0.042552 0.153156 -0.028159 -0.144013 0.558675 -0.084268 
a1324 0.033125 0.160877 0.015372 0.397947 -0.447552 0.016536 0.207166 0.067035 -0.056199 0.028907 -0.239025 -0.076919 0.036322 -0.425740 0.096913 0.260626 -0.248940 0.231193 -0.029047 -0.134510 0.348841 0.016227 -0.075899 0.196697 -0.240515 -0.352232 -0.097588 0.148571 -0.142498 -0.310631 -0.018880 -0.124193 0.068183 -0.217373 -0.146623 -0.363701 0.132276 0.203375 0.319694 -0.031087 -0.172920 -0.252293 -0.033850 0.240007 0.123765 -0.303926 0.182443 0.185042 0.199749 0.130463 0.083474 -0.490685 -0.408732 0.020456 -0.175986 -0.296996 0.305869 0.109254 -0.138276 0.161320 -0.140099 -0.048139 -0.446916 0.018713 0.387199 -0.255551 -0.253925 0.374690 0.019823 -0.293522 -0.290081 -0.088091 -0.345376 -0.406969 0.025907 0.298325 0.202185 -0.189263 0.212352 -0.002406 0.047296 0.085238 -0.373102 0.102711 0.104132 0.073037 -0.167122 0.065968 0.056195 0.212356 0.041041 0.036764 0.164262 0.252358 -0.172862 0.431405 0.050366 -0.124015 -0.062678 -0.400135 -0.055991 -0.071967 0.117911 0.137151 -0.094845 0.130716 0.050560 -0.048209 -0.006207 -0.038742 -0.218437 0.196747 0.240583 -0.136418 -0.211691 0.227101 -0.203274 0.289150 0.419336 -0.084199 -0.294627 0.068574 0.028587 0.235977 -0.064453 -0.122430 0.054887 0.058783 
a1889 0.469811 -0.215746 -0.166189 0.025551 -0.329395 -0.058913 0.180992 -0.305936 -0.631389 -0.232264 0.375752 0.429596 0.574307 -0.104610 -0.113529 0.372107 -0.172583 -0.431871 0.236614 -0.498585 -0.212634 0.067350 -0.210030 0.313796 -0.498317 -0.380254 -0.500803 0.196387 -0.247749 0.147126 0.159712 -0.045644 -0.411767 0.354500 -0.471587 0.052900 0.105526 -0.102932 0.156480 -0.092930 0.099854 -0.317608 -0.217559 -0.164164 -0.038197 -0.295583 0.730263 -0.079462 0.084434 -0.060584 -0.194539 0.001866 -0.171167 0.305343 -0.059966 -0.215143 -0.276091 -0.025178 -0.142867 0.376933 -0.744162 -0.506530 -0.160058 0.064399 0.177235 -0.059805 -0.094786 0.556047 -0.163027 0.367948 0.454475 0.191685 -0.171514 -0.547297 -0.699597 -0.393878 0.725110 0.093524 -0.079188 -0.061884 -0.214352 0.276504 0.883301 -0.092415 0.731418 0.023112 0.318910 0.447032 -0.238184 0.345504 0.030066 -0.400234 0.389773 -0.007056 -0.137184 -0.107565 -0.366033 -0.382074 -0.491572 -0.145109 0.545367 0.607700 0.236784 0.405143 0.328385 -0.300251 -0.251025 0.023979 0.182247 0.471199 -0.148645 0.259679 0.538708 -0.485841 -0.745563 -0.015680 0.255778 0.450278 0.283719 0.413609 0.106733 -0.413153 0.505177 0.021834 0.245289 0.293668 -0.263013 -0.200410 
a4435 -0.334093 0.020472 0.114462 0.554513 -0.101262 0.035441 0.517734 0.339088 -0.101018 -0.301867 -0.358732 0.357297 0.502357 -0.275762 0.559450 -0.136879 -0.392065 0.495107 -0.110410 0.000028 -0.244194 -0.071669 -0.258517 -0.119276 -0.801682 0.085012 -0.077399 0.115859 -0.942906 0.571797 -0.343463 -0.183872 0.107953 -0.308211 -0.061211 -0.549724 0.548935 0.443781 0.535888 0.106424 -0.564009 -0.123753 0.334746 0.031973 0.227699 -0.192679 0.116598 0.063175 -0.174793 0.014512 0.278908 -0.356361 -0.404049 0.432065 -0.062239 0.078561 0.267577 0.440315 -0.748312 -0.261758 -0.014911 -0.308633 -0.690950 0.031830 0.701038 -0.058396 -0.281025 0.616691 -0.166860 -0.086036 0.272675 0.283052 -0.094861 -0.501484 0.610745 0.301553 0.161274 -0.092011 -0.266546 -0.245672 0.415806 0.460178 1.055113 -0.111050 0.902092 0.149120 -0.110565 0.161547 0.167042 0.655052 -0.170614 0.017142 0.016721 0.219372 0.143458 -0.471660 0.084640 -0.251654 -0.434563 -0.234258 -0.148680 0.542406 0.019586 0.022820 -0.040666 0.184042 0.685484 -0.185573 -0.345992 -0.747108 -0.185860 -0.086456 0.450215 -0.187392 -0.761135 0.104710 0.384319 0.820134 0.444110 0.223451 -0.390479 0.175922 -0.083155 -0.362667 0.356805 0.171383 1.275688 -0.192396 
a4193 0.401646 -0.954597 0.350140 -0.193403 -0.375844 0.191740 0.220388 0.184745 -0.276149 -0.042148 0.582746 0.089927 0.394940 -0.470865 -0.263196 -0.001235 -0.130480 -0.104558 1.044081 0.432468 0.423262 0.067109 -0.224572 0.713568 -0.133845 -0.548883 0.202552 0.220120 0.346283 0.396334 0.114594 -0.151515 -0.310417 -0.194247 -0.351183 -0.312073 0.259217 -0.022088 0.856262 -0.032782 0.110530 -0.518131 -0.115871 -0.487730 0.100644 -0.150169 0.305664 0.088050 0.414945 0.033718 -0.712424 -0.282885 -0.444762 0.224332 -0.677269 -0.237527 -0.563390 0.661914 -0.130092 0.050109 0.225171 -0.698055 -0.573398 0.231591 0.992124 -0.618942 0.194618 0.904576 -0.170725 0.544569 0.065917 0.422421 -0.435875 0.187290 0.624040 -0.528309 0.079276 0.260330 0.107818 0.247343 -0.126441 -0.020090 1.615688 -0.087370 0.319633 0.012005 -0.494123 0.736759 0.378917 -0.057232 -0.169440 0.516194 0.112963 0.115964 0.052668 0.681920 0.073927 -0.081716 0.126108 -0.416829 0.403020 0.805815 -0.068155 0.368923 0.979440 0.012508 -0.288068 0.541063 0.190702 -0.446197 0.221795 -0.336275 -0.242430 -1.064065 -0.478620 -0.351426 -0.104419 0.885316 0.148839 -0.076280 -0.357634 -0.161664 -0.113595 -0.219072 0.097800 -0.519815 0.606099 0.340077 
a6185 0.269906 -0.705223 0.644625 0.132235 0.249849 -0.110141 0.537734 0.272884 -0.196477 -0.054944 0.906195 0.215639 0.673938 -0.128251 -0.140938 0.796517 -0.393622 0.056332 0.449914 -0.244214 0.087604 0.404506 -0.069220 0.391099 -0.693676 -0.552690 0.023446 0.408349 -0.705548 0.671788 -0.960248 0.252670 -0.213436 0.034263 -0.203092 -0.386332 -0.208024 -0.358170 0.093366 -0.212360 -0.083415 0.726076 0.120147 0.174985 -0.216033 0.127329 0.175258 -0.129074 -0.131897 0.050463 -0.619997 -0.173505 0.468850 0.178038 -0.540980 0.028975 0.280582 -0.095312 -0.300490 0.034129 -0.487123 -0.064408 -1.004544 0.781706 0.052584 0.100647 0.475693 0.932770 0.412763 0.675468 -0.490822 0.325976 0.148054 -0.846097 -0.241010 -0.326901 -0.103359 0.087557 -0.243710 0.048191 0.376384 -0.017063 0.542388 0.352129 0.331850 -0.465344 0.045153 0.120365 -0.002387 -0.233589 0.284461 -0.242897 0.355831 0.202130 -0.175954 0.157020 -0.622822 0.113609 -0.861291 -0.316753 0.620062 0.430712 0.498432 -0.287366 -0.130692 -0.189624 -0.207873 0.166631 0.096682 -0.339021 1.206013 0.345138 1.268281 -0.699654 -1.314705 -0.536793 0.474938 0.717576 0.839111 0.081173 0.445373 0.071360 0.267523 0.060598 0.061742 -0.514186 1.107898 -0.067601 
a925 0.414469 -0.134939 0.304122 0.342196 -0.253130 -0.161541 -0.008021 0.495378 0.003664 -0.343428 0.109697 0.155371 0.651296 -0.449164 0.064270 0.362334 -0.306626 0.032867 0.097228 -0.207711 0.178218 -0.110552 -0.290844 -0.016462 0.008060 -0.067151 0.283047 0.229863 -0.092418 0.526714 -0.580643 0.051416 0.051122 -0.077948 -0.536237 -0.409010 -0.118891 -0.153909 0.324160 0.470082 0.408942 -0.187205 0.270458 -0.248975 0.537262 -0.487370 0.739822 0.515517 0.183003 0.257697 -0.115767 -0.855545 -0.418156 0.251638 -0.310616 -0.230105 0.346956 -0.452019 -0.084576 -0.013325 -0.451580 -0.315692 -1.012652 0.596976 0.110359 0.091827 -0.305049 0.961500 0.335229 -0.361515 0.292724 -0.136904 -0.872903 -0.300455 0.513818 -0.538403 0.590833 0.291021 0.120695 0.297459 -0.152726 0.603282 1.094646 -0.524478 0.886573 -1.011466 -0.117626 -0.215106 -0.344706 -0.091087 0.256460 0.559935 0.059926 0.322958 0.130447 0.311976 0.355597 0.261276 -0.436771 -0.259056 0.318116 0.136305 -0.161365 0.243163 0.440025 0.607910 0.560026 -0.733657 0.097474 -0.098918 -0.175842 0.120746 0.414515 -0.354974 -1.136951 -0.037567 0.618296 0.112641 0.114121 -0.304480 0.647805 0.002419 0.201571 -0.193445 0.120515 -0.199696 1.605551 0.414805 
a159 0.568377 -0.553576 0.490704 0.337450 0.518400 0.051603 -0.311268 0.293442 -0.014647 -0.787777 0.302695 0.568477 0.574675 -0.406909 0.574771 0.078081 -0.672029 0.577574 -0.282723 -0.361353 0.331461 0.335362 0.524620 -0.360279 -0.388822 0.086248 -0.060266 0.005872 0.175458 0.285829 0.081050 0.523719 -0.065224 0.699444 -0.182885 -0.580671 0.587218 -0.161479 -0.199467 -0.036749 -0.125836 -0.244093 -0.045153 -0.487504 0.435823 -0.606807 0.775861 -0.507721 -0.508688 -0.183835 -0.005830 -0.074869 -0.587488 -0.589425 -0.509822 -0.174143 0.117486 -0.063447 0.067791 0.798576 0.341229 -0.612270 -0.845776 0.037978 0.035495 -0.026628 0.249999 0.906299 0.678744 -0.067329 0.448670 0.106265 -0.638792 0.416696 -0.153555 -0.133507 0.622297 0.001519 0.274059 0.299374 -0.123107 -0.427578 1.257505 -0.240518 0.992566 -0.468494 -0.608875 -0.002728 -0.253743 0.095383 -0.000646 -0.262665 0.313584 0.073328 -0.078294 0.195658 -0.377864 0.121395 -0.026337 -0.646065 0.127503 0.530437 0.106398 0.757360 -0.300037 0.645969 -0.156501 0.121921 0.243101 -0.436632 0.187121 0.021423 1.238643 -0.544008 -0.613762 -0.481138 0.029717 0.531743 0.642329 0.664496 0.001140 -0.140529 0.245139 0.036325 0.317430 0.485223 0.715195 0.033302 
a7144 -0.089678 0.091262 -0.407656 0.341300 -0.392354 0.398366 -0.402120 0.006816 -0.802135 0.150776 0.131124 -0.259797 0.241062 -0.207034 -0.255863 -0.084028 0.608507 0.166398 0.233490 -0.103020 0.371776 -0.040603 0.154383 0.536550 -0.427520 0.368041 0.072526 -0.044242 0.650813 0.467841 0.144375 0.230164 0.510149 -0.252808 -0.402483 -0.256409 -0.011571 -0.514858 0.303890 -0.127479 0.035035 -0.085905 -0.119472 0.066214 -0.174285 -0.168152 0.557157 0.050836 -0.362291 -0.025837 0.259356 0.158047 -0.590277 -0.583475 -0.070501 -0.234843 0.319973 -0.271309 -0.445257 0.274814 0.061003 0.460923 -0.155500 -0.021805 0.310452 0.079584 0.391532 0.351808 0.204273 -0.123633 0.244786 -0.043964 0.022790 -0.446041 -0.211091 -0.558460 -0.215362 0.118837 -0.152481 -0.379157 0.441763 0.210729 0.478506 0.327571 0.070396 -0.292789 0.191847 0.530105 0.247585 -0.051478 -0.194194 0.438745 -0.089624 -0.308356 -0.153096 -0.137822 0.003720 0.217232 -0.268916 -0.008365 -0.121487 0.085098 0.526916 0.569196 0.123580 0.028577 0.076563 -0.231581 -0.560564 0.002819 0.527520 0.059796 0.570751 -0.395723 -0.245428 0.021035 -0.039118 0.160693 0.263984 0.285926 0.264454 -0.488233 0.281770 -0.210046 -0.302679 -0.561520 0.057381 0.182559 
a1953 0.357006 -0.218080 0.665418 0.392941 -0.263051 0.899442 -0.089097 0.502719 -0.029437 -0.305475 0.132686 0.422781 0.465689 -0.149224 0.080862 -0.097631 -0.517338 0.058548 0.521103 0.037156 0.010445 -0.435198 0.056457 -0.018833 -0.134284 0.010016 0.477028 -0.210109 0.004031 0.927578 0.356189 -0.156672 -0.209090 0.105541 -0.169768 -0.207762 -0.448511 -0.302781 -0.109767 -0.079980 -0.136757 0.201101 0.091322 -0.515563 -0.671954 -0.184087 0.061381 -0.371838 0.062908 0.010208 -0.081124 0.137439 0.149262 -0.189582 -0.638302 0.002621 0.390405 0.446752 0.017061 0.485003 -0.185623 -0.121302 -0.137467 0.035348 -0.351493 0.345430 0.039054 0.302872 0.845956 0.370893 0.481925 -0.279592 -0.211815 -0.808797 0.126911 0.055553 0.148352 -0.470477 0.053293 -0.283328 0.163544 0.300589 1.268738 0.162486 0.457419 -0.548817 -0.353324 -0.185215 -0.264000 0.037011 -0.729249 0.555362 -0.041042 0.083009 0.305056 0.063528 -0.033300 -0.095112 -0.006441 -0.877739 0.628309 0.274790 0.286042 0.636962 0.456172 0.319509 -0.008032 -0.003614 0.030200 0.210028 0.158026 0.054228 0.247010 -0.306482 -0.459285 0.215934 0.472222 -0.240547 0.306019 -0.018107 -0.238566 0.213305 0.375817 0.224403 -0.332815 -0.047196 0.550102 -0.594670 
a1184 -0.010325 0.072960 -0.175749 0.177471 -0.322141 0.142825 -0.125220 0.089518 0.307469 -0.266601 -0.196495 0.018354 0.036572 -0.480750 0.275972 0.059748 -0.338760 0.107907 0.057657 0.238946 0.137467 0.031006 -0.170966 0.245541 -0.275134 -0.348153 -0.215929 0.494426 -0.087620 -0.200219 -0.135712 -0.221131 -0.055892 0.171799 -0.050108 -0.259998 0.239169 0.068143 0.121698 -0.001447 -0.266795 -0.080067 0.229686 -0.014729 0.318807 -0.235019 -0.095003 -0.032798 0.094599 0.083641 -0.023699 -0.360781 -0.272071 0.117326 0.061107 -0.058419 0.132388 0.261337 -0.249475 0.194111 0.081644 -0.019930 -0.298803 -0.078424 0.275918 -0.344714 -0.477745 0.495267 0.144201 -0.362995 -0.111513 0.037268 -0.181209 -0.124476 -0.033990 0.330621 -0.061755 0.285523 0.013459 -0.058433 0.291584 0.125129 0.080154 0.176507 0.143751 0.276387 0.126339 -0.210218 -0.020284 0.106489 -0.163909 0.117548 0.239409 0.175934 -0.146151 0.080546 0.132500 -0.175967 -0.252484 -0.282167 0.161996 0.190081 -0.012059 -0.066556 0.142913 0.288821 0.497984 -0.187866 -0.189593 -0.126936 0.191891 0.046641 0.311081 -0.277449 0.060549 -0.068955 -0.070576 0.348826 0.049485 -0.262792 -0.266604 0.258333 -0.286505 0.387692 0.047153 -0.034265 0.236268 0.364842 
a6558 0.532214 -0.511397 0.077952 -0.150231 -0.407389 0.050225 -0.008359 -0.009192 0.216253 -0.110047 -0.173637 -0.108476 0.511737 -0.128155 0.745750 0.045473 -0.217145 -0.198661 -0.118348 0.500949 0.382542 0.140936 0.504904 0.285520 0.197549 -0.141718 0.177773 -0.440067 -0.296466 0.295913 0.162297 -0.042097 -0.200908 0.298763 -0.030503 -0.621117 -0.301845 -0.340534 -0.051065 -0.225396 0.107853 0.218687 0.155847 -0.117047 -0.073885 -0.167996 0.028278 -0.046783 0.127411 -0.278451 -0.244804 -0.267240 -0.141722 0.557896 -0.473902 -0.371217 0.261775 0.707020 0.476010 -0.115939 0.493803 -0.783532 -0.097725 0.324875 0.567719 -0.047015 -0.135241 1.086921 0.114576 -0.341597 -0.211260 -0.496624 0.060685 -0.032565 0.066584 -0.297474 0.204540 -0.263549 0.373297 -0.023810 0.233289 -0.206040 0.526692 -0.242132 -0.157315 -0.258296 -0.108248 -0.059287 0.302619 0.151195 0.035473 0.089791 0.136971 0.129086 0.245539 -0.040849 -0.091571 -0.011990 -0.326594 -0.559604 0.158298 0.368410 -0.022159 0.215861 0.780225 0.073721 0.150828 -0.307784 -0.459162 0.375923 -0.174950 -0.001471 0.611279 -0.239463 -0.624416 0.001124 -0.153539 0.294955 0.382242 0.383188 0.040806 0.058850 0.401585 0.134630 0.270654 -0.133379 0.563464 -0.481967 
a7661 -0.164669 -0.170837 0.061461 0.355372 -0.613140 0.236660 0.537397 0.400452 0.292282 0.308872 0.003632 0.415332 0.868778 -0.066016 0.650948 -0.431943 -0.789926 -0.077624 0.187692 -0.682037 -0.100788 -0.584696 -0.327271 0.184677 -0.135714 -0.651769 0.026812 0.210488 -0.423678 -0.192563 0.078719 0.019390 -0.068244 -0.308217 -0.188185 0.017806 0.615057 0.353096 0.474447 0.147345 -0.408638 -0.788517 -0.131378 -0.324447 0.070317 -0.242452 0.426271 0.086636 -0.530492 0.922316 0.112719 -0.297327 -0.721273 0.018991 -0.403978 0.426280 0.327888 0.265973 -0.030738 0.434960 -0.282709 -0.127208 -0.899984 0.387154 0.719853 0.006508 -0.118409 0.982952 -0.192504 -0.058609 0.121680 -0.354298 -0.665431 -0.473524 0.410329 0.022487 0.317411 0.323406 -0.287083 -0.068082 0.107168 0.109604 0.237412 -0.325662 0.078842 -0.356689 -0.450781 -0.047566 0.160759 0.330206 -0.277431 -0.268375 -0.021154 0.351654 -0.484835 -0.050914 0.414622 0.334405 -0.306735 -0.493271 0.148756 0.109814 0.212090 0.023012 0.300060 0.235737 -0.112503 -0.203120 -0.088741 -0.454307 0.504265 0.048209 0.991737 -0.558835 -0.637046 -0.017200 0.053457 0.128385 0.894474 0.094036 0.173034 -0.106529 0.281327 0.440976 0.122591 -0.030529 0.075625 -0.034049 
a2805 0.322138 0.153934 0.190514 -0.323363 -0.028324 -0.232820 -0.157098 -0.057256 0.169204 0.035138 0.003026 -0.198689 0.059896 -0.140500 -0.052429 0.025173 0.011715 0.457243 -0.293406 0.056387 0.156226 -0.154841 0.330328 0.367574 -0.554406 -0.042735 0.224867 -0.355286 0.084350 0.136534 0.206364 0.065348 -0.097212 -0.179979 -0.258946 -0.038022 0.225473 -0.089012 0.147313 -0.200773 0.074790 -0.004560 -0.105086 -0.167948 -0.140727 -0.069217 -0.079797 0.116893 0.136381 0.146113 0.265716 -0.058955 -0.152708 0.147020 -0.198253 0.217832 0.020797 0.016177 -0.392515 0.262559 -0.018581 -0.076477 -0.201900 -0.050054 0.008487 0.081984 0.051809 -0.014994 -0.018630 -0.065364 0.236117 -0.226143 -0.131987 -0.276903 -0.159455 0.066409 -0.002680 -0.057795 0.113483 0.284856 0.168179 0.240270 0.275435 0.134619 0.023247 0.038719 -0.165167 0.152605 0.032873 -0.150800 -0.062548 0.030565 -0.180771 -0.063982 -0.132155 -0.095099 -0.209665 -0.207644 -0.521061 -0.053404 -0.002329 -0.033960 -0.079154 0.243887 0.335202 0.225492 -0.190580 0.236285 0.253337 0.086298 0.225637 0.133344 0.117624 -0.182232 0.024357 -0.108685 -0.011018 -0.079056 0.042899 -0.182026 0.225049 -0.048765 -0.062745 0.474484 -0.264780 -0.246630 0.447675 -0.090677 
a1731 0.399975 -0.150982 0.568209 0.349081 -0.319171 0.839594 -0.153141 0.598950 -0.068503 -0.315248 0.189133 0.379874 0.600241 -0.306929 0.056818 -0.086095 -0.473827 0.018686 0.507412 -0.064383 0.107653 -0.414138 0.135162 -0.040794 0.066074 0.002672 0.531297 -0.293321 0.091800 1.076625 0.257334 -0.230339 -0.109365 0.191277 -0.231898 -0.321619 -0.420673 -0.430236 -0.089043 -0.005211 -0.050431 0.161635 0.058196 -0.344115 -0.732655 -0.231195 0.038807 -0.289003 0.068437 0.066481 -0.050255 0.119667 0.199368 -0.166068 -0.655354 -0.095796 0.261867 0.568914 -0.079331 0.423822 -0.173560 -0.187113 -0.202821 0.121158 -0.370752 0.482204 -0.083180 0.306558 0.859507 0.341382 0.486071 -0.337245 -0.340673 -0.827611 0.215533 -0.011073 0.222239 -0.394806 0.087263 -0.326956 0.137498 0.251039 1.382575 0.180311 0.400898 -0.484435 -0.358694 -0.226271 -0.370714 -0.053198 -0.733301 0.553822 0.025559 0.005421 0.194284 0.185801 -0.100369 -0.150608 0.080477 -0.769497 0.573033 0.312320 0.289529 0.626773 0.503549 0.364047 -0.060267 -0.044417 0.000888 0.155223 0.168647 -0.034837 0.301561 -0.328684 -0.556863 0.270916 0.595002 -0.112229 0.232238 -0.133097 -0.252671 0.158660 0.524910 0.283900 -0.291462 -0.003330 0.556837 -0.635423 
a7690 -0.037187 -0.157480 -0.096691 0.264553 -0.106328 0.196957 0.568086 -0.121006 0.190054 -0.251957 0.195961 -0.026958 0.126381 -0.557085 0.064703 0.657157 -0.011574 0.038346 -0.269297 0.179047 0.185205 0.348526 0.316787 0.195346 -0.334288 -0.198556 -0.626796 -0.007952 -0.061307 -0.316090 -0.381874 -0.249720 -0.108960 0.204119 -0.152067 -0.109349 0.113148 -0.518982 -0.090011 0.258998 -0.486295 -0.436541 -0.396229 -0.238818 0.113606 -0.518246 0.318485 0.021099 0.141310 0.248321 0.053491 -0.239352 -0.211536 -0.443002 -0.187001 0.182024 -0.111688 -0.281043 0.071147 0.013601 -0.208574 -0.252407 -0.338325 0.121634 -0.145397 -0.367001 -0.014896 0.346972 0.583494 -0.263058 0.177719 -0.012300 -0.105134 -0.245448 -0.034807 -0.021240 0.148424 -0.033915 0.027391 0.169863 -0.235835 0.201020 0.572430 0.145654 -0.024823 0.024945 -0.156836 0.110381 0.312400 -0.099923 -0.154549 0.231472 -0.217316 0.267972 -0.402932 0.196428 0.211616 -0.162105 -0.260263 -0.059178 0.535317 0.061627 -0.044816 -0.259171 0.267123 -0.452355 0.516926 0.353449 -0.198822 0.270578 0.162510 -0.290014 0.659117 -0.282734 0.219485 0.214668 0.155280 0.284018 0.218079 -0.051151 -0.719943 -0.183484 -0.093033 0.202537 -0.220983 -0.184896 0.126031 0.163396 
a2616 0.304568 0.180151 0.330744 -0.371623 0.070960 -0.259992 -0.312665 -0.043734 0.171258 -0.155864 0.046684 -0.337175 0.033777 -0.137597 0.080548 0.020694 0.086628 0.397776 -0.281509 -0.116064 -0.023710 -0.347647 0.258931 0.457689 -0.410598 -0.109216 0.097079 -0.288068 -0.104266 -0.080292 0.076092 -0.068989 0.082430 -0.225045 -0.196862 -0.075351 0.258669 0.078022 0.084661 -0.078689 -0.041879 -0.055009 -0.017262 -0.293695 -0.140490 -0.005930 0.082663 0.032171 -0.175452 0.061090 0.244479 -0.039888 -0.074843 0.150468 -0.264382 0.132703 0.051991 0.050912 -0.243533 0.234350 0.035773 -0.156501 -0.169673 -0.171895 0.058385 -0.075245 -0.095210 -0.065914 -0.081540 0.066392 0.261084 -0.101284 -0.059618 -0.363113 -0.230813 -0.126475 -0.032749 -0.085829 0.231295 0.296984 0.137084 0.305955 0.338252 0.257251 -0.020894 0.014680 -0.087316 0.315939 -0.022166 -0.070698 -0.082791 0.004147 -0.289196 0.065006 -0.123251 -0.091907 -0.066492 -0.225585 -0.413562 -0.259550 -0.030739 -0.050178 0.002483 0.412259 0.295388 0.357311 -0.169718 0.298957 0.168616 0.146865 0.290017 0.168401 0.079399 -0.295422 -0.030048 -0.128319 0.231867 -0.131111 0.088321 -0.119632 0.076537 -0.263801 -0.054514 0.344552 -0.077896 -0.606515 0.300103 -0.170035 
a1894 -0.130386 0.053328 0.076848 0.220715 -0.302702 0.011360 0.172647 -0.058433 0.243139 -0.216183 -0.488260 -0.069369 0.029663 -0.216344 0.361873 0.090650 -0.248025 0.092007 -0.337711 0.259516 0.266912 -0.047368 -0.170374 0.077382 -0.237096 -0.495873 -0.257941 0.411305 -0.202119 0.129793 -0.217846 -0.231045 0.006960 -0.056857 -0.122507 -0.416696 0.128037 0.177656 0.254439 0.002667 -0.319942 -0.234169 -0.074549 0.079421 0.043519 -0.337937 -0.083010 -0.129754 0.085290 0.096758 0.221000 -0.433274 -0.301176 0.106892 -0.053238 -0.180876 0.302851 0.112654 -0.385770 0.240847 -0.021885 -0.165566 -0.160434 -0.019777 0.479831 -0.282398 -0.369265 0.375075 0.046316 -0.349715 0.037138 0.055866 -0.120774 -0.247264 0.128618 0.327634 0.277615 0.076610 -0.058139 -0.220274 0.200171 0.106014 0.236184 0.181450 0.076582 0.306508 0.004519 -0.112246 0.105849 0.149949 -0.043876 0.040849 0.293227 0.079193 -0.134170 0.241967 0.091586 -0.206011 -0.245963 -0.068369 0.072666 -0.030566 -0.209832 0.031433 0.166661 0.216281 0.564108 -0.025884 -0.098020 -0.485145 0.051299 0.100258 0.102552 -0.156207 -0.213295 -0.013914 -0.254395 0.381088 0.283441 -0.143176 -0.276210 0.200342 -0.214639 0.106911 -0.022350 -0.146237 0.367177 0.150915 
a2588 0.320239 -0.057401 0.278077 0.156957 0.035667 -0.064252 -0.203185 -0.033311 0.379209 -0.081023 0.136472 -0.053606 0.110744 -0.071000 -0.075876 -0.003962 0.195701 -0.076663 -0.217384 0.078492 -0.144877 0.030023 0.304671 0.301427 -0.427150 0.027601 0.056935 -0.520231 -0.030976 0.176440 0.096925 0.061745 -0.347498 0.213637 -0.396599 -0.233589 0.295925 -0.094054 0.078045 0.050175 -0.027469 -0.033229 0.019396 -0.214291 -0.357637 -0.101758 0.031856 0.174251 -0.020309 0.338717 0.372968 -0.033073 -0.177681 0.132439 -0.105303 -0.176944 0.526459 -0.262626 -0.190560 0.462600 0.133110 0.214865 0.157772 -0.195898 0.195907 -0.056482 -0.068311 0.007570 0.191323 0.046113 -0.018269 -0.323384 -0.013208 0.039107 0.089162 0.025038 -0.034679 0.028986 0.195183 0.214150 0.150499 0.181896 0.420982 0.166846 0.097071 -0.035318 -0.023275 0.344952 -0.070295 0.232625 -0.170652 0.100416 0.006689 -0.038637 -0.171003 -0.007943 -0.287995 -0.119404 0.058978 -0.696789 0.283625 0.014550 -0.064088 -0.073470 0.043524 0.066991 -0.126116 0.088866 -0.164775 0.097481 0.037367 0.008610 -0.051318 -0.039660 0.045407 0.019745 -0.005411 -0.014653 0.251366 -0.119469 -0.129358 0.068531 0.233156 0.344526 -0.368643 -0.290655 0.157862 -0.001421 
a1336 0.007527 -0.132509 0.089746 0.053506 -0.451487 0.042069 0.144405 -0.059152 -0.074388 -0.215205 -0.578365 -0.074002 -0.000611 -0.362593 0.379812 0.200701 -0.165938 -0.219089 -0.239521 0.123611 0.277694 -0.198154 -0.141995 0.169777 -0.232715 -0.315787 0.016798 0.186128 -0.284640 -0.094134 -0.235823 -0.209684 0.174656 -0.167360 -0.038575 -0.274527 0.002861 0.151877 0.346642 -0.100686 -0.347522 -0.222965 -0.084063 0.114949 0.142964 -0.274393 0.040084 0.120426 0.154852 0.051280 0.262098 -0.554896 -0.351086 0.086617 -0.192451 -0.221634 0.396965 0.387264 -0.295935 0.210049 0.039391 -0.255796 -0.265082 0.101382 0.425388 -0.078229 -0.189190 0.269715 0.011826 -0.272037 -0.060879 0.064200 -0.315911 -0.087226 0.150692 0.358589 0.134730 0.029969 -0.048154 -0.143214 0.092430 0.035621 -0.206449 0.041094 0.332987 0.123486 0.021835 0.156737 0.266628 0.214869 0.056627 0.119777 0.325166 0.308799 0.014530 0.066811 0.084967 -0.106423 -0.174886 -0.241330 -0.156796 -0.254513 -0.062636 0.095741 0.123622 0.093355 0.357486 0.004329 -0.060844 -0.200238 0.182659 0.084132 0.229345 -0.259784 -0.114069 0.077460 -0.088553 0.464599 0.389843 -0.245198 -0.083122 0.174840 -0.202947 0.136840 0.000618 -0.184122 0.246783 -0.023042 
a5987 0.407280 -0.969289 0.377424 -0.338438 -0.448397 0.070346 0.258856 0.159618 -0.313258 0.041729 0.562566 0.045317 0.434947 -0.551008 -0.157845 0.019818 0.005896 -0.053554 1.022027 0.305588 0.418145 -0.084595 -0.227565 0.607788 -0.075042 -0.607730 0.245601 0.161569 0.206051 0.411124 0.188966 -0.190867 -0.174068 -0.213353 -0.259708 -0.359075 0.144918 -0.028203 0.818718 -0.035317 0.224859 -0.451118 0.028160 -0.453297 -0.035689 -0.048148 0.413509 0.101348 0.410653 0.248166 -0.797348 -0.209391 -0.473259 0.185618 -0.652824 -0.176847 -0.413403 0.558853 -0.171681 0.145703 0.228201 -0.592519 -0.642109 0.294626 0.815430 -0.536809 0.186815 0.904702 -0.257791 0.477459 0.002076 0.553366 -0.315363 0.204387 0.551401 -0.587183 0.035015 0.312613 0.168156 0.242143 -0.054291 0.118920 1.553165 0.006141 0.366456 0.235460 -0.611597 0.594630 0.190670 -0.058852 -0.193059 0.384517 0.138843 0.095226 0.257572 0.683621 0.157824 -0.111246 -0.004560 -0.408863 0.462746 0.729044 -0.096876 0.318624 0.981885 -0.025216 -0.128607 0.594133 0.272612 -0.552187 0.165607 -0.330089 -0.192593 -0.875887 -0.582650 -0.411293 -0.086475 0.802379 0.169354 0.075683 -0.358278 -0.102940 -0.134739 -0.117560 0.036481 -0.457643 0.471351 0.292910 
a1213 0.396704 -0.329513 0.406697 0.180915 -0.623906 -0.361805 -0.083450 0.944188 0.115020 -0.490513 0.431012 -0.215145 0.261331 -0.773385 0.057769 0.504251 0.149972 0.224696 0.166301 -0.207786 0.275180 -0.178326 -0.172857 0.137696 -0.171959 -0.400222 -0.058277 0.269312 -0.273247 0.745024 0.012896 0.122332 -0.041638 -0.089314 -0.394090 -0.280236 0.225358 -0.100399 0.229240 0.300656 0.046652 -0.003105 0.365197 -0.303475 0.391194 -0.437478 0.460243 0.288605 0.124641 0.404753 0.255668 -0.960822 -0.378533 0.369557 -0.435698 -0.171234 -0.213529 -0.688144 0.243338 -0.181870 -0.412700 -0.441229 -0.727014 0.498262 0.268977 0.151798 -0.026971 1.132542 0.559275 -0.243892 0.006292 0.034072 -0.320072 0.243965 -0.221326 -0.339695 0.770611 0.245919 0.086830 0.270448 -0.006327 0.490054 0.589037 -0.221343 0.770161 -0.742457 -0.049907 -0.305882 -0.369188 -0.090625 0.114410 0.571617 -0.193625 0.415869 0.484175 0.055725 0.462392 0.067496 -0.674268 -0.448530 0.354756 0.613572 -0.340916 0.248777 0.482347 0.900587 0.311216 -0.408715 0.070299 0.028238 0.157355 -0.181376 0.006521 -0.345033 -0.572428 -0.079544 0.451172 -0.022998 0.228012 -0.113518 0.718546 0.012253 -0.022921 -0.119413 0.546252 -0.289640 1.491805 0.033771 
a6871 0.001516 0.040213 0.312613 0.167276 -0.523699 -0.837967 0.254394 0.276921 -0.170078 0.019755 0.169184 -0.455551 0.661388 -0.118917 -0.081618 0.127106 -0.577411 -0.577746 0.011601 -0.530621 0.479856 0.472890 0.317766 0.146580 -0.415533 -0.017666 0.599305 0.542970 -0.067561 -0.088817 0.014041 0.315686 0.251672 -0.090577 0.312473 -0.130885 -0.614611 -0.217898 0.097717 -0.215554 0.243998 0.438706 0.167985 -0.710616 -0.632125 -1.513220 0.648370 -0.254987 0.246629 -0.022030 -0.163800 -0.322267 0.044765 0.110107 -0.628369 0.068792 -0.384870 -0.489433 0.298694 0.833335 -0.277497 -0.494219 -0.972496 0.740147 0.026911 0.036445 0.278505 1.623308 0.434026 0.517622 -0.275651 0.164725 -1.003602 0.279642 0.344925 -0.523430 0.612079 0.412942 0.075753 -0.250734 0.521729 -0.289166 1.993574 0.123577 0.560618 -0.609313 -0.239381 0.034732 0.120729 -0.265894 -0.074604 0.266096 -0.237046 0.415385 -0.193697 0.394425 -0.172279 -0.039684 -0.755844 -0.485889 0.745981 0.618630 0.526911 1.192014 0.316218 0.728911 0.226049 -0.103216 0.327576 0.366798 0.150662 0.022632 0.598992 -1.047287 -0.591478 -0.392869 0.619064 0.708066 0.335117 -0.533266 0.192852 0.263548 -0.141580 0.367227 0.591689 -0.574640 0.670863 -0.803003 
a3709 0.668441 0.361470 -0.152269 0.710641 -0.631887 0.052072 0.020672 0.010773 0.651811 -0.188129 0.148663 0.477687 0.581466 -0.395601 0.548275 0.041923 0.186914 -0.647239 0.256833 -0.094040 0.331465 0.338013 -0.085843 0.030723 0.027115 0.020549 0.280572 0.106952 -0.279293 0.068403 -0.294326 -0.325932 0.304817 -0.044343 -0.600732 -0.188930 0.155766 0.160994 0.035896 -0.823753 0.351628 -0.025705 -0.657685 -0.922819 0.031375 -0.170068 0.094035 -0.282979 -0.030862 0.506970 -0.319997 0.102288 -0.372812 -0.029128 -0.567961 0.231588 -0.301110 0.296244 -0.215178 0.034291 0.487409 -0.348663 -0.986342 0.436704 0.269604 0.162454 0.141732 0.998309 0.350735 0.093509 0.187670 0.041660 -0.716447 0.167156 -0.293966 -0.304868 0.371981 -0.514030 0.155788 -0.463443 -0.078702 -0.254518 2.252517 -0.067247 0.463838 -0.522777 -0.211151 0.151788 0.022023 0.409758 0.272438 0.563110 -0.220401 0.590002 0.025915 0.126042 -0.209918 0.019731 0.096726 -0.559107 -0.011489 0.573823 0.374347 0.312422 0.163440 0.054067 -0.480653 -0.190294 0.480143 -0.398162 0.302454 -0.130483 0.551179 -1.278748 -1.651492 -0.161527 0.991397 0.500452 0.420224 0.148683 -0.263163 -0.284074 0.056217 0.240473 0.078870 -0.420168 0.500444 0.107722 
a2619 0.106318 -0.017347 0.159332 -0.226362 -0.117683 0.011064 -0.304083 -0.192419 0.048699 -0.285988 0.241983 0.068461 0.187576 -0.126625 -0.099372 0.090752 0.069537 0.221833 -0.184438 0.086564 0.177011 -0.182635 0.128174 0.439759 -0.409726 0.125066 -0.208994 -0.134661 0.078249 0.068201 0.087905 0.100677 0.075554 -0.157216 -0.433731 0.195683 -0.045797 0.149764 0.087727 -0.380083 0.101264 -0.364272 0.072529 -0.004669 -0.054806 -0.105391 -0.155665 0.252650 -0.021594 -0.011898 -0.065167 -0.076472 -0.152557 0.101728 0.069436 0.323454 0.074069 0.056523 -0.028706 0.049619 0.091006 0.078142 -0.259630 -0.045234 0.141354 0.001502 0.074885 0.256047 0.110318 0.074397 0.117881 0.233474 -0.147870 -0.339128 -0.025041 0.095855 -0.228047 0.084739 0.131951 0.238142 0.021380 -0.058939 0.049854 0.120167 0.217224 0.192638 -0.152487 0.036987 0.174904 0.049102 -0.206094 -0.038668 -0.008158 0.437171 -0.120390 -0.125692 0.073298 -0.149644 -0.521048 -0.501594 -0.163925 -0.100304 0.012569 0.241183 0.054372 -0.060893 -0.168643 0.068436 0.034532 -0.099685 0.270936 -0.046539 0.210354 -0.083133 0.202988 0.090383 -0.203731 -0.155011 -0.096888 -0.031417 -0.060304 0.014431 0.073426 0.208145 -0.296256 -0.270429 0.395295 -0.563500 
a1698 0.142934 -0.218459 -0.406577 -0.125760 -0.223002 0.196397 -0.261838 0.004329 0.323196 -0.008886 -0.258622 -0.104512 0.364677 0.173478 -0.018558 0.151951 0.087180 0.129914 0.065194 0.088445 0.261223 -0.379096 0.093206 0.247908 -0.073103 0.062111 -0.061048 0.024623 0.122479 0.543704 -0.154833 0.001094 -0.466103 -0.148836 -0.117601 -0.067407 0.180453 -0.021717 0.166037 0.333025 -0.207173 0.123520 0.212045 -0.423249 -0.031046 -0.054499 -0.055684 0.188715 -0.172982 0.412287 0.276144 0.273458 -0.018465 0.332745 -0.297142 0.033135 -0.020327 -0.325910 -0.329219 -0.240573 0.306944 -0.026888 0.054366 0.019024 -0.079745 0.057399 0.753844 0.487281 0.760269 -0.029162 -0.122972 -0.182394 -0.436869 0.088027 0.040314 -0.087409 -0.010560 0.037585 0.444092 0.052818 -0.032804 -0.091156 0.379998 0.319267 0.494295 0.031086 -0.003314 0.325642 -0.275673 -0.054665 0.349880 0.291468 -0.429538 -0.178803 -0.504769 -0.132461 0.537980 -0.641876 -0.199573 -0.409900 0.528048 0.349651 0.128173 0.286916 0.181226 -0.209540 0.054339 -0.021368 0.258405 -0.045925 0.070587 0.163450 0.442125 -0.264230 -0.192797 -0.165481 0.454413 0.496371 0.359156 -0.060706 -0.293454 0.237894 0.694393 0.151137 -0.471674 0.066803 0.376025 -0.464928 
a6563 0.492996 -0.480410 0.174168 -0.155065 -0.454271 0.039857 -0.093853 -0.040795 0.291540 -0.101531 -0.086590 0.104521 0.545087 -0.257539 0.709787 0.060202 -0.104634 -0.208117 0.005640 0.493038 0.363109 0.316577 0.562464 0.183243 0.127297 0.004241 0.152537 -0.358703 -0.203997 0.249949 0.197741 0.019090 -0.145959 0.325153 -0.019074 -0.633282 -0.291906 -0.359022 0.142680 -0.319452 0.187750 0.253026 0.136519 -0.121549 -0.178851 -0.322095 0.151618 -0.155914 0.096702 -0.263498 -0.205359 -0.350280 -0.189496 0.625388 -0.611392 -0.384316 0.200708 0.643105 0.519333 0.024665 0.613067 -0.830693 -0.105867 0.238341 0.504239 -0.140952 -0.106932 1.292022 0.126317 -0.407548 -0.044503 -0.371685 -0.019007 -0.036612 0.053305 -0.282609 0.355490 -0.103916 0.308499 -0.047077 0.078219 -0.247570 0.457055 -0.177447 -0.085077 -0.403640 -0.106197 -0.027461 0.395775 0.234572 0.032997 0.003880 0.167019 0.209451 0.312794 -0.144622 -0.228140 0.069159 -0.268970 -0.509782 -0.069158 0.206811 -0.038902 0.269183 0.663050 -0.029705 0.251650 -0.359700 -0.476962 0.442043 -0.202364 -0.037256 0.528625 -0.379948 -0.893927 0.144265 -0.107611 0.227417 0.434618 0.393404 0.177827 -0.155588 0.423969 0.413326 0.504875 -0.163542 0.643435 -0.343297 
a1248 -0.208728 -0.139658 -0.097019 -0.005769 -0.275782 0.071487 -0.112099 -0.275958 0.077799 -0.046991 0.131604 -0.030514 0.120390 -0.163092 0.183585 -0.103878 0.181415 0.106558 -0.156068 0.003710 0.351206 -0.231673 0.344455 0.249314 -0.255697 -0.042281 0.070529 -0.286230 0.006802 0.275101 -0.145136 0.234268 -0.099370 0.090673 -0.270716 -0.085924 0.186484 0.303919 -0.179350 -0.114715 0.077622 -0.068604 -0.135244 0.052692 0.306829 -0.401615 -0.424141 0.047419 0.052154 0.046880 0.037488 -0.326688 -0.150945 -0.002255 0.369722 0.368754 -0.015907 0.278998 -0.048040 0.118470 -0.090284 -0.059177 -0.340388 0.137181 0.238859 -0.062839 0.094388 0.198539 0.355580 0.235396 0.192680 -0.001056 -0.358429 -0.310957 -0.035516 0.141015 -0.049934 0.105204 -0.128413 -0.133209 0.065747 -0.010617 -0.106571 0.343682 0.129292 0.117117 0.028172 0.207761 0.135628 0.252881 -0.320509 -0.046221 -0.002607 0.277236 -0.176317 -0.247855 -0.028149 -0.260784 0.152070 -0.120462 0.110675 0.086087 -0.043074 0.370838 0.230566 -0.033188 -0.202191 0.109512 -0.269878 0.156181 0.574823 0.308526 0.149876 -0.158571 0.173201 0.523805 0.128011 -0.117714 0.097531 -0.014846 -0.192677 -0.020195 -0.227226 -0.099069 -0.127643 -0.208471 0.198537 -0.031801 
a9913 0.506901 -0.443364 0.118655 0.085042 0.198018 0.092584 0.341745 -0.085573 -0.039526 -0.326065 -0.394288 -0.441585 0.308112 -0.137308 0.096121 0.608388 -0.481232 0.167571 0.084768 0.335346 -0.071796 0.175659 0.083957 0.445071 -0.324198 0.061013 0.711630 -0.148376 -0.279683 -0.188746 0.207236 0.144977 0.395591 0.462666 0.020158 0.127033 0.323588 -0.293906 -0.041625 -0.261438 0.004089 -0.228943 -0.066853 0.130654 -0.381929 -0.125393 0.504831 -0.167286 -0.219836 0.018903 -0.532610 0.371083 0.009948 -0.104275 -0.374745 0.110616 0.043092 0.043821 -0.525352 0.271445 0.152142 -0.429832 -0.276305 -0.008877 0.327402 0.287043 0.097628 0.415412 0.615389 0.067167 -0.080503 -0.017222 -0.494320 -0.626486 -0.069732 -0.880076 0.097786 0.111396 0.237375 -0.288943 -0.194277 -0.070037 0.561988 0.005932 0.658768 0.616613 -0.061040 0.680322 0.409375 0.163627 0.176516 0.129153 -0.367944 0.097188 0.350761 0.064870 -0.134390 0.067452 -0.282604 -0.221359 0.063020 0.701297 0.286384 0.527302 0.316444 0.488901 -0.059190 0.029887 0.026093 -0.378754 -0.034971 -0.368427 0.217684 -0.439795 -0.775322 -0.253243 0.600217 -0.111220 0.332718 -0.552970 0.299709 -0.018585 0.202652 0.061902 0.493552 -0.331609 0.456253 0.277249 
a3549 0.602863 -0.734538 0.507018 0.230790 -1.161765 0.573178 0.077487 -0.154780 -0.436384 -0.528569 -0.599824 -0.085155 1.123007 -0.676331 0.136240 0.168514 0.154493 0.361262 0.284082 -0.004523 -0.118229 0.039087 0.152773 0.297939 -0.479955 -0.256201 0.837054 -0.144395 -0.509588 0.146619 -0.444914 -0.439442 0.340772 0.198510 -0.170059 -0.852560 0.249848 -0.123075 0.595313 0.273999 -0.306579 -0.197300 0.020085 -0.797707 0.660092 -0.703519 0.126572 0.191135 -0.348577 -0.165246 -0.999079 -0.051119 0.249904 0.281244 -1.174343 -0.376398 -0.277666 -0.507511 -0.209715 0.018279 0.077432 -0.101751 -0.592276 0.421369 0.083475 -0.055278 -0.087200 1.095974 0.485938 0.831424 -0.022224 0.289916 -0.470535 0.388693 -0.209408 -0.589111 0.612112 0.129350 -0.059435 -0.093388 0.520215 0.089573 1.537591 0.604852 1.272436 -0.156068 -0.554326 -0.022349 -0.147185 0.093881 0.094422 -0.044225 -0.219524 0.605308 0.255941 0.184387 -0.450556 0.197736 -0.430544 0.143195 0.566307 0.703957 0.012791 0.475555 0.525865 0.250091 0.024896 0.202115 0.239710 -0.201364 0.451721 -0.455089 0.014064 -0.981823 -1.160647 0.455779 1.000553 0.211879 0.119582 -0.162024 0.164763 0.459430 0.157586 -0.066898 0.656453 -0.496548 0.477121 -0.787619 
a9926 -0.075461 -0.450475 -0.056879 0.339250 -0.356665 0.151651 0.224994 -0.276157 0.014931 0.035579 0.118239 0.562252 0.176179 -0.225084 0.373527 0.750578 -0.222500 0.049929 -0.226863 -0.109315 -0.346704 0.328622 0.407104 0.511149 -0.023524 -0.264412 0.173541 -0.481535 0.151494 0.597961 -0.437382 -0.063945 -0.370277 -0.049430 -0.799357 -0.191620 0.049854 -0.959168 0.609442 -0.013055 -0.251801 -0.401820 -0.324190 -0.285387 0.083010 -0.695312 0.738630 -0.513781 0.416335 0.371697 0.304940 0.088420 -0.032647 0.235902 -0.531615 -0.379348 -0.420196 -0.402144 0.310165 -0.209981 0.128114 -0.554484 -1.090838 0.574903 -0.031320 0.075131 -0.216341 0.754310 0.269946 0.021466 -0.601479 -0.149211 -0.529049 0.084305 0.567754 -0.276146 0.190846 -0.120317 -0.094090 0.487445 -0.493621 0.436666 0.781423 0.252919 0.797360 0.043672 -0.111029 0.834070 -0.310741 0.215597 -0.033370 0.117876 0.065635 0.119296 0.313012 0.450198 0.502691 0.704231 -0.444494 -0.270576 0.889238 1.323378 0.152816 -0.209912 0.087408 0.235800 0.718653 0.242072 0.124164 0.037506 0.156974 -0.679533 0.708236 -1.234157 -0.701805 0.107829 0.506336 0.351002 0.239207 0.350976 -0.255607 0.334052 -0.301182 0.552924 -0.077693 0.019812 0.144271 -0.258713 
a1917 -0.103993 0.027817 0.988380 0.647502 -0.189968 0.296357 0.326232 0.150834 -0.431597 -0.259169 0.041636 0.094040 0.685218 -0.038567 0.073693 -0.016471 -0.051199 0.439617 0.055061 -0.164931 -0.358675 -0.116013 -0.106159 0.466611 -0.445666 -0.040943 0.105907 0.091862 -0.031343 0.262330 -0.253615 0.033815 0.029805 0.244426 -0.085204 -0.012149 -0.084588 0.190467 0.779774 -0.127128 -0.622225 -0.173465 0.232147 0.263362 0.023707 -0.606083 1.134298 -0.182050 0.530878 0.322139 -0.291361 -0.447590 -0.607904 0.241376 -0.452078 0.255869 -0.235609 0.610615 -0.403635 0.131625 0.138480 -0.386952 -1.172473 0.409278 0.143820 -0.219513 0.118083 1.240453 0.353844 0.230295 0.208497 0.482712 -1.216792 0.255806 0.231426 -0.065365 0.396012 -0.071744 0.134570 0.168127 0.563172 0.527792 -0.084080 0.118447 0.761997 -0.312953 -0.419875 -0.218898 0.128399 -0.020151 0.091411 0.243056 0.163513 -0.178376 0.297364 0.069007 0.175120 0.121364 -0.330997 -0.504223 0.178093 0.477005 0.112388 0.593348 0.005974 0.721810 0.074714 -0.393125 -0.170420 0.387435 -0.316711 0.266797 0.639916 -0.680563 -1.330683 0.370383 0.244108 0.671536 0.544468 0.197275 -0.313183 -0.287658 -0.303775 0.584129 0.319041 -0.109152 0.200808 -0.152462 
a10165 0.106353 -0.179047 -0.291755 -0.125466 -0.347445 0.202206 -0.212744 0.101040 0.152911 0.015620 -0.314726 -0.152901 0.445472 0.153891 -0.049248 0.049831 0.189680 -0.060118 0.007375 0.118145 0.289759 -0.367021 -0.165913 0.220970 -0.220333 0.142999 0.045765 -0.110682 0.105431 0.565929 -0.042011 -0.104631 -0.611940 0.080290 -0.111971 -0.157670 0.270821 -0.054860 0.165897 0.282624 -0.321870 0.148182 0.240042 -0.388203 0.007533 0.012790 0.063799 0.236660 -0.111305 0.453809 0.396468 0.356958 0.045448 0.351234 -0.364164 0.056241 -0.234452 -0.295676 -0.205457 -0.323938 0.172629 -0.109193 0.103605 0.015630 0.116645 0.132956 0.631595 0.468150 0.927739 0.130625 -0.149947 -0.268854 -0.476022 0.217389 0.009908 -0.188454 0.005321 -0.082594 0.493120 0.126286 -0.008912 0.198231 0.485860 0.240543 0.464234 0.001628 -0.109235 0.290270 -0.331310 0.018022 0.294464 0.489457 -0.313145 -0.092374 -0.505006 -0.125897 0.531334 -0.584774 -0.245850 -0.468452 0.406403 0.461663 0.383911 0.209256 0.374556 -0.030384 -0.020422 -0.044422 0.494898 -0.035500 0.357284 0.090985 0.578035 -0.370452 -0.324143 -0.135021 0.533229 0.604826 0.451149 -0.037436 -0.182155 0.095552 0.803532 0.045145 -0.303411 -0.012501 0.664153 -0.564414 
a9593 -0.211755 -0.237641 -0.517865 0.012462 -0.316459 0.286452 -0.067188 -0.297910 0.253584 -0.136882 0.811560 -0.614555 -0.137661 -0.107198 0.075247 -0.379126 -0.303629 0.162732 -0.203964 0.107550 0.031575 0.171142 0.116095 0.508970 -0.273122 0.000818 -0.196890 0.106943 0.029668 0.311057 0.060363 0.108923 -0.066816 -0.365710 0.010209 0.120230 -0.464835 -0.232319 0.340478 0.411174 -0.190421 0.219478 -0.414344 0.151768 0.030584 -0.360090 0.117973 -0.061119 -0.166229 -0.283929 0.142841 0.027295 -0.800048 -0.110344 0.169604 -0.117321 0.061287 0.148910 0.415020 0.284589 -0.179608 0.038017 -0.573255 -0.183361 0.275489 -0.139857 0.241779 -0.263401 -0.027181 0.313680 0.273302 -0.151125 -0.427681 -0.455117 -0.000998 -0.269206 0.139282 -0.117306 0.013694 0.106563 0.332799 0.061941 0.539657 0.277843 0.406681 -0.599896 0.284708 0.626710 -0.305605 -0.625649 0.144676 0.044151 0.139306 0.026164 0.354469 -0.363454 -0.127427 -0.219081 -0.209546 -0.353695 -0.223190 0.679368 0.309885 0.626912 0.068051 -0.186465 -0.430377 0.147513 -0.360503 -0.372378 0.427926 0.578594 0.654647 0.131207 -0.166104 0.601999 0.014268 -0.054361 0.330267 -0.502410 -0.147465 -0.332262 0.514231 0.151056 -0.112225 -0.754028 0.106539 -0.165205 
a7654 -0.035995 -0.165341 0.774879 0.608385 -0.264173 0.345701 0.133473 0.287286 0.297979 0.000781 -0.502149 0.273855 -0.096278 -0.935939 -0.058758 0.529185 -0.262020 0.197943 -0.077133 0.168736 0.116382 -0.021145 0.083785 0.287524 -0.246830 -0.205192 -0.292303 0.036247 0.187830 -0.310883 -0.211002 -0.104228 0.208016 -0.239132 -0.154843 -0.220261 0.222444 0.297493 0.415031 0.188677 -0.195819 -0.060575 -0.331295 -0.073415 0.296476 -0.145937 0.467817 0.366945 0.244598 0.259922 -0.140798 -0.247357 -0.624484 0.331655 -0.173347 -0.127539 0.492545 -0.079094 0.173349 0.130502 -0.115284 0.371652 -0.424672 0.483464 0.666809 -0.164303 0.261276 0.917091 -0.130438 0.084993 -0.066245 -0.183711 -0.363529 -0.320906 0.007294 0.179001 0.277882 0.262112 0.100098 0.154694 -0.141930 0.269692 0.213731 0.049861 0.428727 -0.426877 -0.084214 -0.139355 -0.690236 0.306743 -0.030260 0.013231 0.100560 0.320373 -0.120735 0.481177 -0.440558 -0.209540 0.050795 -0.217282 -0.283714 0.413649 0.058503 0.470100 -0.046928 -0.126238 0.173631 -0.295688 -0.435883 -0.024483 -0.332687 0.087549 0.377909 -0.744219 -0.228192 0.200900 0.365671 0.636300 0.284699 -0.526228 0.139099 0.168701 0.087323 -0.200134 0.117146 -0.064058 0.664457 0.176349 
a635 0.011186 -0.431743 -0.163324 -0.215420 0.075129 0.380640 0.134159 -0.503943 -0.002061 -0.209700 0.144993 0.241594 0.118492 -0.409020 0.023862 -0.265945 -0.299163 0.027694 -0.041400 -0.187865 0.134485 0.009616 0.253615 0.224484 -0.322188 -0.191357 -0.380793 -0.087443 -0.485790 -0.146579 -0.627831 0.299849 0.222455 0.432376 -0.592488 -0.407518 0.405758 -0.110902 0.564413 0.061597 -0.539556 0.161815 0.026633 0.108891 -0.042251 -0.349124 -0.017280 0.442258 -0.251215 -0.030160 -0.281329 0.087409 -0.355084 0.271751 0.198487 0.254584 0.145574 -0.024804 -0.155140 0.092931 -0.450697 0.434384 -0.360383 0.329141 0.173636 0.237715 0.201630 0.461868 0.539456 -0.274694 -0.114317 -0.072699 -0.127095 -0.185541 0.034869 -0.301670 0.354949 0.145611 -0.218906 -0.067104 -0.007283 -0.115728 0.062376 0.067471 0.046227 -0.223719 0.062712 -0.114815 0.248855 0.142817 -0.233846 -0.549619 -0.235783 -0.136856 -0.189233 0.295418 0.105167 -0.552858 -0.011554 0.080714 0.559551 0.206012 0.575086 0.574658 -0.079091 -0.148345 -0.029056 0.228889 0.059731 -0.047402 0.295301 0.305382 0.621516 -0.623264 -0.003957 0.120359 -0.097436 0.361984 -0.056700 0.444371 -0.651163 -0.091622 -0.183610 -0.175773 -0.095686 0.004199 0.549385 0.327892 
a7160 -0.260668 -0.377870 -0.155410 0.071744 -0.264140 -0.038428 -0.090371 -0.259869 -0.235219 -0.067838 0.399833 0.168713 0.506610 -0.369273 -0.055384 0.230179 0.395705 0.074640 -0.183896 -0.135138 0.347564 -0.039105 0.168811 0.461637 -0.397652 0.396927 -0.051853 -0.145046 0.086761 0.427423 0.006288 0.236882 0.109434 -0.113879 -0.308428 0.276403 -0.007951 0.046343 -0.021634 -0.040481 -0.181644 -0.097093 -0.250801 0.034558 -0.088709 -0.057912 0.225553 0.056368 -0.063872 0.214065 -0.073792 0.201582 -0.372619 -0.292107 -0.107568 -0.049042 0.376693 -0.069598 0.075523 0.245942 -0.167029 0.127426 -0.417635 0.327089 -0.090855 -0.226217 0.036458 0.171343 0.157717 0.073066 -0.178345 -0.038756 -0.217122 -0.366069 -0.188388 -0.085173 0.465914 -0.125057 -0.273032 -0.398174 0.272202 0.068600 0.259497 0.272893 -0.166893 0.298874 0.136770 0.423549 -0.108802 0.156479 -0.191485 -0.215686 -0.056883 0.062640 0.214142 0.140457 0.400209 -0.405305 -0.355679 -0.252348 0.250099 0.220762 0.197503 0.432014 -0.038139 -0.319769 -0.302842 0.177959 -0.307112 0.029132 0.296122 0.357079 0.504751 0.030502 -0.145472 0.185816 0.155187 -0.075069 0.230149 -0.220621 0.073534 -0.285548 0.071123 0.148273 0.111907 -0.103509 0.182676 0.029455 
a1958 -0.016033 -0.109801 0.221962 0.221834 0.042558 0.395658 -0.128239 0.100580 0.194156 -0.415705 0.174818 -0.387081 0.130354 -0.109694 -0.125736 0.097464 -0.152428 -0.129395 0.017768 -0.089724 -0.021191 -0.379751 0.404088 0.310516 -0.094393 0.278781 -0.077009 -0.313252 0.023476 0.308721 0.401216 -0.321170 -0.014356 0.170027 0.176974 -0.239595 0.009976 0.127552 0.223175 -0.373397 -0.099691 0.177496 0.023228 -0.104245 -0.305997 -0.001368 -0.096252 0.118127 0.001590 0.177079 -0.120461 0.007440 0.102437 -0.068325 -0.036967 -0.027173 0.278400 0.169100 -0.326667 -0.010591 0.080432 -0.159507 -0.102756 -0.183578 -0.070383 0.206188 0.314084 0.168670 0.212517 0.250315 0.372869 -0.216618 -0.166792 -0.388959 -0.056432 -0.028809 0.057152 -0.001187 -0.157548 0.084859 0.004279 -0.060013 0.217686 0.118737 0.052800 0.110801 0.131177 0.303879 0.051379 0.206983 -0.209732 0.095946 -0.156325 0.110065 0.014471 -0.039786 0.322727 -0.152794 -0.217817 -0.509257 0.259690 0.111687 0.053767 0.261458 0.293824 0.032075 -0.117939 0.208702 -0.143585 0.009749 0.125780 0.250910 0.350795 -0.050584 0.142610 0.084569 -0.207921 -0.138812 0.029614 -0.015706 -0.003214 -0.001155 -0.061847 0.199160 -0.241788 0.056634 0.362424 -0.283156 
a966 0.052963 0.011670 -0.155618 -0.410508 0.144811 0.003589 -0.101627 -0.020795 0.043347 -0.168019 0.091277 0.013629 0.056448 -0.013259 -0.192961 0.074331 0.127724 0.363931 -0.407031 0.061009 0.043302 -0.099913 0.259848 0.447669 -0.452177 0.202112 -0.082947 -0.111213 0.229713 0.022544 0.397137 0.151782 0.107820 0.084065 -0.265074 -0.106975 0.162251 0.062733 0.186184 -0.198996 -0.001835 -0.058472 0.022074 -0.247793 0.113390 -0.156119 -0.233483 0.003316 0.069235 0.058795 -0.074031 0.047402 -0.373580 0.077492 -0.053544 -0.042692 -0.072912 0.167243 -0.120299 0.127897 0.133012 0.019184 -0.184325 -0.041761 0.046432 0.011369 0.075634 0.107873 0.080235 0.212925 0.390037 -0.102984 -0.023844 -0.210611 -0.036815 0.123673 -0.076228 -0.124420 0.113397 0.263607 -0.017735 0.032368 0.172981 0.048422 -0.091494 0.099734 -0.221264 0.159324 0.113852 0.180554 -0.319526 -0.102395 -0.083262 0.231214 -0.094218 0.037981 0.149531 -0.030975 -0.252003 -0.356915 0.129270 0.050418 -0.075689 0.104095 -0.022489 0.206746 -0.009974 -0.046230 -0.077575 -0.016392 0.294260 0.461901 0.226223 -0.364296 -0.057427 -0.251130 -0.045730 -0.193124 0.014370 -0.345691 0.213235 0.162581 0.041709 0.043957 -0.396244 -0.386365 0.422097 -0.319590 
a906 -0.098930 -0.274014 -0.047660 -0.018450 0.078152 -0.005147 -0.114918 0.166819 0.319064 -0.342232 -0.190867 -0.257386 -0.119621 0.015054 0.336486 0.264919 0.074077 0.160608 -0.135452 0.045267 0.245688 -0.350815 0.035104 0.378382 -0.281961 -0.038149 0.140701 -0.177587 -0.463803 0.316042 0.485490 -0.037899 0.267645 0.267685 -0.115597 -0.137092 -0.175107 -0.035175 0.022967 -0.191939 -0.048858 0.153573 0.012316 -0.165444 -0.198033 -0.145041 0.064531 0.124586 -0.113024 0.093059 0.098032 0.295490 0.150685 -0.032219 0.160054 0.039070 0.069473 0.051189 -0.471378 0.213206 -0.054967 0.159801 -0.055672 0.075176 0.230877 -0.019760 0.477917 0.149412 0.095270 0.254473 0.225522 -0.106258 -0.085652 -0.357482 -0.268195 -0.018080 0.211842 0.233064 -0.502120 0.326549 -0.297958 0.185874 0.167716 0.083318 -0.062896 0.141489 0.077460 0.080433 -0.056936 0.025331 0.004578 0.185473 -0.172123 0.270639 -0.034987 -0.038534 -0.043817 -0.393188 -0.249351 -0.425598 0.178136 0.030939 0.177487 0.145170 0.219235 0.137121 -0.130618 -0.039575 0.115703 0.084174 0.184455 -0.201530 0.011256 -0.202267 -0.297218 0.014416 -0.085623 -0.300831 0.126578 0.043445 -0.120637 0.092539 0.119138 0.173505 -0.450586 0.026514 0.190188 -0.093261 
a1173 0.608070 -0.046046 0.420986 0.129009 0.117260 -0.445906 -0.043770 0.584687 -0.113262 -0.200753 0.180160 -0.112963 0.059685 -0.457997 -0.121993 0.137813 0.052188 -0.045798 0.076535 -0.280642 0.876458 -0.266520 0.130741 0.490029 -0.543615 -0.399871 -0.037565 0.580229 -0.330869 0.197642 0.770991 -0.043239 -0.333190 0.064342 -0.342604 -0.230438 0.178855 -0.256500 0.402238 0.429264 -0.089787 0.039777 0.040839 -0.308879 0.555580 -0.247628 -0.208542 0.024615 0.083043 0.115432 -0.347497 -0.731022 -0.190163 0.591316 -0.124805 0.002542 -0.047909 -0.737981 -0.319601 -0.333365 -0.689848 -0.837450 -0.723180 0.768255 0.083869 0.618943 0.217325 1.160844 0.617808 0.144407 0.163486 0.042516 -0.079589 0.295081 -0.131884 -0.136444 1.030714 -0.176470 -0.281913 0.337912 -0.158307 0.191421 0.429301 -0.157602 0.844959 -0.694606 -0.352114 -0.091665 0.295735 0.008255 -0.312469 0.612042 -0.179472 0.397566 0.162757 0.071568 0.921806 0.201742 -1.140337 -0.540036 -0.084775 0.891201 -0.419870 0.611384 0.547345 0.639676 0.119726 -0.598100 0.211108 0.634332 0.504872 -0.516638 0.218611 -0.602091 -0.336975 0.150801 0.399891 -0.084775 -0.194712 0.668868 0.585488 -0.085724 0.008091 0.060726 0.256217 -0.403919 0.835427 -0.238486 
a7526 -0.072078 0.088430 0.052694 0.055523 -0.211260 0.047132 0.361507 0.218885 0.117497 -0.421484 0.076936 0.306875 0.421839 -0.403887 0.239145 0.064911 -0.327887 -0.274618 -0.148922 -0.156002 0.192485 -0.218354 0.242433 0.362613 -0.445412 -0.519036 -0.096377 0.323287 0.025416 -0.088766 0.227401 -0.243525 -0.065820 0.309069 -0.056607 0.014106 -0.056794 -0.026344 0.274797 -0.073145 -0.394844 -0.148699 0.301958 0.131126 0.140069 -0.251114 -0.630867 0.221846 0.304445 0.307985 0.161377 -0.140359 -0.617581 0.084078 -0.019079 -0.051446 0.244321 0.023146 -0.232599 -0.052584 0.288630 0.007278 -0.557997 -0.211886 -0.008260 0.128410 0.030202 0.548774 0.214597 -0.331103 0.243071 0.264045 -0.056812 0.053409 -0.366425 0.235675 -0.105557 0.019007 -0.329655 0.015729 0.378230 -0.022295 0.497125 -0.045118 0.320885 -0.098073 -0.345960 0.038890 0.016584 -0.262096 -0.346076 0.358199 -0.072349 0.330244 0.424874 -0.051885 0.164441 -0.126033 -0.628839 -0.235273 -0.166650 0.220760 -0.017559 0.256061 -0.128095 -0.188434 0.729385 -0.077285 -0.129495 -0.041249 0.286275 -0.172182 0.018856 -0.843149 -0.098369 0.208503 -0.413077 -0.050626 0.225759 -0.281681 0.032761 0.629367 -0.171001 -0.002659 0.522110 -0.403553 0.405791 -0.233875 
a2366 -0.195780 -0.239158 -0.525213 0.219687 -0.068924 0.066004 0.339091 -0.002188 0.197230 -0.027790 0.219610 0.044951 -0.116487 -0.186965 0.340758 -0.114810 -0.049360 0.152816 -0.032070 -0.099139 0.127944 -0.304877 0.365767 0.590588 -0.073125 0.044080 -0.202951 -0.463635 -0.105741 0.135910 -0.069896 -0.166265 0.065394 0.173007 -0.755035 -0.023195 0.313158 0.232613 -0.139857 -0.037167 -0.115413 -0.471283 -0.185720 -0.175551 -0.164210 -0.239178 0.204065 0.238421 0.328121 -0.068443 0.326510 0.229861 -0.230242 -0.200578 -0.054618 -0.095983 0.109168 -0.267585 -0.471742 -0.077342 0.016700 0.094714 -0.382468 0.099000 0.015095 -0.040550 -0.062767 0.218216 0.113148 0.225698 -0.061833 0.587386 -0.219770 -0.068830 0.038351 -0.063455 -0.216477 -0.295639 0.096949 -0.125713 -0.128224 -0.082847 0.052770 0.134486 0.157806 0.117487 0.061771 0.256368 0.199135 0.114098 -0.210310 -0.186475 -0.260002 0.133600 -0.120029 0.003788 -0.116968 -0.040017 -0.573721 -0.166150 -0.081217 0.085776 -0.208444 0.358073 0.321158 -0.215147 -0.191885 0.089289 0.289538 0.347256 0.372785 0.532317 0.360259 -0.057202 0.140517 -0.318906 0.116188 0.260510 -0.108792 0.085454 -0.103172 -0.379659 0.081529 0.077363 -0.159553 -0.181143 0.565931 0.017929 
a7167 0.340865 0.192256 0.351553 -0.385187 0.078181 -0.292137 -0.247126 -0.084360 0.185701 -0.209904 -0.072254 -0.347525 0.004920 -0.112303 0.088706 -0.024727 0.052177 0.378559 -0.190524 -0.069756 0.117933 -0.249741 0.236479 0.480094 -0.501176 0.082140 0.116804 -0.373267 0.081218 -0.086148 0.084031 -0.165521 -0.004509 -0.169667 -0.219710 -0.059660 0.323159 -0.109117 0.090011 -0.093490 -0.158594 -0.122288 -0.052077 -0.281159 -0.085987 0.005958 -0.021218 -0.014862 -0.048426 0.082533 0.298028 0.004198 -0.106541 0.029697 -0.200626 0.230035 0.099761 0.015288 -0.372736 0.135657 -0.027212 -0.093296 -0.163883 -0.081699 -0.024593 -0.056123 0.026508 -0.030413 0.018535 0.113329 0.194334 -0.215758 -0.122999 -0.243384 -0.189835 -0.123659 0.012983 -0.123897 0.173731 0.304620 0.081442 0.345508 0.253823 0.244196 -0.046516 -0.025529 -0.165420 0.249878 0.054508 -0.055043 -0.115740 0.140780 -0.165870 0.091786 -0.032907 -0.142601 -0.137091 -0.254775 -0.449242 -0.319220 0.131706 -0.149401 -0.063913 0.282366 0.323968 0.266242 -0.239840 0.324254 0.142735 0.091112 0.271206 0.191478 0.165420 -0.224745 -0.070355 -0.149257 0.140142 -0.034928 0.015528 -0.141950 0.041431 -0.080828 0.044655 0.364100 -0.140201 -0.620131 0.328117 -0.195552 
a3356 -0.006174 -0.066845 0.310854 0.020458 -0.033250 0.674257 0.073433 0.003325 0.049345 -0.176781 0.279014 -0.216544 0.574128 -0.059087 0.038489 0.125855 -0.112727 -0.282628 -0.022199 0.036566 -0.089660 -0.408204 0.263769 0.173450 -0.224105 -0.002870 0.127393 -0.240382 -0.158532 0.591773 0.190310 0.006196 0.173928 -0.062500 -0.119520 -0.175302 -0.120669 0.094287 -0.060675 -0.139473 -0.229951 -0.288337 -0.029846 -0.300629 -0.323771 0.155004 -0.153183 -0.081318 -0.029115 -0.012542 0.147620 -0.039774 0.211643 0.014607 -0.140794 -0.226762 0.146480 0.507410 -0.026696 0.386986 0.110098 -0.075580 0.230606 0.142582 0.067676 0.255947 0.072578 0.029884 0.150916 0.176056 0.068029 -0.096365 -0.225229 -0.296596 -0.137949 -0.153457 0.107104 -0.177363 -0.161881 0.092910 0.121563 0.162378 0.343572 0.014291 -0.078860 0.087723 0.139171 0.046534 0.112254 0.046051 -0.448641 0.189530 -0.132086 -0.033071 0.089010 0.346095 0.208355 -0.230257 -0.266375 -0.357379 0.142644 0.187645 0.149651 0.252491 0.025938 -0.035809 0.073870 -0.115695 -0.334187 0.093665 0.067028 0.494157 0.006957 -0.117110 0.031583 0.434887 0.180444 -0.181659 0.239666 -0.113153 -0.157928 0.106741 0.517848 0.299307 -0.532414 0.076096 0.536239 -0.214469 
a4166 0.080728 -0.161774 0.220884 -0.223064 -0.347955 -0.058054 0.429312 -0.285065 0.293089 0.060093 0.198811 0.728908 0.113435 -0.741626 -0.111413 0.526221 -0.288185 0.222392 0.043968 0.102610 -0.450365 0.221312 0.391099 -0.260826 -0.352568 0.361965 0.188996 0.293499 0.260948 0.032795 -0.072996 -0.035986 0.169994 -0.227188 -0.152486 -0.448688 0.035135 -0.344731 -0.234257 -0.110117 0.118235 0.500567 0.046224 -0.410142 -0.198114 -0.534563 -0.025773 -0.282999 0.172411 0.186200 0.136841 0.096100 0.169669 -0.062999 -0.278901 0.494996 0.065696 -0.155669 -0.947085 -0.121010 0.231545 -0.324568 -0.374395 0.122550 0.838905 0.491055 -0.058854 0.974767 0.253402 0.436030 -0.129237 -0.141735 -0.697768 -0.711860 -0.384537 -0.303653 0.394395 -0.067918 -0.112466 0.128606 -0.390450 0.510830 1.273317 0.167207 0.064622 -0.398232 0.259796 0.216048 0.182658 0.249856 0.330030 0.123000 -0.543383 0.110003 0.338051 -0.005015 0.003156 0.089105 -1.030881 -0.894482 0.085343 1.082597 0.365865 0.716584 0.478336 0.804773 0.036297 0.688429 0.208821 -0.425269 0.261806 -0.865870 0.157178 -0.550630 -0.728805 0.197597 0.686091 0.085782 0.319943 -0.331610 0.164448 -0.061178 0.457678 -0.202616 0.557821 -0.102547 0.470586 0.571018 
a1919 -0.197759 0.061661 1.062360 0.583964 -0.214633 0.127060 0.315640 0.138105 -0.397403 -0.196699 -0.058690 0.052528 0.643589 -0.047287 -0.010589 0.089013 -0.097529 0.497273 0.118969 -0.213329 -0.352213 -0.138467 -0.302298 0.432506 -0.555241 -0.116955 0.089439 -0.025893 -0.050143 0.380407 -0.245449 -0.097342 0.058346 0.215286 -0.130588 -0.069723 -0.078647 0.248398 0.743432 -0.107079 -0.573634 -0.227407 0.227598 0.388989 0.060760 -0.605263 0.987459 -0.288691 0.474584 0.314518 -0.242759 -0.389684 -0.599990 0.469923 -0.380951 0.173192 -0.084493 0.594368 -0.410291 0.105419 0.151704 -0.309610 -1.248396 0.338848 0.029875 -0.235472 0.223397 1.321728 0.379013 0.258523 0.194972 0.497253 -1.143895 0.212926 0.270255 -0.119044 0.288315 -0.021522 0.140721 0.061104 0.501845 0.495940 -0.039589 0.133923 0.630358 -0.138974 -0.444415 -0.283299 0.272593 0.048195 0.093466 0.048073 0.142800 -0.028425 0.251085 0.090475 0.229426 0.085753 -0.239545 -0.620367 0.092490 0.493566 0.100345 0.495386 -0.085352 0.569886 0.081495 -0.494036 -0.315325 0.405062 -0.285397 0.292077 0.591445 -0.664658 -1.209795 0.255860 0.286511 0.678620 0.459573 -0.018228 -0.315337 -0.323403 -0.345962 0.591572 0.362519 -0.113654 0.099555 -0.110026 
a9595 -0.072429 -0.344173 -0.278926 0.201765 -0.315170 0.525895 -0.267071 -0.079827 -0.796876 -0.166994 0.470707 -0.320877 0.323831 -0.155152 -0.239083 0.022905 0.073592 -0.058095 0.197843 -0.259056 0.254963 0.017811 -0.464260 0.632041 -0.433457 0.337151 0.002057 0.237618 -0.410306 -0.049199 -0.301951 0.032045 -0.060174 -0.223985 -0.382767 -0.009376 0.183140 -0.248637 0.213617 -0.345085 -0.001455 -0.161262 -0.115491 -0.106718 0.135431 -0.057052 -0.280347 0.015645 0.005797 -0.055193 0.316947 0.220829 -0.723540 0.101778 -0.190953 -0.211850 0.287369 -0.426931 -0.015869 0.531715 -0.396076 -0.220350 -0.335409 0.384228 0.101851 -0.177160 0.106454 -0.505059 0.040510 0.491302 0.044714 -0.132500 -0.262347 -0.019377 -0.121930 -0.349782 -0.186957 -0.373004 -0.239829 0.094773 0.518770 0.096698 0.355184 0.008691 -0.038873 0.038014 0.656213 0.217432 -0.553007 -0.249291 0.323368 0.447289 -0.136564 -0.097142 -0.160455 -0.026157 -0.449765 -0.037475 -0.071320 -0.584873 0.435014 0.363542 -0.451248 0.897539 0.584927 -0.095065 -0.220633 -0.006436 -0.554252 -0.426093 0.172951 -0.325237 0.681135 0.151185 -0.303700 0.238972 0.150914 -0.498552 -0.024943 -0.058831 -0.573099 -0.514037 0.093169 0.097352 0.086785 -0.445459 0.571672 -0.303952 
a2552 0.161112 -0.033210 -0.275818 0.381488 -0.721759 -0.102785 -0.045946 -0.369660 0.033712 0.059201 -0.136465 -0.381450 -0.183402 -0.413098 0.466765 -0.102223 0.180977 -0.055788 0.036029 -0.601242 -0.098771 -0.117337 -0.056899 -0.307163 -0.785693 0.299397 0.223208 0.231787 -0.117048 0.051712 -0.068468 0.327065 0.018301 -0.167335 -0.522997 0.156749 -0.495741 -0.173438 0.191530 0.029984 0.039350 0.065300 0.049122 0.232321 0.520402 0.039377 0.174762 -0.313871 0.102785 0.325831 0.128068 0.084468 -0.616200 0.383254 -0.155172 0.386023 0.439411 -0.000101 0.071561 0.109608 0.043283 0.113171 -0.484819 0.397117 -0.216955 -0.552888 0.319628 -0.003167 0.113133 0.534071 0.624182 0.068610 -0.483084 0.037592 -0.125346 -0.742841 0.279301 -0.046485 0.042976 -0.063567 0.303220 -0.197786 0.164554 0.380586 0.183642 0.211626 0.516452 0.545569 -0.288432 -0.488781 -0.258360 -0.026923 -0.169470 0.142156 0.191811 -0.041937 -0.349497 0.013446 -0.418957 0.066769 0.339906 0.358918 -0.033283 0.685263 0.456411 -0.421868 -0.723312 -0.055661 -0.841042 -0.203901 0.592295 -0.130421 0.477695 -0.080305 -0.080807 0.281072 -0.267301 -0.063272 0.475639 -0.050914 -0.347526 -0.323754 0.080768 -0.147024 -0.229711 -0.085010 0.634242 -0.007803 
a1882 0.679866 -0.641557 0.452080 -0.109461 -0.253181 0.288763 -0.441074 0.308030 -0.443673 -0.442752 0.547360 0.356544 0.902575 -1.020616 0.214790 0.156932 -0.810481 0.335197 -0.180217 0.027258 0.207605 -0.307340 0.270953 0.006744 -0.862934 0.218698 0.274444 0.704546 -0.280380 0.238144 -0.545863 0.168770 -0.444567 -0.394335 -0.634247 -0.304790 -0.032503 -0.548068 0.461779 -0.290210 -0.059881 0.317924 -0.274270 -0.440363 0.259254 -0.856362 0.861929 -0.490680 -0.278384 -0.009813 0.240375 -0.107153 -0.703512 0.112968 -0.712355 -0.404287 -0.284607 0.413083 -0.943412 0.051586 -0.180270 -0.335271 -0.929135 0.512856 0.468825 -0.391937 -0.425225 1.453116 0.419479 0.224174 -0.207813 0.824908 -0.378209 0.403059 0.229654 -0.096277 1.268983 -0.038406 -0.117222 0.319884 -0.499591 0.110744 0.658512 0.349669 1.017843 -0.456566 -0.125069 0.096186 0.075451 0.426980 -0.876422 0.182207 0.220394 0.423362 -0.141401 -0.305080 -0.403609 0.453252 0.231946 0.088331 0.241689 0.495232 0.081914 1.012777 0.497769 0.675258 0.248286 0.290109 0.151717 0.369859 -0.730210 -0.186622 0.499474 -0.564414 -0.379487 0.046240 0.194215 0.091992 1.173921 0.134379 0.249217 -0.027434 0.627301 0.559519 -0.296978 0.019375 0.536480 -0.222348 
a7876 0.001275 0.460677 -0.086847 0.177003 -0.268524 0.114920 0.131885 0.043443 0.000987 -0.290602 -0.315310 -0.054891 -0.054944 -0.473880 0.341577 0.211936 -0.196973 0.101250 0.211904 -0.054038 0.208610 0.105422 -0.333140 0.196711 -0.378576 -0.316401 -0.253839 0.388213 -0.058331 -0.233664 -0.210886 -0.122013 0.094212 0.139507 -0.217070 -0.291117 0.227118 0.055373 0.349434 -0.119271 -0.543526 -0.320747 0.244631 0.269103 0.366122 -0.344679 -0.206125 -0.054581 -0.006123 0.128020 0.119093 -0.428201 -0.084633 0.097497 -0.092354 0.033486 0.354830 0.293044 -0.297915 0.328840 0.032683 -0.127674 -0.580256 0.004893 0.298552 -0.359178 -0.324338 0.659913 0.257268 -0.344476 0.044437 0.111590 -0.004983 -0.199390 0.152126 0.345314 0.029482 0.011756 -0.156661 -0.164474 0.034673 0.071052 0.128821 0.165649 -0.049038 0.148066 0.036240 -0.074605 -0.007422 0.105740 -0.091050 0.084256 0.188734 0.078271 -0.179386 0.250717 -0.022132 -0.322615 -0.099114 -0.603397 -0.067151 0.166067 0.021353 0.075008 -0.032644 0.171934 0.465756 -0.203075 0.027535 -0.125816 -0.093927 0.059443 0.212036 -0.243613 -0.031546 0.008882 0.050081 0.428506 0.098643 -0.206236 -0.250753 0.266963 -0.129448 0.292488 0.006707 -0.076798 0.218505 0.064463 
a3698 -0.143792 -0.091617 0.188843 0.418489 -0.502894 -0.305332 0.069486 -0.013593 0.388121 -0.156621 -0.512663 -0.125876 -0.086675 -0.542504 0.427789 -0.122686 0.235506 -0.227474 0.477507 -0.206664 0.469363 0.248400 -0.860468 -0.020420 -0.071363 -0.217485 -0.631007 -0.300131 -0.206607 0.155223 -0.216608 -0.428481 -0.168412 0.237643 0.035163 -0.308789 0.263198 -0.559291 0.572261 -0.200078 0.193870 0.304074 -0.232445 -0.708427 -0.226513 -0.306686 -0.054750 -0.029158 0.247708 -0.040288 -1.265207 0.589518 -0.180276 -0.248131 -0.330069 0.074574 -0.291818 -0.070232 0.453127 0.357168 0.168145 0.118231 -0.490405 0.618245 0.372935 0.056778 0.176465 1.561460 0.139978 0.694377 0.214596 0.076491 -0.888556 0.090227 0.094007 -0.113679 0.400309 -0.746736 0.216564 0.049490 -0.272458 -0.387207 1.352610 -0.447691 0.737952 -0.382513 -0.101289 0.651863 1.166059 -0.356013 0.359789 0.326730 -0.422489 0.318509 0.063728 0.318563 -0.056615 -0.357640 -0.158942 -1.113879 0.430785 0.265839 0.295017 0.354314 0.402222 -0.094307 -0.895194 -0.096774 0.163068 -0.178556 0.153802 -0.039878 0.014131 -1.486815 -1.636141 0.235588 0.914065 0.623303 0.507328 0.513811 0.558091 -0.080260 -0.391371 0.569747 0.064215 -0.330827 0.308429 -0.052282 
a1375 -0.426427 -0.416370 0.307173 0.566888 -0.170663 -0.465521 0.269322 -0.069186 0.260639 0.082351 0.209225 -0.297118 0.273221 -0.441963 -0.219339 0.655233 0.163584 -0.344110 1.031387 -0.243945 -0.317599 -0.104398 0.220054 0.119956 0.197164 0.285052 -0.028174 -0.140671 0.554229 0.027189 0.328199 -0.491014 -0.550153 -0.105864 -0.521951 -0.904664 0.128256 -0.544544 0.017971 -0.576545 -0.257571 0.223607 0.013706 -0.779610 0.603079 -0.464524 0.824415 0.069660 -0.083244 0.189385 -0.578445 -0.271503 -0.397076 -0.120084 -0.516978 -0.455162 0.259875 0.542511 -0.325234 0.300682 -0.101809 -0.032997 -0.842306 0.290192 0.272876 0.080997 -0.030907 0.242333 0.310004 0.058484 0.279666 0.230814 -0.573954 0.389233 0.085730 0.316419 0.199941 0.108444 0.439434 -0.191387 -0.172593 0.012202 0.702167 0.564451 0.523079 -0.236816 -0.225516 -0.102012 -0.318073 -0.089346 -0.100922 0.140087 -0.655598 0.350768 -0.060514 0.276592 -0.068797 -0.042332 -0.318556 -0.206654 -0.011739 0.581704 0.111081 0.652298 0.284632 0.225978 -0.056930 -0.437706 -0.123866 -0.498839 -0.098935 -0.106172 -0.286307 -0.749340 -0.885327 -0.232653 0.271603 0.501367 0.421981 -0.075569 -0.329117 0.208887 -0.407921 -0.109226 0.251084 -0.520720 1.023065 0.093291 
a7653 0.145765 -0.276891 0.605697 0.491727 -0.144173 0.312093 0.115784 0.461545 0.020505 0.009517 -0.658135 0.522975 0.044867 -0.765533 0.057178 0.539475 -0.323032 0.058755 0.077531 0.346761 0.229009 -0.380561 0.039873 0.056961 -0.107076 -0.040456 -0.219075 -0.114693 0.162313 -0.258495 -0.382451 -0.128286 0.153205 0.015797 -0.197742 -0.226010 0.021104 0.187906 0.128131 0.181800 -0.127138 -0.072566 -0.425056 -0.203885 -0.004901 -0.175494 0.597381 0.352096 0.030030 0.292476 -0.240567 0.066407 -0.744500 -0.043311 -0.138653 -0.298152 0.300485 -0.185978 0.239923 0.003729 -0.047723 0.389739 -0.446650 0.423321 0.467321 -0.315660 0.320983 1.237276 0.158755 0.355046 -0.044694 -0.378181 -0.306410 -0.342905 0.102175 0.019451 0.381819 0.129719 0.458756 0.210913 0.025008 0.278673 0.174075 0.184675 0.449460 -0.588208 -0.205596 -0.081980 -0.607604 0.456945 -0.053998 0.091641 0.156646 0.279860 -0.121639 0.481418 -0.563644 -0.166175 0.052707 -0.101316 -0.088373 0.619199 0.135842 0.445423 -0.096300 -0.075115 0.312148 -0.056844 -0.303474 0.076100 -0.574861 0.051625 0.265743 -0.710812 -0.260280 0.258818 0.482206 0.595434 0.055823 -0.831549 0.147504 0.160708 -0.266539 -0.188984 -0.039560 -0.147271 0.759412 0.070610 
a2900 0.273066 -0.598043 -0.014460 0.075016 -0.019094 0.074053 0.121431 -0.264497 0.088629 -0.041261 -0.138532 -0.144662 0.141748 0.019224 0.359313 0.409966 -0.112630 -0.128122 -0.170494 0.615873 -0.219634 -0.270423 -0.008626 0.317584 -0.219936 0.147616 0.359778 0.209390 -0.326706 0.127137 0.399629 0.254357 -0.179293 0.192337 0.034451 0.042155 -0.014780 -0.073224 0.229833 -0.372720 0.016640 -0.181894 -0.122277 0.009903 0.004716 -0.490517 0.032607 -0.050720 -0.133261 -0.234924 0.071069 0.059719 -0.253261 -0.279875 0.214145 0.018413 0.383921 0.173732 -0.482726 0.039898 -0.220999 0.152677 0.538927 0.012067 -0.123417 -0.208135 0.214551 0.336607 0.055502 0.008921 -0.131881 0.094893 -0.013341 -0.481641 -0.198680 -0.476950 -0.138928 0.080780 0.264415 0.265059 -0.063338 0.020879 -0.053088 0.185330 0.039199 0.183559 -0.139970 0.491284 0.328545 -0.202398 0.147805 0.134916 -0.399922 -0.143456 0.000855 0.040125 -0.240137 0.086539 -0.089892 -0.509253 -0.108741 -0.108142 0.441940 0.536141 0.400515 0.237939 -0.379374 -0.163067 -0.097282 -0.086819 0.039652 0.002381 0.014700 -0.592374 -0.498355 -0.139934 -0.100630 -0.226904 0.261681 -0.324021 0.128778 -0.212980 -0.114828 0.149947 0.385649 0.003477 0.454811 0.229840 
a2639 0.197355 0.172182 0.176715 -0.033578 -0.225776 0.048044 -0.022648 -0.024311 0.106950 -0.048712 0.229025 -0.186012 -0.027012 -0.088832 0.012364 0.128096 0.037454 -0.271210 0.009934 0.191483 -0.045713 -0.517642 0.359889 0.137752 -0.077003 0.036454 -0.166608 -0.155251 -0.191186 0.399841 0.274610 0.021176 -0.013302 -0.069972 -0.050650 0.003633 0.228560 0.160861 0.030958 -0.345204 -0.111731 -0.156854 -0.091470 0.068452 -0.150988 0.134910 -0.155958 0.122033 -0.126897 -0.415286 0.003126 -0.109492 0.021705 -0.001421 0.254123 -0.220910 0.314306 0.149749 -0.168185 0.275680 0.192337 -0.084992 -0.061528 0.139563 -0.028604 -0.198315 -0.139188 0.172963 0.344554 0.455092 0.092303 -0.225909 -0.475645 -0.188917 -0.184836 0.142336 -0.117564 0.011189 0.189805 0.245275 0.130734 0.091559 0.213990 0.210498 -0.110946 0.060548 -0.050881 0.339031 -0.086263 -0.015817 -0.175380 -0.215992 0.132197 0.260993 0.189329 -0.140000 0.006511 -0.158208 -0.307037 -0.410401 0.297600 -0.228678 -0.100970 0.312242 0.403048 0.057903 0.079791 0.125612 -0.130694 -0.125338 0.159110 0.206326 0.277135 -0.217036 -0.044119 0.107738 0.065864 -0.062889 -0.193729 -0.135859 -0.232349 0.032738 0.350215 0.181150 -0.237466 0.143288 0.469336 -0.186596 
a2699 0.077282 -0.007294 0.008737 -0.045104 -0.028558 0.465587 -0.118996 -0.074196 0.014131 -0.310514 0.260027 -0.289719 0.351909 -0.170507 -0.118349 0.020265 0.081185 -0.025461 -0.067191 0.271498 0.025730 -0.382427 0.095619 0.438810 -0.083746 0.046456 0.044571 0.021731 -0.037995 0.292829 0.092888 -0.024641 -0.097574 -0.285321 -0.199940 0.144960 -0.093572 0.029600 0.066528 -0.204277 -0.049700 -0.392635 -0.075099 -0.111270 -0.149559 0.126512 -0.412621 0.176205 0.204398 -0.076815 0.015530 0.051072 0.019936 0.156282 0.000485 -0.077679 0.222318 0.399097 -0.126801 0.571368 0.166981 -0.206755 0.169984 0.023909 0.103092 0.182541 0.047717 -0.165218 0.088640 0.142894 0.092967 -0.168092 -0.154005 -0.364074 -0.052569 -0.252380 0.217298 -0.070564 0.028196 0.243638 0.066211 0.092148 0.126061 0.340134 -0.033119 -0.211832 0.147800 0.154302 0.050219 0.027945 -0.194519 -0.020869 -0.110198 0.194543 0.130274 -0.178526 -0.004718 -0.230120 -0.094873 -0.331104 0.187844 0.030617 0.011988 0.378173 0.103173 -0.326333 0.228327 0.197432 -0.376787 -0.293813 0.279764 0.335866 0.347902 -0.198455 -0.175394 0.359168 0.406678 -0.315823 0.030440 0.131443 0.067453 -0.130507 0.418698 0.159604 -0.268083 0.073164 0.546618 -0.117562 
a8512 0.581922 -0.102492 -0.066532 0.170264 0.131716 -0.140288 -0.038826 0.070657 0.266511 -0.053687 -0.036407 -0.196082 0.200611 0.257773 0.016242 -0.007913 0.516162 -0.056413 -0.281193 -0.045841 -0.035090 -0.232712 -0.007180 0.384822 -0.294916 0.080243 0.045810 -0.518095 0.073596 0.244896 0.037823 0.039155 -0.383753 -0.008747 -0.192309 -0.099985 0.380652 -0.274231 0.054786 -0.141153 -0.100679 0.236654 -0.276316 -0.022261 -0.208242 0.118578 0.010354 0.255199 -0.161113 0.306408 0.012541 -0.187797 -0.380025 0.055960 -0.045529 -0.045586 -0.058826 -0.193981 -0.279133 -0.084859 0.181332 0.102155 -0.120447 -0.215916 0.024430 -0.118974 0.095345 0.217950 0.244093 0.221798 0.286172 0.127104 -0.129706 -0.351677 -0.003515 -0.046825 0.227197 -0.296788 0.274689 0.363466 0.284764 0.493885 0.372522 0.240786 -0.188559 0.289426 -0.122729 0.210598 -0.136336 0.095428 -0.192496 0.388512 0.120256 0.230404 -0.090800 -0.009480 -0.295180 -0.226718 -0.151414 -0.347252 0.352265 0.011526 0.133354 0.195986 0.129555 0.221795 0.009646 0.240020 0.067127 -0.065059 0.205959 0.216635 0.121719 -0.132277 0.085841 0.130333 0.190783 0.155679 -0.061868 -0.059072 -0.070864 0.086407 0.502699 0.507624 -0.285443 -0.325379 0.106124 -0.233771 
a7873 0.237543 0.367957 -0.196578 0.230611 -0.124551 -0.011499 -0.021359 0.206107 0.060245 -0.350411 -0.295407 0.089621 0.246501 -0.541433 0.655968 0.321823 -0.180688 0.293536 0.433620 0.223279 0.122343 -0.000090 -0.265805 -0.010327 -0.153514 -0.323736 -0.325213 0.561546 0.009667 -0.180905 0.250542 0.110416 0.213869 0.258707 -0.395550 -0.239776 0.099957 -0.046522 0.180026 -0.075104 -0.335165 -0.349671 0.417496 0.110714 0.345720 -0.186267 -0.110786 -0.235713 0.273084 0.168979 0.339471 -0.557323 -0.127605 0.408253 -0.220797 0.103342 0.087172 0.425342 -0.316411 0.585137 -0.187315 -0.229796 -0.701658 -0.048296 0.384831 -0.272336 -0.288992 0.792178 0.505386 -0.488645 -0.321303 0.164801 -0.118339 -0.325029 0.177298 0.227328 0.072478 0.206392 -0.230269 -0.128414 0.164701 0.272097 0.395862 0.072326 0.213943 -0.020517 0.095372 -0.075108 -0.084209 0.293467 -0.246816 0.180439 0.071714 0.034267 -0.363038 0.220825 -0.193387 -0.430285 -0.249880 -0.437392 0.196111 0.498224 0.216528 0.050513 -0.131037 0.273968 0.585886 -0.357449 0.072191 -0.324122 0.183951 -0.206149 0.381948 -0.537008 -0.411510 0.134008 -0.045486 0.458318 0.071806 -0.351182 -0.256414 0.380300 -0.359720 0.374429 0.128359 -0.076398 0.133833 0.212622 
a1623 -0.516863 -0.035717 -0.191515 -0.052736 -0.194124 -0.194399 0.011731 0.146535 -0.107093 -0.414718 -0.278577 -0.361759 0.092622 -0.273062 0.028976 -0.079376 0.064274 0.115786 -0.036074 -0.135420 0.067655 -0.324520 0.218027 0.293029 0.092384 -0.187036 0.315454 -0.079028 0.175012 -0.074770 0.024357 -0.100163 -0.437290 -0.179119 -0.383356 -0.314773 0.224694 -0.425058 0.186404 -0.319008 -0.040854 0.014570 -0.496171 -0.332707 -0.237927 0.062063 -0.172521 0.041540 0.354765 -0.139105 -0.569757 -0.166025 0.106055 -0.078148 -0.099531 -0.117296 0.242715 0.349351 0.032935 -0.081236 -0.019754 -0.164866 -0.270705 0.110271 0.224368 -0.152487 -0.115768 0.298288 -0.219400 0.094976 0.119163 0.122197 -0.048328 -0.077492 -0.104692 0.063927 0.090030 0.621663 0.324015 0.196932 0.065048 0.157285 0.644345 0.282808 -0.136412 0.466948 -0.249169 0.288199 0.376964 0.113248 0.091848 0.046948 0.099352 0.512654 -0.339996 0.313842 -0.364028 -0.067252 -0.112023 -0.484220 0.392941 0.031465 -0.013090 0.310744 0.123694 0.199465 -0.340744 -0.034941 0.264697 -0.126009 -0.062386 0.031809 -0.150083 -0.190543 0.109678 -0.016673 -0.274361 0.041162 0.080564 -0.179319 0.031344 -0.007793 -0.083299 0.065692 -0.181167 -0.032558 0.164623 -0.061517 
a7652 0.184487 -0.132617 0.509692 0.662688 -0.290192 0.277275 0.157231 0.329847 0.150247 0.048679 -0.596354 0.272413 0.032049 -0.681749 0.173773 0.363264 -0.243812 0.081284 -0.070238 0.141354 0.084639 -0.053916 -0.125928 0.277377 -0.166227 -0.263646 -0.234719 0.145314 0.246760 -0.394417 -0.117656 -0.018245 0.114944 0.140142 -0.187547 -0.236622 0.272160 0.108431 0.307619 0.251478 -0.170440 -0.026715 -0.431617 0.048786 0.210504 -0.072882 0.394985 0.216120 0.295403 0.283676 -0.109810 -0.023823 -0.648898 0.048013 -0.204884 -0.192096 0.262395 -0.101898 0.296968 0.065439 0.113576 0.186797 -0.575575 0.432503 0.558618 -0.440141 0.151401 0.762807 0.197650 0.196349 -0.116654 -0.325425 -0.441664 -0.426905 0.027223 0.086691 0.328206 0.179831 0.171688 0.138365 -0.102409 0.327783 -0.001759 0.378286 0.501649 -0.481376 -0.183444 -0.143836 -0.454064 0.302497 0.049741 0.008468 0.102148 0.247463 -0.173033 0.386430 -0.252603 -0.118563 0.120812 -0.320737 -0.074256 0.242501 0.171047 0.427326 -0.102816 0.069216 0.282311 -0.066137 -0.193856 0.060725 -0.295513 0.143466 0.344073 -0.403234 -0.231458 0.194564 0.384867 0.550821 0.187805 -0.547941 0.119749 0.307435 0.119069 -0.156290 0.055724 0.025099 0.519122 0.122299 
